tree
version=v4
num_class=1
num_tree_per_iteration=1
label_index=0
max_feature_idx=10
objective=binary sigmoid:1
feature_names=ret_5m ret_1h ret_4h ret_24h vol_spike volatility_1h volatility_4h hl_spread bar_return sma_distance rsi14
feature_infos=[-0.066044340723453998:0.049351585014409283] [-0.15540736445346481:0.31215127092374462] [-0.2313683362427823:0.31379203949398349] [-0.33629528366370476:0.57662573897226022] [0:11.532385831272572] [6.471460554933004e-08:0.050245888484176181] [5.1619264596546626e-05:0.030564412676286842] [-0.025690999291282823:0.035982008995502301] [-0.065826330532212873:0.050486837360259607] [-0.11918124793660501:0.12600108302217472] [0:99.999996285463567]
tree_sizes=6948 7084 7125 7094 7157 7153 7147 7128 7144 7167 7114 7115 7165 7146 7169 7128 7131 7152 7179 7172 7141 7165 7186 7173 7199 7158 7216 7211 7189 7206 7216 7167 7195 7185 7245 7216 7200 7240 7198 7197 7190 7199 7181 7239 7161 7194 7211 7201 7142 7158 7182 7205 7200 7196 7210 7126 7175 7159 7154 7177 7189 7153 7293 7118 7184 7166 7196 7125 7135 7095 7156 7162 7157 7144 7126 7151 7110 7088 7144 7122 7180 7153 7153 7124 7221 7141 7091 7099 7122 7156 7086

Tree=0
num_leaves=63
num_cat=0
split_feature=6 6 6 6 6 6 6 1 9 5 5 9 5 3 5 9 5 6 6 1 3 5 3 9 3 5 3 9 1 5 6 3 6 3 3 1 4 5 3 6 5 5 6 1 9 1 9 1 5 9 3 1 6 3 6 6 3 3 9 9 5 1
split_gain=101248 17615.8 15615.3 3491.74 2377.3 2195.43 1994.9 927.758 754.904 674.52 555.616 544.291 432.891 425.767 376.923 341.844 322.69 316.206 287.598 249.814 231.782 231.085 204.979 181.438 171.707 168.06 156.357 154.143 150.72 150.114 147.316 140.391 139.827 138.93 136.179 133.957 121.791 118.836 117.524 116.179 109.775 102.734 98.911 94.7737 94.5455 93.5821 89.7104 89.2414 87.0713 84.0371 77.2073 96.7322 75.0252 74.8086 73.5724 73.4752 72.7549 97.4829 72.4424 71.9144 70.3595 69.2469
threshold=0.001291683543776476 0.002092122970003352 0.00086160221929545066 0.0029210032190221014 0.0015887045122230886 0.0010388172413124668 0.00068605129816051084 -0.010890894476423827 -0.0071650432603269079 0.0015037396274197132 0.0020204533663001306 -0.0044118592099409706 0.0012140097484381008 -0.088628770058661863 0.0011910248897135987 -0.0059215838807954993 0.0018064014241590501 0.00055231144339707914 0.0042538437037059869 -0.006946309467152966 -0.028914880244909343 0.00097538690133516283 -0.027159227245386771 0.00065943817005209582 -0.0098062709798157881 0.00074602997890203207 0.010967415003416027 -0.004885707578190234 0.0035851449554199504 0.0030772961770359122 0.0042538437037059869 -0.028032662494959944 0.0011720717659507724 0.023302600922512021 -0.01398601398601401 -0.01784162260180094 0.37541113810946264 0.0024133051233184368 -0.0038451635064115637 0.001485674349658178 0.0012994033005285079 0.0014773437266680501 0.00076285376621985782 0.0072102090088745916 0.0040109471993646792 -0.0056949433046666878 0.0027712811984044188 0.017925550445781483 0.00077273640481926426 -0.0032239068382862164 0.030111464444991468 0.017925550445781483 0.00094863524852132448 -0.034537848521711038 0.00093995590915009139 0.0011356214088926 -0.056892729687833703 -0.088628770058661863 -0.001449061398204887 0.0014038657952448743 0.00082359253111293016 0.0064123973300593837
decision_type=2 2 2 2 2 2 2 2 2 2 2 2 2 2 2 2 2 2 2 2 2 2 2 2 2 2 2 2 2 2 2 2 2 2 2 2 2 2 2 2 2 2 2 2 2 2 2 2 2 2 2 2 2 2 2 2 2 2 2 2 2 2
left_child=2 4 6 8 11 21 17 18 31 19 40 34 25 30 48 38 -15 -1 56 -6 35 46 23 -17 41 -7 42 -14 -24 50 -9 -3 61 -30 -2 -20 -12 49 -11 -26 -10 -16 -8 55 45 -23 52 -35 -13 53 51 -18 -4 -38 -47 -29 57 -5 -43 -28 -21 -27
right_child=1 3 5 7 9 12 26 13 10 15 36 14 27 16 24 22 29 -19 20 60 -22 44 28 -25 39 32 59 43 33 -31 -32 -33 -34 47 -36 -37 37 -39 -40 -41 -42 58 -44 -45 -46 54 -48 -49 -50 -51 -52 -53 -54 -55 -56 -57 -58 -59 -60 -61 -62 -63
leaf_value=-2.418357845952666 -2.2823371869421103 -2.1914449272408105 -2.3895948421749225 -2.2152396394656444 -2.2857855480781013 -2.3789682912140395 -2.4029609859381575 -2.2103649291426541 -2.3204707835505562 -2.2514072158564655 -2.2848602589804221 -2.3676606833982556 -2.3177539750075224 -2.293307716543513 -2.3324268289994343 -2.2765236599729413 -2.2378772450152513 -2.4092166519443952 -2.0666525218723799 -2.3597276222450541 -2.1949609970374859 -2.3559501719575562 -2.3116862772441755 -2.3089072632076086 -2.3410072820893641 -2.3682740484136984 -2.3923390427419045 -2.3611836251581719 -2.3050339549893542 -2.219213629866954 -2.1424683556399238 -2.2414300788770376 -2.3572190123711247 -2.2827732643893306 -2.3177132556411251 -2.1489483561919966 -2.2116691349219613 -2.2553443591950155 -2.2985615055996909 -2.3274563377663871 -2.2901687009657277 -2.3028715284011594 -2.3958317576976165 -2.3314597546958464 -2.3472974603228809 -2.3836127822140005 -2.3695949568792694 -2.1983926728786889 -2.3462638051121179 -2.2787791336753314 -2.2633125249044954 -2.1558240263788284 -2.3822103656040912 -2.2654511701283035 -2.3742080807696779 -2.3512162492317406 -2.2063491600083616 -2.1367744184202797 -2.3227600313727574 -2.3782177701558416 -2.3255785178281867 -2.3453026963862862
leaf_weight=25258.690997958183 513.87290373444557 279.3894924223423 8208.5651685297489 62.460988909006119 405.56539222598076 2059.5668613910675 8430.1175093650818 145.21983996033669 337.61849462985992 452.27398619055748 716.53804466128349 526.72560408711433 316.30182087421417 209.01312097907066 1820.5379828810692 1195.2227626740932 1022.8868597745895 15125.198841243982 123.90316620469093 156.34839758276939 91.928155571222305 522.65035763382912 4989.9041716754436 677.82320335507393 5060.5940236151218 8867.266061604023 3576.3422432541847 2760.5876214802265 1546.2425485253334 1707.6850041747093 177.58670121431351 282.52429738640785 5281.9896242022514 760.81716477870941 578.05803537368774 82.288630306720734 90.909343957901001 2361.1350989341736 186.67763561010361 2300.8684735000134 2604.8661848902702 687.14924812316895 11504.890958368778 471.16118609905243 285.34562185406685 3319.2882362008095 830.88005572557449 32.680341750383377 4885.1233157515526 1269.6743805706501 311.44287317991257 37.225808948278427 5920.392655134201 223.90344455838203 5567.6487265527248 5598.6832956969738 302.66541928052902 108.0724011361599 1372.104132771492 1205.4892489314079 4277.9899643361568 340.67492946982384
leaf_count=322300 6557 3565 104741 797 5175 26280 107568 1853 4308 5771 9143 6721 4036 2667 23230 15251 13052 192997 1581 1995 1173 6669 63671 8649 64573 113146 45634 35225 19730 21790 2266 3605 67398 9708 7376 1050 1160 30128 2382 29359 33238 8768 146802 6012 3641 42354 10602 417 62334 16201 3974 475 75544 2857 71043 71439 3862 1379 17508 15382 54587 4347
internal_value=-2.36712 -2.30348 -2.39191 -2.25318 -2.32295 -2.37101 -2.40809 -2.21718 -2.2725 -2.30806 -2.27663 -2.33526 -2.36078 -2.22781 -2.3375 -2.30055 -2.23319 -2.41493 -2.1674 -2.32335 -2.12893 -2.38166 -2.303 -2.28824 -2.33229 -2.3656 -2.3969 -2.35205 -2.30678 -2.22911 -2.17301 -2.21658 -2.3637 -2.29631 -2.30106 -2.0995 -2.2659 -2.26245 -2.26518 -2.33677 -2.29365 -2.32377 -2.39885 -2.35328 -2.37565 -2.37651 -2.38556 -2.2793 -2.34835 -2.27305 -2.24143 -2.235 -2.3865 -2.24992 -2.37772 -2.35451 -2.19163 -2.16551 -2.31612 -2.38878 -2.32678 -2.36742
internal_weight=160427 44975.5 115452 12548.9 32426.6 50351 65100.7 4382.38 8166.56 14681.5 7604.64 17745 25696.2 3611.06 16653.1 9841.64 3288.25 40383.9 771.319 4839.9 298.12 24654.8 9202.69 1873.05 11241.3 16549.5 24716.8 9146.73 7329.64 3079.24 322.807 561.914 14489.9 2339.74 1091.93 206.192 4662.16 3945.62 638.952 7361.46 2942.48 3879.79 19935 8830.43 9694.93 9409.59 14959.8 793.498 5411.85 1584.49 1371.56 1060.11 14129 314.813 8886.94 8359.27 473.199 170.533 2059.25 4781.83 4434.34 9207.94
internal_count=2047046 573886 1473160 160124 413762 642477 830683 55919 104205 187336 97035 226426 327883 46077 212493 125579 41958 515297 9842 61757 3804 314594 117426 23900 143438 211171 315386 116712 93526 39291 4119 7170 184891 29855 13933 2631 59489 50346 8153 93932 37546 49506 254370 112676 123707 120066 190887 10125 69055 20218 17501 13527 180285 4017 113397 106664 6038 2176 26276 61016 56582 117493
is_linear=0
shrinkage=1


Tree=1
num_leaves=63
num_cat=0
split_feature=6 6 6 6 6 6 6 5 9 5 9 5 5 3 9 9 3 6 10 9 6 5 3 5 9 10 10 6 9 3 9 3 6 9 6 6 6 3 10 5 9 5 10 5 5 9 6 10 6 7 6 6 3 9 10 4 9 9 5 6 10 3
split_gain=88437.9 15484.3 12146.4 2807.61 2299.2 1957.83 1318.2 563.593 539.148 525.735 513.213 397.221 337.177 335.327 256.181 248.724 239.873 227.89 213.567 198.452 193.269 182.754 175.594 157.431 144.62 138.255 136.289 129.998 128.873 126.54 122.633 112.768 112.224 109.194 106.515 105.34 104.882 104.308 96.7916 92.5223 86.5439 86.0136 85.1801 83.8232 83.7243 81.9241 81.4967 80.9828 80.6585 75.6506 71.7479 71.5906 70.0848 76.3814 68.1141 67.0048 66.5913 66.273 63.2986 63.0982 62.9383 61.9207
threshold=0.0012243411583748992 0.002092122970003352 0.0008114715184895058 0.0015887045122230886 0.0029210032190221014 0.00099895720869597692 0.00060539446339753246 0.0014059823093755246 -0.01051423076446961 0.0015037396274197132 -0.0064624999989961731 0.0020204533663001306 0.00095991026846921985 -0.088628770058661863 -0.0064624999989961731 -0.0037737116040634229 -0.011119716035503767 0.00091325915822110606 34.03218815093377 -0.0055110199250614214 0.0007007919626332539 0.0018064014241590501 -0.023584449737205911 0.00077273640481926426 0.00075936085964611888 57.462546606470305 73.40742741542428 0.0013422532397737502 -0.0071650432603269079 -0.020291785477789644 0.0041840889982941451 -0.043625011927269801 0.00046645428903076828 0.0034773980960515209 0.001129490321505813 0.001485674349658178 0.0042538437037059869 0.023302600922512021 47.091845310280718 0.0030772961770359122 0.0023475364386326141 0.0025473319034502685 35.243283880326146 0.00097538690133516283 0.0013166855981806825 -0.004885707578190234 0.003796204625267874 86.208434619373776 0.0013422532397737502 -0.00025842055162395011 0.001124055402661555 0.0014083617856079898 0.008585018075847441 -0.0025078116312158279 32.496303432992555 0.37541113810946264 -0.0042287295104080904 0.0021951084702180883 0.00225653515026797 0.0016996278923966247 75.652953948931085 -0.0078557022322498487
decision_type=2 2 2 2 2 2 2 2 2 2 2 2 2 2 2 2 2 2 2 2 2 2 2 2 2 2 2 2 2 2 2 2 2 2 2 2 2 2 2 2 2 2 2 2 2 2 2 2 2 2 2 2 2 2 2 2 2 2 2 2 2 2
left_child=2 3 6 7 10 17 32 15 31 19 29 44 50 26 49 51 18 33 48 -5 57 45 24 -17 58 -24 36 -25 -14 -3 34 -6 -1 52 -30 -18 -10 -27 -38 54 -22 42 61 -19 -12 -15 -41 59 -9 -11 -7 -2 53 -4 -23 -43 -45 -8 -16 -39 -56 -13
right_child=1 4 5 9 8 12 20 16 13 14 11 41 28 21 22 23 35 43 -20 -21 40 39 25 27 -26 37 -28 -29 30 -31 -32 -33 -34 -35 -36 -37 38 47 -40 46 -42 55 -44 56 -46 -47 -48 -49 -50 -51 -52 -53 -54 -55 60 -57 -58 -59 -60 -61 -62 -63
leaf_value=-0.052422462488787208 0.033961806846692935 0.13870091477238933 -0.011376289007494262 0.095611525083601628 0.20629216064133182 -0.0097280406097944392 -0.040113412085633078 0.044202858412750734 0.12571292522028574 0.049901738326775413 0.043004254906444758 0.12612817737597318 0.08876677498006573 0.16053567060706297 0.07320982666691167 -0.0028766180581424761 0.025481436929047547 -0.016570437622494581 0.038843578559950569 0.038251972334205284 -0.031463410512607128 0.13911766892761626 0.048883449444133024 0.014073748187553477 0.052819477532170679 0.055760828129981836 0.25145958513191563 0.024247312273690935 0.00082930754817480139 0.098264491551511679 0.026717897642328372 0.15015548724283306 -0.046236942558964489 0.00511799837263089 0.0091718168455601178 0.039546418693347025 0.21312742609795504 0.051150962776210451 0.14796661739981451 0.1151166137045585 -0.015256932287733449 0.076285548930826341 0.077978556259933607 0.027762500797388304 0.068145488295141124 0.0636440018107607 0.13431082286870893 0.14498161190153874 0.078234014571709129 0.10122591341714092 7.9617584034746163e-05 0.063036718082210688 -0.017262958385858694 -0.026435299423293923 0.10318137648827458 0.098325753342460034 -0.0089696945341898471 -0.021759148631868355 0.097421147616725545 0.080816246520747925 0.13968591321478108 0.080724160481918592
leaf_weight=16371.824593059719 544.89256896078587 451.87004319578409 922.19983153790236 155.61992060393095 220.17938039451838 6039.196573831141 10467.755326665938 247.7030286937952 193.44328093528748 85.154053255915642 377.31961469352245 170.92045714706182 46.298534132540226 24.314678579568863 1234.8081418648362 847.56285148113966 4497.9273125380278 6952.6905407607555 2460.5170774385333 4862.3312305882573 14063.180037915707 178.06034914404154 4697.8402042686939 6013.1564054638147 839.14138951152563 1761.7771025076509 38.24997902661562 6571.6992413699627 9053.9387607052922 338.33827425539494 637.97277384996414 150.68524275720119 13281.545292027295 353.03950161486864 6626.3897351846099 1890.8597089797258 98.673047766089439 241.94855930656195 134.91245301812887 1020.9483561292291 875.01146022230387 415.22370600700378 2199.3450291231275 126.68578870594501 2705.9940568506718 212.30928890407085 1206.5983534827828 40.933626368641853 586.08669094741344 457.73411329090595 2697.727308139205 346.25731524080038 3866.1145886704326 9687.8222410157323 1347.0058955773711 2034.2829509526491 4736.2252569049597 516.06311000883579 345.49124681204557 691.71571417152882 129.42065439373255 133.93128264695406
leaf_count=218015 6749 5071 11980 1860 2310 77564 138176 3045 2174 998 4624 1991 573 278 14681 10845 56177 90021 30291 59897 184121 2003 57201 75674 10205 21389 415 82072 115528 3917 7997 1672 176311 4537 83795 23334 1040 2895 1435 11505 11403 4952 25974 1606 32412 2548 13564 470 7067 5369 34419 4234 50228 126172 15505 23686 60848 6804 4104 8267 1470 1578
internal_value=-9.09107e-05 0.0526191 -0.0262211 0.0366699 0.0982391 -0.00878894 -0.0424523 0.0259776 0.125497 0.0533222 0.0829387 0.0791583 0.00123119 0.120806 0.0597374 0.0196786 0.0352952 -0.0182287 0.0462545 0.0400308 -0.0342162 0.116261 0.0578951 0.0179815 0.0695951 0.0540874 0.161041 0.0193863 0.00546543 0.121388 0.00522909 0.183483 -0.049652 -0.0223563 0.00435479 0.0296442 0.152942 0.0630215 0.175492 0.118861 -0.0305141 0.087928 0.0814118 -0.0130484 0.0650688 0.0736003 0.125514 0.0761467 0.068124 0.0931755 -0.0066997 0.0452589 -0.0230263 -0.0251264 0.109904 0.0945896 -0.00801277 -0.0392511 0.078503 0.0731288 0.106381 0.106181
internal_weight=160525 53203.2 107322 39421.2 13782 51746.3 55575.4 24006.7 4954.8 15414.5 8827.23 8037.02 25101.5 4583.94 10396.5 14323.6 9683.09 26644.8 3294.31 5017.95 25922 4118.66 9853.66 13432.4 2419.44 7434.22 465.279 12584.9 16364.6 790.208 16318.3 370.865 29653.4 14829.2 15680.3 6388.79 427.029 2736.38 233.586 3882.03 14938.2 4953.7 2504.2 11815.6 3083.31 236.624 2227.55 974.598 833.79 542.888 8736.92 891.15 14476.1 10610 1654.49 2449.51 4862.91 10983.8 1580.3 933.664 1476.43 304.852
internal_count=2047046 646948 1400098 486824 160124 665268 734830 299488 55919 187336 104205 95217 319876 51937 125579 179574 119914 345392 40403 61757 340504 46873 119212 168591 28990 90222 5064 157746 207893 8988 207320 3982 394326 192917 199323 79511 4649 33021 2475 44047 195524 58181 29543 152475 37036 2826 25069 11632 10112 6367 111983 10983 188380 138152 18978 28638 62454 144980 18785 11162 16975 3569
is_linear=0
shrinkage=0.05


Tree=2
num_leaves=63
num_cat=0
split_feature=5 5 5 5 5 5 5 3 9 3 9 1 1 1 3 1 5 5 1 1 3 3 1 5 4 1 3 4 10 1 5 5 5 10 3 4 5 1 3 9 3 10 3 1 3 3 3 3 3 9 1 5 5 3 3 3 3 1 3 3 1 3
split_gain=70034.4 11893.9 10534.5 2109.64 1652.45 1372.4 1268.01 568.623 474.506 385.613 346.52 339.79 318.584 299.091 284.023 279.702 225.522 223.725 218.565 247.118 216.216 214.108 197.523 168.643 167.548 166.815 164.285 154.004 153.255 138.455 118.394 117.621 116.068 116.046 113.73 108.721 103.371 100.498 100.199 96.6109 96.1019 96.0775 94.6951 93.2897 89.5373 85.0391 83.623 81.2976 75.0421 71.9475 67.4233 66.1426 66.0932 64.5334 63.8485 66.4982 60.5917 60.3653 58.5455 57.4129 56.8683 56.818
threshold=0.0012299434113870031 0.00073631429666325642 0.0019317305707929461 0.0030772961770359122 0.00097538690133516283 0.0014910472389528565 0.00051589320873160407 -0.013415603207551528 -0.0039151473138518402 -0.030900859747584993 -0.01051423076446961 -0.0083093271125042594 -0.006701925869897595 0.0042754328899919933 0.015064009351292375 -0.0060459492140265128 0.0023590714535649689 0.0017451570205561607 0.0049285538266563575 -0.0062473520565626264 0.042297029984107899 -0.088628770058661863 0.0075585596355686189 0.00085674186530177636 0.30018794220319195 0.004371706138326604 -0.029889747813965247 0.26237916808285039 23.699816940429297 -0.010890894476423827 0.00062294797835994156 0.0010705302962226197 0.00040121822570042168 81.447867631896372 -0.039388881408994152 0.26237916808285039 0.0013747463682547238 0.0083762038467400952 -0.025651721249782097 -0.0082249811916693099 -0.062776565052828623 68.948866015737096 -0.011119716035503767 -0.014058901325402827 -0.024992599882626695 -0.030900859747584993 0.017566489481455342 -0.071739996811732695 0.025891086999093153 -0.002822713997705006 0.0064123973300593837 0.0034987289130721222 0.0024778307191621585 -0.020291785477789644 -0.029889747813965247 0.019186572736213939 -0.0076589051958105272 0.0051837529542259073 0.026606653617602508 -0.031998605491865888 0.0079436751723741556 -0.0098062709798157881
decision_type=2 2 2 2 2 2 2 2 2 2 2 2 2 2 2 2 2 2 2 2 2 2 2 2 2 2 2 2 2 2 2 2 2 2 2 2 2 2 2 2 2 2 2 2 2 2 2 2 2 2 2 2 2 2 2 2 2 2 2 2 2 2
left_child=1 6 5 7 13 12 32 11 29 28 34 47 44 15 25 45 -13 37 19 39 24 41 26 46 -9 30 -14 -23 -6 40 -8 -21 -1 -18 -5 -28 -37 42 -19 -11 -7 -12 -10 -26 -2 -3 53 -4 -44 -32 -15 61 -45 -17 -25 -56 -42 -16 60 -51 -20 -29
right_child=2 4 3 10 9 8 14 20 17 18 21 16 22 50 57 23 33 38 58 31 -22 27 -24 54 43 -27 35 51 -30 -31 49 -33 -34 -35 -36 36 -38 -39 -40 -41 56 -43 48 52 -46 -47 -48 -49 -50 59 -52 -53 -54 -55 55 -57 -58 -59 -60 -61 -62 -63
leaf_value=-0.050974279083601914 0.067687223385980613 0.068711043865751109 0.13881038541943169 0.16625994557221782 0.077795844066283523 0.16669850019150423 -0.038843631025641326 0.032814243540599898 0.039250106853593127 0.15385581958287764 0.12691280357951848 0.064217893123410072 0.0353474277971755 -0.0033529778691073183 -0.019476380891330813 -0.0094260200312404879 0.084801362442294345 0.061346267364562695 0.0079984628414627949 -0.0058951946465874878 0.076340622114789966 0.061365874527189723 0.042526232225202576 0.0085480283186538542 0.1008047470284371 -0.01183516673057571 0.0040257856143365335 0.10186762634368095 0.023653930081906426 0.056813010695638183 -0.011415989439730052 0.0016868357926424762 -0.044198756922007608 0.1838965702492035 0.11759516023141803 0.014195681770149075 0.023649756001152489 0.052939540182294124 0.043217509986200477 0.021017659389909141 0.095929238994972688 0.20057089386235205 0.025368284879242628 0.053639399694200632 0.037271034314944246 0.0083376258887800717 -0.009964684706749341 0.09884240954968429 0.038642822506029989 0.007495212359825993 0.014935351357376843 0.10593067062522366 0.065875618340714523 -0.023194183374750033 -0.014867259971602199 -0.0034662323583488637 0.056471158089686516 0.013895178908402262 0.034610133976016803 -0.032718705680740166 0.029164957395481323 0.080671774225138507
leaf_weight=14487.96678891778 331.78551929444075 63.506988100707531 145.49671515822411 289.76640293747187 150.16103555262089 35.894742667675018 10963.812082499266 747.54882623255253 3154.6460518091917 13.861645624041556 372.50754266232252 2709.3079405650496 1216.9011731892824 1829.9021438211203 2812.5803929418325 917.07575263828039 1997.6518004238605 951.48204105347395 1496.6186787709594 9032.0027306452394 1467.6562191694975 264.55922532826662 848.38864272087812 335.89754023402929 124.52691835910082 799.08590151369572 1622.7648858875036 660.19054448604584 1008.6725731194019 1553.6283551156521 422.52266502380371 11794.817505888641 11212.36270274967 29.987071357667446 204.98822761327028 7588.9433669373393 4670.9665272682905 628.33188604563475 3831.3729792311788 1088.7812826707959 265.18025628477335 50.242264494299889 4492.0801761075854 3970.2018821910024 893.65021000802517 715.0396031588316 1567.3402681276202 1013.4749859720469 1395.3546313494444 89.432878725230694 695.51705093681812 2311.9962128698826 1528.4230874627829 11827.46104671061 11012.28598382324 1447.0332312136889 153.67562627792358 142.37032866477966 354.90965852886438 11723.960389986634 402.72077542543411 606.75372182577848
leaf_count=200971 3851 785 1457 2647 1806 369 148995 8678 37133 159 3587 30577 14728 23687 37415 11965 21748 10885 18821 116044 16300 2847 10253 4271 1343 10538 20243 6946 12497 18022 5593 149609 153844 307 2062 94321 57226 7372 45104 13440 2910 459 54273 45667 10660 9179 20470 10812 16552 1168 8825 23842 16860 157040 144182 18641 1739 1850 4407 157636 4967 6461
internal_value=-0.000129209 -0.0230301 0.0474943 0.0778051 -0.00693539 0.030827 -0.0400722 0.0678627 0.0411429 0.00249412 0.106486 0.0795932 0.0209387 -0.0147933 -0.0324956 -0.0162855 0.0736559 0.0379785 0.00114401 -0.000379999 0.0590392 0.101893 0.0190509 -0.0171342 0.0550533 -0.0342966 0.0177319 0.0981778 0.0306696 0.0639156 -0.0350703 -0.00160128 -0.0480183 0.0862669 0.146097 0.0161878 0.0177976 0.0336036 0.046824 0.0226876 0.088181 0.135667 0.0322599 0.0580098 0.0455062 0.0132624 -0.0208631 0.10386 0.0285144 -0.0316892 0.00168375 0.100899 0.0570406 -0.0222034 -0.0129632 -0.0135431 0.0814523 -0.0178685 0.0159696 -0.0324143 0.0124864 0.0917167
internal_weight=160538 108408 52130.3 18495.3 55753.6 33635 52654.1 13734.3 16461.6 25342.5 4761 5895.92 17173.4 30411.1 26953.8 27885.6 4736.95 14453.3 24183.7 21929.5 7838.36 4266.25 15948 27107.1 6370.7 23998.8 15099.6 3843.5 1158.83 2008.38 23199.7 20826.8 25700.3 2027.64 494.755 13882.7 12259.9 9670.41 4782.86 1102.64 454.751 422.75 9042.08 5623.15 1225.44 778.547 14311.9 1158.97 5887.43 12235.9 2525.42 3578.94 5498.62 12744.5 12795.2 12459.3 418.856 2954.95 2254.25 11813.4 1899.34 1266.94
internal_count=2047046 1438805 608241 202600 720795 405641 718010 153749 194359 321750 48851 64901 211282 399045 363195 366533 52632 171319 307447 279252 88848 44142 196771 356569 72548 323930 186518 40096 14303 23040 313392 265653 354815 22055 4709 171790 151547 115330 55989 13599 5018 4046 107958 63870 14511 9964 189475 12269 70825 164397 32512 37249 62527 169005 167094 162823 4649 39265 28195 158804 23788 13407
is_linear=0
shrinkage=0.05


Tree=3
num_leaves=63
num_cat=0
split_feature=6 6 6 6 6 6 6 2 2 5 1 2 5 9 6 6 6 2 6 2 6 2 2 5 10 2 3 2 2 1 6 1 6 9 2 9 6 5 10 1 2 1 2 10 10 3 5 5 2 2 1 3 1 9 4 10 2 3 10 6 9 6
split_gain=70414 11091.8 9785.7 2009.27 1627.98 1327.08 1256.59 700.431 559.461 331.635 307.053 298.648 237.176 220.492 215.1 205.973 179.586 177.467 159.308 150.292 142.969 203.137 135.689 125.345 117.865 112.481 110.37 105.162 102.614 97.3208 96.8432 95.8219 95.3138 90.3495 89.4891 87.3634 83.7517 82.2717 81.52 80.2703 80.0315 78.918 76.5095 89.449 76.0082 75.6179 71.0408 70.9808 70.9747 70.4205 69.8947 67.4487 65.9333 65.3505 65.0836 64.9417 64.8953 66.7534 64.9893 64.3807 63.8606 66.4395
threshold=0.0012176020453249503 0.0008114715184895058 0.002092122970003352 0.001485674349658178 0.00099895720869597692 0.00059416371151344569 0.0028028352077988385 -0.0094666214582901347 -0.012352489214934091 0.0013650731114504271 -0.010015920042442115 -0.015761695895793456 0.00095991026846921985 0.00027518509925128504 0.00069101711961812101 0.00091325915822110606 0.0013422532397737502 -0.013772937124955918 0.0016485937833234565 0.016425510314403317 0.003796204625267874 -0.0099950634141730537 0.0079656657852756902 0.0024133051233184368 25.031847926187599 0.0079656657852756902 0.048437844129829551 0.0058919061911291157 -0.013772937124955918 -0.010890894476423827 0.00046645428903076828 -0.0060459492140265128 0.0034631056631942748 0.0045782872158367524 -0.013772937124955918 0.0083024764185234429 0.0018392951315497742 0.00076404732682306656 76.173777988378944 0.0053291380977821276 0.018545894703990377 0.0049285538266563575 -0.015761695895793456 34.03218815093377 83.410922155294756 -0.046203778624715856 0.0034987289130721222 0.0018064014241590501 0.0048836001641194846 0.019987600535002262 0.0056287361058590122 -0.039388881408994152 0.0072102090088745916 -0.0039151473138518402 0.31040800864694545 76.173777988378944 -0.0028174079340840814 -0.015902253768344084 34.531730773441581 0.001129490321505813 0.0021951084702180883 0.0023482879405095887
decision_type=2 2 2 2 2 2 2 2 2 2 2 2 2 2 2 2 2 2 2 2 2 2 2 2 2 2 2 2 2 2 2 2 2 2 2 2 2 2 2 2 2 2 2 2 2 2 2 2 2 2 2 2 2 2 2 2 2 2 2 2 2 2
left_child=1 5 3 11 15 30 8 13 60 -9 32 -2 50 24 48 25 37 31 54 56 21 35 59 29 -5 34 -21 -16 -17 51 -1 -14 -8 -25 -3 47 -26 -13 -23 -30 -22 -24 43 -34 -28 -18 -35 -12 -7 53 -6 -10 -27 -47 -11 -29 57 58 -20 -19 -4 -62
right_child=2 4 6 7 12 14 10 9 23 18 20 16 17 -15 27 28 45 22 19 26 40 38 41 33 36 52 44 55 39 -31 -32 -33 42 46 -36 -37 -38 -39 -40 -41 -42 -43 -44 -45 -46 49 -48 -49 -50 -51 -52 -53 -54 -55 -56 -57 -58 -59 -60 -61 61 -63
leaf_value=-0.051814836017789301 0.051192688614212736 0.027673947860222765 0.090485755299005155 0.081495951386349685 -0.0069757214493262852 -0.040367719732621279 0.098812549173478093 0.025804750776525727 0.1477483847322118 0.017320391227321864 0.048580331930728943 -0.0057432381285918779 0.057086887110203433 0.039213596262996149 -0.030972814203404826 0.03248933804044251 0.056838293070515002 -0.001357922149318078 0.089406953341735318 0.055028313799392541 0.092492015643439895 0.070610203365628108 0.0080360898744477206 0.061924107879390178 0.053603233556006859 -0.0089345531346070664 0.083530762514960985 -0.023059122615835034 -0.013614567943622317 0.052141362056849327 -0.045677862000463143 0.013748535946005398 0.15379384525104201 0.075851582564107511 -0.022691116151084163 0.17736682191881775 0.071576565139056733 0.015090250738119424 0.10194244346236628 0.0055015905830084815 0.11416689904847764 0.027461573914900197 0.10528643968720681 0.11156955426213933 0.17144223427639846 0.038282080384266268 0.11880696902339638 0.10189083451327746 -0.02781460810544923 0.05505455725477662 0.01410554251775889 0.07324984891529078 0.038287288570836527 0.021301203843960996 0.035701961450757602 0.00013628328331744007 0.039605646702964376 0.042520758817360144 0.054124629631693261 0.0057586595150171636 0.034244659495723959 0.084171705403843167
leaf_weight=15036.056279070675 729.45929808914661 88.788812570273876 1944.6376609355211 797.23023574799299 8013.544324927032 9030.204598531127 528.32919953763485 4808.6699110940099 39.852284297347069 555.47936603426933 67.198990523815155 498.04141400754452 232.23094742000103 1128.2903827354312 13621.31950173527 127.29832906275988 169.46348842978477 7935.625183776021 159.02991183847189 889.57058476656675 1423.1679698824883 2030.9067206978798 1563.5837893411517 1798.0299773737788 1889.3965469822288 964.39197270572186 169.44328461587429 1408.985182210803 10888.890112251043 4377.2469711899757 11229.183697640896 282.93539514392614 322.56354890018702 513.78266683965921 13220.261281602085 36.096448667347431 986.60272610187531 9767.184590831399 231.23355899006128 578.31950605660677 607.74692693352699 785.5093444660306 286.64490585029125 205.22893448174 28.76052662730217 609.45707774907351 118.44160805642605 881.46511228382587 1286.4141545370221 169.31788893043995 413.46596469730139 127.85352332144976 80.055699191987514 8055.3359999880195 3618.5134582594037 383.99870497733355 5185.0850639045238 1251.6738479882479 727.96151874959469 5300.8230900242925 108.11069229245186 173.68284302204847
leaf_count=218015 8417 1164 19792 8461 104940 126928 4898 57489 382 6396 744 6535 2778 12849 187108 1622 1966 100524 1701 9856 13384 20361 19679 18325 21212 12845 1835 19244 143450 47486 160406 3531 2712 5232 177901 346 10730 119370 2270 7403 5743 9562 2596 1779 291 6933 1180 8633 17980 2019 5264 1307 1007 96947 41429 5149 58029 14098 8010 65849 1141 1813
internal_value=-0.00015695 -0.0250771 0.0438586 0.0312838 -0.00838109 -0.0412849 0.0773924 0.0416406 0.0654402 0.0369739 0.0940042 0.019789 0.000854759 0.0585462 -0.0332144 -0.0171114 0.0186001 0.00441182 0.0412415 0.0452042 0.0885729 0.0820645 0.00345744 0.0584747 0.0644845 -0.0211152 0.0625461 -0.0294745 -0.0121549 0.0535735 -0.0491911 0.033285 0.115352 0.0676408 -0.0223551 0.10102 0.0597689 0.0140795 0.073813 -0.0126505 0.0989782 0.0145317 0.126081 0.137375 0.0962872 0.0237543 0.0838989 0.0981146 -0.0388024 0.0231196 -0.00594138 0.0909531 -0.00531505 0.0224956 0.0332557 -0.0180914 0.0426284 0.0499569 0.0604504 0.00149207 0.0872623 0.0650171
internal_weight=160488 102472 58016.2 42194 50475.7 51996.2 15822.2 22195.7 9201.64 17394.2 6620.58 19998.3 24527.7 4801.52 25730.9 25948 19268.8 16100.7 12585.5 8411.52 5277.82 3246.9 15585.5 6975.21 3673.23 14353.5 1087.77 15414.3 11594.5 4544.95 26265.2 515.166 1342.77 2430.25 13309.1 984.761 2876 10265.2 2262.14 11467.2 2030.91 2349.09 814.437 527.792 198.204 9003.57 632.224 948.664 10316.6 8834.11 8427.01 167.706 1044.45 8664.79 4173.99 1792.98 7323.75 2138.67 886.991 13236.4 2226.43 281.794
internal_count=2047046 1392349 654697 494573 657519 734830 160124 252386 96658 199134 63466 242187 312127 53252 356409 345392 233770 201923 141645 93820 51481 32354 195614 73912 40403 192917 11982 211501 152475 49175 378421 6309 11985 24737 179065 9723 31942 125905 22631 150853 19127 29241 7087 4491 2126 107865 6412 9377 144908 105899 110204 1689 13852 103880 47825 24393 81838 23809 9711 166373 22746 2954
is_linear=0
shrinkage=0.05


Tree=4
num_leaves=63
num_cat=0
split_feature=2 2 3 3 7 7 2 2 1 1 3 3 3 7 2 2 9 7 9 7 1 3 7 9 3 7 0 9 1 3 9 3 0 0 1 10 1 9 7 7 10 2 2 7 9 10 1 10 3 1 1 3 1 9 1 10 7 3 7 7 8 7
split_gain=19892 12679.1 6627.76 4343.42 2997.1 3315.48 1944.21 1723.09 1476.27 1591.91 1014.86 827.238 730.097 720.325 703.294 594.274 523.366 490.68 393.975 389.156 342.43 335.914 329.943 326.368 318.187 310.651 302.79 273.482 264.113 252.994 251.226 243.454 232.096 229.468 202.632 200.071 196.991 195.882 192.265 177.187 175.908 174.48 170.029 156.344 155.826 150.86 149.573 143.31 139.012 133.294 127.454 121.273 120.123 119.725 119.364 118.818 117.578 117.039 107.249 131.148 106.559 99.3913
threshold=-0.010848126232741727 0.0089453860640301714 -0.019819877169075236 0.015397612553497588 0.00060273556164058839 -0.00052785768993462978 -0.018800828001086841 0.018545894703990377 0.0036622869786500094 -0.0036151558458763495 -0.033189709288571782 -0.033189709288571782 0.027432199580080811 -0.00090162743754740305 -0.0052761013183548746 0.0043915954852649106 0.0045782872158367524 0.0010246315517064011 0.00437491533598633 0.0010602526440313122 -0.009336230077292838 0.045120188452091765 -0.00085085742318830027 0.001347600400798288 -0.056892729687833703 0.00083045557412675397 -0.00079781929745653668 -0.004634209781533948 0.0066558997859219602 0.058738005688363189 -0.0034233827698586512 -0.062776565052828623 0.00060350030175004854 -0.0022573363431150346 -0.006701925869897595 27.528797783254429 -0.0058642743952088119 0.0028430220227043672 0.00038352078246861604 -0.0015775034590387869 61.05509317009529 -0.015025324392449855 0.01224267977723126 -0.0010588438195904824 -0.0013302028287666687 40.727136999000358 0.017925550445781483 69.245399636357945 0.066978561151254459 -0.014058901325402827 0.0064123973300593837 0.029139860898441564 -0.0064553990610328174 -0.01051423076446961 0.0014147172200336124 33.699406026153682 -0.00028816632828965178 -0.041402879904762983 0.0007924244237647039 -0.0007709813273685805 -0.0019761818140709981 0.0013722440879643252
decision_type=2 2 2 2 2 2 2 2 2 2 2 2 2 2 2 2 2 2 2 2 2 2 2 2 2 2 2 2 2 2 2 2 2 2 2 2 2 2 2 2 2 2 2 2 2 2 2 2 2 2 2 2 2 2 2 2 2 2 2 2 2 2
left_child=6 2 10 4 5 13 31 16 9 34 20 49 22 39 45 23 21 52 19 36 -2 33 -5 26 54 50 -16 -13 47 -26 -14 -1 38 -3 -7 -36 -12 48 44 -4 -25 -29 -35 -38 55 -11 58 -10 60 -8 -24 -43 -6 -33 -9 -28 -46 -44 59 -22 -32 -19
right_child=1 7 3 12 17 8 11 24 28 14 18 27 30 -15 15 -17 -18 61 -20 -21 46 -23 25 40 29 -27 32 41 -30 -31 37 53 -34 42 35 -37 43 -39 -40 -41 -42 51 57 -45 56 -47 -48 -49 -50 -51 -52 -53 -54 -55 -56 -57 -58 -59 -60 -61 -62 -63
leaf_value=0.1010906321192085 0.088675095673355658 0.049462845318977572 0.045408007390019628 0.030296356248107392 0.025756664257039846 0.017056573212435058 0.12653330761590317 0.16242914876953574 0.0048980303847651965 -0.023771237009513099 0.032041256653881765 0.055949808930104365 0.050049970098903308 -0.0060971058535481924 -0.021695685695440569 -0.019253869343976826 0.048796641825998431 0.018329171510905309 0.060927672506224877 0.049746668576103333 0.046261914463285293 0.051997892701134855 -0.0066893630293492256 -0.0088375895445632485 0.050983599916705619 0.026117814041078925 -0.038431170453203059 0.043988416578678663 0.023733572479963737 0.082573054540825433 0.040446785987105806 0.10132903840137711 -0.025745961062842038 0.010810311937332544 -0.01841006969112946 0.0013864566032468419 0.033644450991660822 0.037248987125131423 -0.022655946755689816 0.015876924488199783 -0.029292002996244418 0.023166156922484891 0.065801202674529477 0.0015134397684770531 -0.028971009309479802 -0.0084014591301199929 0.11736692274578682 -0.013531394728425974 0.042586869557115041 0.068025619450270275 0.025556727100938564 0.057806292439549559 -0.0014926158767471027 0.071852773452058233 0.089130534777272785 -0.019281240135390943 -0.040789880018205112 0.022247234054791901 0.050185369930432135 0.025538657759279673 0.0090117601792430568 0.038473704678795323
leaf_weight=1117.4561543166637 321.63450587540865 549.93029014766216 606.4146908596158 795.94227812439203 432.7357432693243 977.01555514335632 102.73994443565607 86.29832785576582 1809.1308556124568 2791.161402925849 651.37564678490162 1249.2193399220705 627.8113974109292 7683.250883243978 3612.3896380439401 7557.8067358955741 1870.9312245622277 1634.1848559305072 375.25880437344313 536.44471694529057 1033.7848797068 779.04111015051603 9331.6710363924503 1718.3235467523336 3694.9011554196477 837.36897213757038 1555.1006369739771 1699.9460688605905 913.40050682425499 765.05612706393003 286.21476778388023 380.9926618412137 4268.1310684978962 5921.6675116941333 2378.3688413128257 2754.2858466878533 401.12409022450447 993.89635736495256 1921.8526117280126 3127.9810357242823 2707.0719678923488 4277.656945258379 160.2063108086586 6740.3870748654008 2264.4823027476668 3730.1768021583557 55.053249180316925 2530.0797733068466 370.70936264097691 1854.6611836478114 316.84107229858637 268.52527601271868 6185.292383775115 3595.9760454073548 155.84352567046881 1690.5767097398639 29754.809969820082 4146.0832533240318 888.15499877929688 2919.6623073071241 4641.1109651252627 979.21788524836302
leaf_count=9337 2940 5822 6563 9353 5016 11409 882 755 22527 38405 7372 13175 6691 99354 49347 103033 20364 19596 3938 5874 10704 8439 121611 22563 38401 9833 22326 18755 10626 7245 3178 3247 59151 72710 32413 34901 4474 11085 26437 37695 38007 50612 1650 84209 31664 48961 472 33719 4066 18790 3720 2928 79560 35264 1357 22839 433549 48654 9215 32759 56664 10840
internal_value=-0.000182275 -0.00574365 -0.0112985 -0.0152829 -0.0195458 -0.0224407 0.0555714 0.0333846 -0.026265 -0.0281918 0.0212644 0.0421523 0.00710328 0.00265845 -0.0305347 -0.0323128 0.024263 0.00753306 0.0108124 0.00855459 0.0386993 0.0202913 -0.000739341 -0.0343069 0.0594331 -0.00309514 -0.0355792 0.0345936 -0.000703664 0.0564024 0.0198898 0.0804705 -0.0367891 0.0179995 -0.00381407 -0.00778686 0.00571902 0.0168804 -0.0380565 0.0206724 -0.0213498 0.0303223 0.0163078 0.00331817 -0.0388958 -0.0149798 0.0354166 -0.00584768 0.0130593 0.0710966 -0.00563046 0.0252122 0.000289144 0.0746766 0.115254 -0.0284565 -0.039954 0.0238676 0.0344848 0.0309576 0.0108377 0.0258771
internal_weight=160385 145838 127708 113785 95583.2 86351.8 14547.2 18130 74934.2 69681.6 13922.9 9452.75 18201.6 11417.6 63571.9 57050.5 13427.9 9231.43 8704.59 8329.33 5218.29 11556.9 11281.8 49492.7 4702.1 10485.9 45067.3 7495.35 5252.61 4459.96 6919.74 5094.42 41455 10777.9 6109.67 5132.65 7792.89 6291.93 37186.8 3734.4 4425.4 6246.13 10228 7141.51 35265 6521.34 4896.66 4339.21 5298.04 1957.4 9648.51 4546.18 6618.03 3976.97 242.142 3245.68 32019.3 4306.29 4841.6 3953.45 4927.33 2613.4
internal_count=2047046 1894056 1688659 1526702 1300501 1185489 152990 205397 1041877 975005 161957 105142 226201 143612 896282 808916 157639 115012 105867 101929 56090 137275 144517 705883 47758 135164 645313 85470 66872 45646 81684 47848 595966 128836 78723 67314 96055 74993 536815 44258 60570 72295 123014 88683 510378 87366 53150 56246 63908 19672 125331 53540 84576 38511 2112 45165 465213 50304 52678 43463 59842 30436
is_linear=0
shrinkage=0.05


Tree=5
num_leaves=63
num_cat=0
split_feature=6 6 6 6 6 6 6 2 2 6 2 6 2 5 2 5 6 5 2 9 6 2 2 5 1 5 6 9 2 5 2 9 4 5 3 8 5 2 3 4 3 2 2 3 9 2 2 6 6 9 2 1 3 3 5 9 6 9 3 3 2 3
split_gain=58153.2 8753.43 7969.17 1841.29 1230.07 1083.7 831.469 389.273 350.931 278.16 217.426 212.402 198.533 187.2 181.691 176.496 135.882 135.158 123.127 113.523 108.03 107.214 118.187 106.657 104.086 94.1281 92.5176 84.8926 79.7104 79.2164 76.5762 72.9274 69.3749 75.7264 68.7026 67.3898 62.5781 61.8456 60.8557 60.2748 60.2057 69.6112 59.9159 69.7292 59.4827 57.1518 55.8102 55.1223 55.0371 53.8243 53.7622 52.0333 51.714 51.0563 50.1095 68.2562 49.0803 48.7705 48.4265 48.3239 48.2408 48.2005
threshold=0.001129490321505813 0.0018863352328350161 0.00076285376621985782 0.0013511038764933087 0.0026969003051893919 0.00094450824886085016 0.00059416371151344569 -0.012794104099667023 -0.012352489214934091 0.0015887045122230886 -0.018800828001086841 0.003796204625267874 0.0058919061911291157 0.0012463200526267968 -0.0074817617849624032 0.00095991026846921985 0.00086160221929545066 0.0018064014241590501 0.0047838694448848482 0.0024585125999050388 0.00046645428903076828 -0.0097270412549213519 0.0091664503156689853 0.001544766991477576 -0.012109090147376265 0.0011086230284469947 0.00068103113211121749 -0.00095935337001024068 -0.013772937124955918 0.0012463200526267968 0.0031039742587909429 0.0019363305077712003 0.42269929222268393 0.0024778307191621585 0.029139860898441564 -0.0010649627263045745 0.00073172821605087073 0.019987600535002262 -0.088628770058661863 0.60741660437431788 -0.0034246575342466441 0.019987600535002262 0.013152006892273029 0.019186572736213939 -0.0042287295104080904 -0.0119185052897513 -0.013245752169754986 0.0010183771512436988 0.0012243411583748992 0.0048315687336317756 0.0035549607389839815 -0.0087870517814820897 -0.062776565052828623 0.008585018075847441 0.0014408494065460986 -0.0018124271936654777 0.0012607914265852223 0.0021505327916454546 -0.0061294141809688498 0.026606653617602508 0.0029556273055770803 0.008005532147117524
decision_type=2 2 2 2 2 2 2 2 2 2 2 2 2 2 2 2 2 2 2 2 2 2 2 2 2 2 2 2 2 2 2 2 2 2 2 2 2 2 2 2 2 2 2 2 2 2 2 2 2 2 2 2 2 2 2 2 2 2 2 2 2 2
left_child=2 3 6 10 8 12 20 27 35 25 -2 14 16 36 -6 42 45 51 26 -14 -1 -17 47 -11 -13 -9 -8 58 -18 -29 34 -20 -19 -34 57 -3 -12 44 -32 -25 54 49 46 -44 -15 -4 -7 -23 -38 -42 56 -10 -37 -24 -27 -56 -46 -26 -5 -53 -49 -47
right_child=1 4 5 7 11 15 18 9 17 23 13 24 19 37 -16 21 28 32 31 -21 -22 22 53 39 30 40 -28 29 -30 -31 38 -33 33 -35 -36 52 48 -39 -40 -41 41 -43 43 -45 50 61 -48 60 -50 -51 -52 59 -54 -55 55 -57 -58 -59 -60 -61 -62 -63
leaf_value=-0.051318308245284584 0.06167975637379583 0.073879744946093812 0.0057851710269413107 0.055875548568270463 0.079612456691225686 0.024891025636884508 -0.040024772980015576 0.015052041824887183 0.062646955213030195 0.028300676613759269 -0.0067920636109604082 0.1031341331085916 -0.013842015967175061 0.031209576118548202 0.060739943132617658 0.013565038193547992 0.027486455378457172 0.040535899463504062 -0.029135361925517279 0.0074528703126660687 -0.044604555881634915 -0.0087518721141259647 -0.0010787537684281117 0.032241150470958449 0.084008062276543338 0.024041727026454431 -0.032327972833228066 -0.0014126037500686208 -0.017784148746054256 0.039875313076958914 0.12542552890629374 -0.00996263040874369 0.048701754633655003 0.060541395358975542 0.027878608510036009 0.085840067492368749 0.0034251897269676349 0.051527607294126955 0.086349962189238114 0.042566560307548726 0.019593212098914632 0.046586707127009297 -0.0037296711015891142 0.059729315416230847 0.0065522247365648843 -0.027665331586266884 -0.010750877701891006 -0.0039763220999814363 0.010584949006907454 0.039107571080035923 0.019414911751782199 0.034544087713256254 0.056776545408241501 0.01946571658282659 0.047315825629949883 0.029202086666751711 0.016425680235961589 0.064087696346811593 0.039195917047625844 0.048646085025021768 0.0055580989160702345 -0.020080300450797478
leaf_weight=13917.774036675692 204.54236400127411 1293.9704769998789 145.10730387270451 1731.751026943326 2189.0755691826344 111.12147826701403 7535.0902234762907 2749.515540599823 217.62619039416313 4384.7943909689784 916.79242187738419 640.57059691846371 2620.0074790343642 528.61941304057837 3055.1834439337254 1168.9318723455071 98.241766214370728 1442.0797707438469 2027.2002945840359 822.2738269418478 10521.269283160567 3937.9574031755328 478.57903446257114 2304.3115734010935 706.1848176419735 2129.4407168328762 8102.7376863881946 137.12336317449808 9487.4305240213871 760.41440527886152 111.20926255732775 656.63075778633356 3950.7699999138713 2052.0210933536291 81.198489494621754 167.09992091357708 5667.8014307543635 117.27416481822729 957.71846117824316 3655.632318764925 5280.2491991296411 276.63009133189917 127.65407564491034 65.499114125967026 2902.8801431059837 8494.974197037518 9469.7792523056269 4652.0313830375671 5098.6896525919437 378.69635215401649 2834.3937066346407 2912.2581782415509 1821.1708774119616 821.53893797844648 732.45497276633978 1793.6280095800757 2222.178832732141 543.90933275967836 581.20920284092426 767.61537352949381 1855.9672648757696 2779.8779608905315
leaf_count=217868 2175 11776 1914 17186 18813 1404 112152 33251 2133 49477 12208 4695 35831 5838 28049 14290 1199 14551 29134 10627 160326 51317 5914 24468 5860 24719 117153 1566 129971 8047 817 9057 39740 19413 703 1487 71471 1317 8114 38351 60941 3006 1642 824 35021 120237 126986 59208 62470 4209 33515 31368 17327 10018 7858 20073 26021 4499 6139 8087 23514 38776
internal_value=-0.000121304 0.0339455 -0.026761 0.021678 0.059321 -0.0125821 -0.0423911 0.0302811 0.0506007 0.0280665 0.010387 0.0747139 -0.0198856 0.00986992 0.0686178 -0.00471245 -0.0217096 0.0464342 -0.0343386 -0.00875521 -0.048428 -0.000876085 -0.00231322 0.0342197 0.0852275 0.023295 -0.0360367 0.0466194 -0.0173202 0.0335675 0.0804486 -0.0244445 0.0503834 0.0527491 0.072446 0.0649988 0.00574802 0.0154661 0.0904153 0.0385744 0.0254349 0.0220963 -0.00978165 0.0177896 0.0149679 -0.0253939 -0.0103375 -0.00408262 0.00681584 0.0208991 0.0138892 0.0388907 0.0592191 0.0119032 0.0296916 0.0344543 0.0108333 0.0753408 0.0516842 0.0374857 -0.00125727 -0.0257952
internal_weight=160196 70298.7 89897.7 47389 22909.7 47137 42760.7 26895.9 14624.6 23685.4 20493.2 8285.05 24447.9 20288.6 5244.26 22689.1 21005.6 11342.4 18321.7 3442.28 24439 12915 11746.1 10344.7 3040.79 13340.6 15637.8 3210.5 9585.67 897.538 2400.22 2683.83 7444.87 6002.79 1331.29 3282.24 11683.3 8605.35 1068.93 5959.94 10591.1 5935.58 9774.05 193.153 8488.07 11420 9580.9 10446 10766.5 5658.95 7959.45 3897.5 1988.27 1300.12 4655.52 2526.08 5125.06 1250.09 2312.96 3679.87 6508 11274.9
internal_count=2046121 766759 1279362 549327 217432 633672 645690 299291 145882 266353 250036 71550 338555 247861 46862 295117 292097 115292 267496 46458 378194 164261 149971 112296 24688 154057 229305 32938 131170 9613 19993 38191 73704 59153 11062 30590 146149 101712 8931 62819 120806 68156 130856 2466 100395 160927 128390 134039 133941 65150 94557 41588 18814 15932 52650 27931 61042 10359 23325 39455 82722 159013
is_linear=0
shrinkage=0.05


Tree=6
num_leaves=63
num_cat=0
split_feature=6 6 6 6 6 6 6 2 2 6 2 2 6 5 5 2 6 5 2 6 9 10 2 2 5 6 1 5 2 5 9 2 1 2 10 4 5 9 2 2 4 6 2 2 10 5 1 5 6 5 2 10 5 5 9 9 1 1 2 6 9 9
split_gain=52249.7 7733.03 7241.44 1645.38 1010.26 911.085 839.562 337.815 275.896 262.887 190.412 187.183 165.905 161.406 157.965 141.457 129.781 121.18 120.811 111.056 103.803 97.1134 95.9136 106.13 94.8716 91.9698 80.6638 76.8953 72.4081 72.3535 69.5899 59.3895 57.8245 57.718 55.6532 55.1335 54.9934 54.79 54.0949 53.6558 53.6061 50.3516 50.2671 50.1939 46.8562 45.9221 45.4237 45.0147 44.9001 44.7048 43.5232 43.3773 48.3903 54.8011 48.7683 40.6287 40.5399 39.0483 39.0136 43.3483 53.5795 38.0004
threshold=0.001129490321505813 0.00076285376621985782 0.0019117502135794172 0.0013422532397737502 0.00094450824886085016 0.0026969003051893919 0.00059416371151344569 -0.012352489214934091 -0.012794104099667023 0.0015887045122230886 -0.0176241140973411 0.0058919061911291157 0.003796204625267874 0.00095991026846921985 0.0012463200526267968 -0.0074817617849624032 0.00086160221929545066 0.001784585813774505 0.0047838694448848482 0.00046645428903076828 0.0024585125999050388 25.982581309006139 -0.0097270412549213519 0.0091664503156689853 0.0013650731114504271 0.00068103113211121749 -0.012109090147376265 0.0011086230284469947 -0.013772937124955918 0.0012554402530656212 0.0019363305077712003 0.019987600535002262 0.0061789044744747787 0.0031039742587909429 36.807645513798754 0.61192734185287634 0.00073172821605087073 -0.0064624999989961731 0.013152006892273029 -0.0119185052897513 0.57951530877068247 0.0010183771512436988 -0.0044056209900985568 -0.013245752169754986 47.812030481071041 0.0024778307191621585 0.010110699220918009 0.00075948112096941613 0.0012043633237619246 0.0038479927053263886 0.0029556273055770803 21.378059238928227 0.0018308096733796794 0.0038479927053263886 0.0071556824354158674 -0.0042287295104080904 0.017925550445781483 -0.0047242136751802213 -0.037034082183624688 0.0023482879405095887 0.0025149673439132107 -0.004885707578190234
decision_type=2 2 2 2 2 2 2 2 2 2 2 2 2 2 2 2 2 2 2 2 2 2 2 2 2 2 2 2 2 2 2 2 2 2 2 2 2 2 2 2 2 2 2 2 2 2 2 2 2 2 2 2 2 2 2 2 2 2 2 2 2 2
left_child=1 6 3 10 11 8 19 21 37 27 -2 16 15 38 36 51 39 61 25 -1 -13 -5 34 41 42 -8 -14 -9 -18 57 -20 46 55 44 -15 -26 -12 -4 43 -3 -19 -24 -11 -6 -28 -42 -29 -45 -38 58 -43 -7 -53 -54 -55 -16 -37 -23 -39 60 -60 -10
right_child=2 4 5 7 13 12 18 9 17 24 14 20 26 22 32 -17 28 40 30 -21 -22 29 23 -25 35 -27 33 31 -30 -31 -32 -33 -34 -35 -36 56 48 49 -40 -41 45 50 -44 47 -46 -47 -48 -49 -50 -51 -52 52 53 54 -56 -57 -58 -59 59 -61 -62 -63
leaf_value=-0.051026687529287768 0.049204085659359638 0.0054687651024713738 0.07182054622500933 0.055928623576946161 0.023153541878506184 0.095874945787534818 -0.039386674636929297 0.014300948023906773 0.054993790004673353 0.035867197596026447 -0.0068667113909040359 -0.013308136603336896 0.091407805049156021 0.020713303980154116 0.026660743572822374 0.055089970660160727 0.025516940336309149 0.040752355853171073 -0.028392153441745473 -0.044078492725178095 0.0070354207327055955 0.051420559812725364 -0.0083767174952559375 0.011193286312330769 0.02926202211042906 -0.031592525206608886 0.076852049359988378 0.022244726574017906 -0.017156725059561579 0.040459362682844308 -0.0095464291172194515 0.044374978723254119 0.027109375530356913 0.080436240314646495 -0.0020238488800569947 0.03721145067291165 0.0023710226981818057 0.012878039983274371 0.016625287245068492 -0.025061982166811821 0.04615693637794243 -0.0037902955686022889 0.020118927098046142 -0.015073072913531119 0.058058467173822473 0.056223180241137406 0.043808298019037663 -0.0077915992351351646 0.0089539280583401781 0.010083813124628912 0.0052553541150444413 0.040780461050090401 0.076581986902321542 0.054855233065535351 0.11985265722564353 0.011795893258252074 0.086013048984779031 0.008630806241702654 0.056394772379740193 0.06788111010957544 0.02550564892287956 0.034017850307831991
leaf_weight=13312.755700409412 296.81766905635595 145.80906982719898 723.49980543553829 944.93828676640987 113.42546333372593 166.82455068081617 7280.797594435513 2951.5946305990219 230.96586275845766 662.1004631742835 893.66316851228476 2589.648675404489 685.35110887140036 767.53277490288019 491.9905209839344 3196.2238007634878 100.4733654409647 2615.9939848333597 1977.5306352227926 10124.584233872592 827.37561812996864 65.173821277916431 3909.3521510884166 1312.8746616467834 3198.5757640302181 7882.4508892819285 538.80620145052671 10579.64440472424 9346.331563770771 2472.2135630697012 651.13879771530628 326.85142332315445 776.1476377248764 1139.4656835794449 414.44986762851477 5115.3939602151513 4630.8715840950608 48.749420121312141 196.04973435401917 11030.873641490936 3342.5773930624127 4636.7356484159827 2159.0049458667636 3243.5972821488976 862.65258123725653 1713.9468871951103 249.99078032374382 6141.2166827097535 5878.4779039546847 51.535746611654758 1864.5137744471431 138.12847806513309 1439.2973691448569 543.32158373296261 30.478159472346306 6998.6466702744365 42.912360161542892 293.05821485817432 1431.8095679432154 760.93643456697464 155.64820981770754 3313.6210675090551
leaf_count=217868 3088 1914 5847 8852 1404 1239 112152 35290 2182 7348 11977 35831 4695 9156 5327 28049 1199 25240 29134 160326 10627 685 51317 15932 33408 117153 4198 118744 129971 24646 9057 3429 8734 8931 5134 52585 58353 415 2466 159013 32301 59208 24238 44480 6864 15438 2688 82506 71826 441 23514 1297 11807 4233 237 82651 391 3281 13118 6735 1493 34458
internal_value=-0.000142037 -0.0260324 0.0313856 0.0205062 -0.0120864 0.0544465 -0.0418086 0.0280986 0.0467124 0.0260156 0.00945561 -0.0192213 0.067179 -0.00449669 0.0088558 0.0619099 -0.0210171 0.0430306 -0.0336195 -0.0480252 -0.00838228 0.0420497 -0.000834431 -0.00220311 0.0317431 -0.035335 0.0761849 0.0214776 -0.0167029 0.0374163 -0.0237239 0.0233763 0.0141183 0.0720789 0.0127408 0.0344194 0.00504067 0.0597316 -0.00937204 -0.0246637 0.0465629 -0.00389252 0.023815 -0.00990864 0.0652839 0.049569 0.0227425 -0.0103082 0.00605322 0.0561597 -0.00119607 0.0713136 0.0694089 0.0713732 0.0583077 0.0127722 0.0376174 0.0164156 0.0571503 0.0580693 0.0533661 0.0353846
internal_weight=160027 87869.5 72157.9 49028.1 46640.3 23129.8 41229.3 29061.5 14389.3 25286.1 19966.6 24040.5 8740.55 22599.7 19669.8 5514.27 20623.5 11217.1 17791.9 23437.3 3417.02 3775.38 12905.5 11723.5 11178 15163.2 3226.28 14108.1 9446.8 2830.45 2628.67 11156.5 8266.78 2540.92 1181.98 8356.88 11403 3172.18 9694.29 11176.7 7672.52 10410.6 2821.11 9498.24 1401.46 5056.52 10829.6 9384.81 10509.3 2448.68 6501.25 2318.05 2151.23 2013.1 573.8 7490.64 5158.31 358.232 2397.14 2348.39 1587.46 3544.59
internal_count=2046121 1279362 766759 557541 633672 209218 645690 315585 137668 278121 241956 338555 71550 295117 238868 46862 292097 109619 267496 378194 46458 37464 164261 149971 117970 229305 24688 160151 131170 28612 38191 124861 96712 19993 14290 86384 142156 28049 130856 160927 72979 134039 31586 128390 11062 47739 121432 126986 130179 22202 82722 18813 17574 16277 4470 87978 52976 3966 21761 21346 14611 36640
is_linear=0
shrinkage=0.05


Tree=7
num_leaves=63
num_cat=0
split_feature=6 6 6 6 6 6 6 2 2 5 6 5 2 2 9 2 2 5 2 3 6 2 1 3 10 3 3 6 6 5 4 4 1 2 9 9 9 3 2 2 3 1 5 9 10 2 10 5 9 7 5 6 1 6 2 3 1 10 2 3 3 10
split_gain=47050.3 7110.26 6475.28 1425.81 1056.89 820.186 624.662 313.838 219.475 209.734 182.025 175.876 158.917 154.779 144.442 123.994 114.275 113.283 104.608 101.888 101.853 96.7254 91.6684 81.9485 75.5169 73.1434 72.0409 69.7232 68.627 67.3465 66.7691 65.3773 64.4834 62.6614 62.361 64.1934 62.2614 62.1149 108.273 59.855 59.4381 58.4681 57.2961 55.3615 54.8524 52.4232 52.0809 50.8913 50.2073 50.1502 48.8495 48.7053 48.5316 48.1559 52.8067 57.3405 65.7802 45.0969 44.615 52.3781 44.5815 54.8215
threshold=0.0011129308603784426 0.0007343168220615364 0.0016327029403701088 0.0025321075518840936 0.00091325915822110606 0.001291683543776476 0.00055864246990265838 -0.0092199233219544801 -0.012794104099667023 0.0014174911824996362 0.003796204625267874 0.00097034367792542861 -0.011180836049199448 0.0077881818800974454 0.00063954932685417198 -0.015025324392449855 0.0048836001641194846 0.0011086230284469947 -0.0097270412549213519 0.024548102827775867 0.00085746910794376344 0.0091664503156689853 0.0061789044744747787 -0.0035695158728898941 43.521183724147477 -0.01398601398601401 -0.062776565052828623 0.00044423464021290906 0.00067072719107560193 0.00074602997890203207 0.58410555719972657 0.98561518264826564 -0.012109090147376265 -0.012352489214934091 0.0045782872158367524 -0.0059215838807954993 -0.0051642873682737336 0.01608734992697403 0.010482071239150239 -0.037034082183624688 0.010504821359035301 -0.0053835800807536241 0.0017643100418843014 0.0019363305077712003 53.647486157704641 -0.013772937124955918 18.184724042919246 0.0024778307191621585 0.0026342054907999572 0.00054113057531979269 0.00072712654007555495 0.0010183771512436988 -0.012109090147376265 0.0014730643997880129 0.019987600535002262 0.02011858070664874 0.0069352498687832451 19.092044995222462 0.0031039742587909429 0.029139860898441564 -0.088628770058661863 78.422608371928632
decision_type=2 2 2 2 2 2 2 2 2 2 2 2 2 2 2 2 2 2 2 2 2 2 2 2 2 2 2 2 2 2 2 2 2 2 2 2 2 2 2 2 2 2 2 2 2 2 2 2 2 2 2 2 2 2 2 2 2 2 2 2 2 2
left_child=1 6 5 7 13 15 27 14 25 -9 12 37 -5 20 26 -2 28 41 57 30 33 51 29 36 52 -7 39 -1 -8 -17 -11 -31 -12 -3 35 -14 -19 50 -39 -4 -35 -10 -16 -18 -25 -22 -41 -26 -15 -28 -6 -20 -21 54 -46 56 -56 -13 59 -34 61 -60
right_child=2 4 3 10 11 8 16 9 17 19 32 18 34 48 42 22 43 23 21 24 45 -23 -24 44 47 -27 49 -29 -30 31 -32 -33 58 40 -36 -37 -38 38 -40 46 -42 -43 -44 -45 53 -47 -48 -49 -50 -51 -52 -53 -54 -55 55 -57 -58 -59 60 -61 -62 -63
leaf_value=-0.051156905302302429 0.031079727593767273 0.010320812973730204 0.0055036760268589516 0.064661082279724419 -0.017736309587851027 0.043540564996788031 -0.039844885878644695 0.022865396043724229 0.031479324734658788 0.028721307733364478 0.081875029039124622 0.03862995978965688 0.064586515499806096 -0.011655464375149791 0.018387658762673523 -0.0076977053679225778 -0.029322450759124569 0.048677257466163408 -0.0084766086399368935 0.080888742553172188 0.028381164127495209 0.0096922195578764466 0.0192677312621456 0.014349234503343553 0.043969030587964524 0.02528158562992135 0.044537232496428596 -0.04511305081376403 -0.032867511345960977 0.0034358805203103049 0.037005335497952124 0.010376655018737593 0.06158184898425078 -0.026428847584025247 0.058890347470878096 0.043737141018722198 0.024506971916509083 -0.0062639617618974203 0.032432964589914931 0.13182490564199553 -0.018311157444431968 0.010657153259702531 0.039776756643399622 -0.010788883772376601 0.015724851504466723 -0.017497422524756567 0.071372651923174116 0.060070293523178164 0.0076963515641180723 0.054899142656196456 -0.009876118071190737 -0.0016475504317238342 0.027147701889756987 0.028102721152293154 0.13169707161677555 0.020613524637625041 0.034594182867785483 0.0086907704543936481 0.08642838614732154 0.021549495125898637 0.068896177665106015 0.17848287381522401
leaf_weight=11275.690143819898 507.19987216591835 128.00506165623665 30.107306644320488 2630.0388196483254 2731.3038305714726 1307.3555213436484 8869.4591785036027 3465.7260036244988 367.49654217809439 3766.9350140169263 725.76429425179958 143.86780491471291 416.67559884488583 1243.6671116128564 474.78421462327242 981.1606653034687 1683.6674455292523 277.48251510411501 5074.180618301034 44.461037024855614 62.845761500298977 1261.861240439117 1209.8389384001493 4506.479032844305 2314.0918212458491 944.90049438178539 2674.4591422751546 8273.0284168757498 5847.5394384898245 9866.8674291595817 6865.7280354052782 5170.7007373198867 1379.2889777421951 11374.946396023035 1292.6771489977837 3239.1748430207372 6693.6298579201102 1866.9078774228692 200.14081495255232 41.027907021343708 2812.5213343948126 4081.0748777091503 919.39605632424355 529.69552947953343 2391.4434016793966 6736.8975974395871 270.70815032720566 622.84048089385033 458.82077848911285 2072.6528327986598 7154.3029212206602 5378.388589695096 762.0481229647994 1937.1732736006379 32.224168047308922 103.52808199077845 38.017549216747284 1000.3535151183605 107.92509330809116 86.853705406188965 1077.2536199092865 19.024343729019165
leaf_count=193086 5440 1689 230 20420 38369 12602 142416 37445 4160 37195 4695 1608 3338 17310 4811 13267 25716 2719 67501 396 743 15278 13860 50320 22195 9743 24401 137371 90040 120833 66380 62941 10359 169093 10784 28247 73169 25176 2534 308 40676 48702 8513 7560 27039 95813 2241 5497 5812 18241 97645 68514 7396 20695 335 1059 390 12171 702 703 8114 115
internal_value=-0.000158903 -0.0258987 0.0284337 0.0440796 -0.013176 0.0147687 -0.0425102 0.0373299 0.0210673 0.0339064 0.0590401 -0.00603331 0.0547295 -0.0209427 0.0467515 0.00671399 -0.0354795 0.0194341 -0.00197465 0.0365681 -0.0221121 -0.0033841 0.00599667 0.0213987 0.0436622 0.0358803 0.0506578 -0.0485991 -0.0370725 0.00499436 0.0340705 0.00582248 0.0686594 -0.0245054 0.0494511 0.0461134 0.0254691 -0.0103996 -0.00251715 0.0728268 -0.0248196 0.0123773 0.0324928 -0.0248871 0.018249 -0.0170734 0.0793288 0.0473837 -0.00644015 0.0490614 -0.0120478 -0.0049627 0.0301103 0.0221523 0.0176586 0.0442718 0.0791412 0.0124552 0.0650675 0.0592103 0.0721988 0.100223
internal_weight=159824 84108.1 75716.2 35299.6 47629 40416.6 36479.1 24325 22680.8 17841.8 10974.7 24811.3 7578.57 22817.7 6483.14 17735.8 16930.4 20428.5 12858.7 14376.1 21115.2 11714.4 17228.6 15980 3743.44 2252.26 5088.96 19548.7 14717 16018.7 10632.7 15037.6 3396.11 14315.5 4948.53 3655.85 6971.11 11952.7 2067.05 341.843 14187.5 4448.57 1394.18 2213.36 9008.87 6799.74 311.736 2936.93 1702.49 4747.11 9885.61 10452.6 806.509 4502.39 2565.21 173.77 70.2417 1144.22 2670.35 1466.14 1204.2 126.949
internal_count=2046121 1256121 790000 322726 659932 467274 596189 235249 250933 176504 87477 328796 62789 331136 58745 216341 265732 228588 165072 139059 308014 151293 210901 175726 35484 22345 45421 330457 232456 197041 103575 183774 24688 211458 42369 31585 75888 163724 27710 2779 209769 52862 13324 33276 99838 96556 2549 27692 23122 42642 136014 136015 7792 49518 28823 1784 725 13779 19993 11062 8931 817
is_linear=0
shrinkage=0.05


Tree=8
num_leaves=63
num_cat=0
split_feature=6 6 6 6 6 6 6 5 5 9 6 1 3 5 5 9 4 5 1 9 9 5 3 3 3 6 9 6 3 5 9 6 1 5 3 9 3 1 1 4 3 3 9 5 6 5 6 5 6 9 5 9 6 1 4 3 3 3 6 9 3 9
split_gain=42511.8 7212.31 5206.64 1252.24 1075.18 648.931 510.836 255.42 166.337 159.853 148.826 130.695 122.851 121.288 112.868 110.66 102.418 83.1111 82.1624 83.578 81.0425 77.1306 94.6505 76.0278 61.8295 61.7903 61.1247 59.1404 55.9236 66.109 53.2685 52.2017 51.0102 50.4484 50.4067 56.2182 49.3085 49.135 52.6386 47.9264 47.5334 52.377 49.2902 47.1416 45.4825 44.5988 43.7242 42.3542 41.8269 41.1048 41.0291 39.8269 39.137 38.8531 38.052 36.6635 34.8363 38.3191 34.5728 34.5375 34.5247 33.9691
threshold=0.0010388172413124668 0.0016033890450658631 0.0007152030466696474 0.0025321075518840936 0.001291683543776476 0.00086160221929545066 0.00054604402869252566 0.001784585813774505 0.0010831499598208244 -0.0026857260271795354 0.003796204625267874 -0.009336230077292838 -0.0080332346435396645 0.00096501555172842114 0.0011154651934435378 0.0024585125999050388 0.57951530877068247 0.0013452039187785284 0.0066558997859219602 -0.004885707578190234 0.0018978724399957294 0.0018064014241590501 -0.056892729687833703 0.010504821359035301 0.010055092224423691 0.0012307206758515384 -0.01051423076446961 0.00044423464021290906 -0.088628770058661863 0.0029344863514563957 0.0011602562872808921 0.0022545509351678721 0.011027197638932009 0.00073631429666325642 -0.023584449737205911 0.00090286043148246631 0.025891086999093153 -0.0053835800807536241 0.0050502278244071172 0.82773117364226922 -0.013139947044040643 0.025197422582143306 0.0025149673439132107 0.00073172821605087073 0.0014730643997880129 0.00074602997890203207 0.00068103113211121749 0.0024778307191621585 0.00096622540985137942 -0.0021938282684517136 0.00225653515026797 -0.0082249811916693099 0.002092122970003352 0.0053291380977821276 0.86616009873235911 -0.035996692225291164 -0.046203778624715856 -0.071739996811732695 0.0050740022718866523 -0.0051642873682737336 0.0033504604043766988 0.0071556824354158674
decision_type=2 2 2 2 2 2 2 2 2 2 2 2 2 2 2 2 2 2 2 2 2 2 2 2 2 2 2 2 2 2 2 2 2 2 2 2 2 2 2 2 2 2 2 2 2 2 2 2 2 2 2 2 2 2 2 2 2 2 2 2 2 2
left_child=2 4 6 7 8 15 27 11 45 12 21 -3 59 24 -11 23 31 39 19 -10 46 22 -5 33 43 54 -18 -1 50 58 -26 40 -31 -4 35 -28 -36 -15 48 -13 42 -42 -9 49 -16 53 -8 -38 -39 -7 -12 -23 -19 -2 -21 -37 57 -34 -30 -6 -40 -53
right_child=1 3 5 10 9 13 20 16 18 14 28 17 -14 37 44 -17 26 52 -20 25 -22 51 -24 -25 30 -27 34 -29 29 32 -32 -33 56 -35 36 55 47 38 60 -41 41 -43 -44 -45 -46 -47 -48 -49 -50 -51 -52 61 -54 -55 -56 -57 -58 -59 -60 -61 -62 -63
leaf_value=-0.050891840108579001 -0.0090961739451249947 0.0509619486982286 -0.029445473807298023 0.087062785460625292 0.046721791257441588 -0.003234773121533278 -0.038610373633551298 0.040725336280314932 0.027112853628960078 0.0098040340896064018 0.1465913626078848 0.015703265841562654 0.018903560827827751 0.0068168435919555405 0.016989949945269697 -0.0079480145987029169 0.066108669195329844 0.028575160773969172 0.022196032369859488 0.0014808093284627791 -0.022726957604059232 0.062993786209969094 0.029504432392988923 -0.017569486938563972 -0.012104692077668289 0.011824645539979115 0.050951984879397776 -0.044985482872001242 0.049881250739862298 0.067572768278535075 0.0012376845944264492 0.041818088947811929 0.062964863919820854 -0.023230601279648339 0.035494129922975882 0.026443334684701916 0.04060062987849658 -0.011755347090179993 -0.0101479035390216 0.027248955258318143 0.020119167748885058 0.036298468181533282 0.017877609866578732 -0.013231621773073283 0.022953180570970903 0.0010135209635296785 -0.032029874324181667 0.057256418318430126 -0.004661944936886279 -0.022526515546846815 0.072881934676311308 0.049047677502873269 0.037678067226851415 0.02114691707225777 0.0078462514337278438 0.047089419877209042 0.057327286737579808 0.0090122902581990291 0.017935569999112097 0.032499431907980346 0.013379207870512595 0.060285595097092408
leaf_weight=10780.22830992192 1803.5557205826044 618.69699968397617 5826.2534975074232 79.311311863362789 605.01221767812967 305.48743104934692 10935.097686827183 1292.0890409946442 482.41343010962009 4083.0040912181139 19.414543867111206 1922.6193014979362 1841.4695576950908 669.74664137512445 8282.4609750285745 1109.8930990174413 245.35893698781729 6261.0928422510624 908.71715907752514 6066.7864383086562 1054.7840649858117 695.27911694347858 718.23928665369749 3387.9843850061297 2372.3948406502604 3322.5642103031278 2001.5957044810057 6983.9724463559687 501.64806309342384 1665.1429775133729 1092.5944342166185 1197.5365594029427 51.966812521219254 7428.6471376344562 4502.0776234567165 478.45702511817217 1451.9916824176908 4312.0862913951278 229.94812659919262 1687.932933203876 1565.2945124879479 735.15219751000404 288.82138914614916 6454.2652041986585 5208.3441107496619 9963.7852296978235 3281.9404109045863 517.80078202486038 4011.5543720275164 2871.7140276059508 684.79979778826237 5620.4956220015883 1455.2150175347924 112.84173100441694 3829.9594369158149 390.55440742522478 436.73011856526136 89.745596885681152 101.89697660505772 1449.6623944863677 484.43106207996607 763.82208679616451
leaf_count=193086 24838 5360 90224 650 5461 4336 181350 11588 5080 48250 126 20525 19752 8273 91516 15433 1826 62104 10050 74389 16234 4833 6494 49864 33276 38733 16733 120836 3811 11603 14853 10445 370 111592 41290 4249 13205 59385 2926 17877 15132 6843 2715 90783 55064 126941 51821 4319 52500 41708 4248 44888 13674 1460 46551 3548 3121 644 765 14706 5940 5924
internal_value=-0.000172705 0.0236989 -0.0280692 0.0399571 0.0108034 -0.0160662 -0.0428049 0.0340122 0.00406376 0.0191192 0.0538003 0.0285845 0.028282 -0.0104858 0.0170877 -0.0232344 0.0384329 0.0273621 0.00763647 0.00667086 -0.0360992 0.0499691 0.0352282 -0.0242538 -0.0136253 0.00592487 0.0414739 -0.0485698 0.062298 0.0591775 -0.00789752 0.0326922 0.0631292 -0.0259624 0.0408269 0.0463415 0.038381 -0.0062505 -0.00721883 0.0211009 0.0298765 0.0252896 0.0365512 -0.0156859 0.0192922 -0.00033002 -0.0370913 0.0449789 -0.0083367 -0.0206716 0.074914 0.0516298 0.0302919 -0.00731539 0.00394418 0.0357222 0.0503377 0.028797 0.0444878 0.0366873 0.00580618 0.0503922
internal_weight=159594 86001.4 73593 38040.8 47960.6 40557 33036 26612.3 26490.6 21470 11428.5 11945.6 3896.14 22804.2 17573.8 17752.8 14666.7 11326.9 14610.4 13701.7 15271.8 7877.15 797.551 16642.9 13096.5 13219.3 9587.84 17764.2 3551.34 2847.13 3464.99 5078.89 2243.59 13254.9 9342.48 2870.61 6471.87 9707.77 9038.02 3610.55 3881.36 2300.45 1580.91 9631.47 13490.8 11880.2 14217 1969.79 8323.64 3177.2 704.214 7079.6 7716.31 1916.4 9896.75 869.011 578.443 141.712 603.545 2054.67 714.379 6384.32
internal_count=2046121 901701 1144420 338910 562791 581093 563327 251433 328042 234749 87477 119540 39919 313980 194830 267113 131893 114180 174803 164753 249405 62789 7144 251680 184956 159673 85170 313922 24688 20314 48129 46723 15738 201816 83344 24530 58814 129024 120751 38402 36278 21975 14303 136827 146580 153239 233171 17524 111885 46044 4374 55645 75778 26298 120940 7797 4135 1014 4576 20167 8866 50812
is_linear=0
shrinkage=0.05


Tree=9
num_leaves=63
num_cat=0
split_feature=6 6 6 6 6 6 6 2 2 6 2 2 2 5 2 5 2 2 9 2 6 5 2 3 1 9 3 3 2 9 1 3 9 3 6 1 2 6 3 1 2 3 5 3 6 1 5 1 9 3 1 9 5 6 2 5 1 5 6 1 5 0
split_gain=38590.5 6165.07 5086.07 1081.66 895.648 724.997 411.985 220.527 208.836 165.49 151.848 134.876 129.599 128.4 123.725 119.11 114.454 106.782 98.9688 91.8007 91.4942 88.6131 84.5309 76.721 74.9478 72.3245 72.0241 69.6595 79.2031 68.2685 65.8093 63.0362 63.219 62.076 56.2547 53.941 53.0498 52.2877 49.8184 62.5293 55.2583 65.0421 48.7418 47.8523 45.3932 44.8479 44.2146 44.1845 43.9649 43.526 47.0539 42.6829 42.3751 41.8476 41.5557 41.2341 67.5755 39.9492 39.0154 38.5356 38.3223 37.6686
threshold=0.0010388172413124668 0.0015887045122230886 0.00069595531941239665 0.0023027666243254255 0.001291683543776476 0.00086160221929545066 0.00051362381629094646 -0.0092199233219544801 -0.013772937124955918 0.0034631056631942748 -0.015025324392449855 -0.015025324392449855 0.0058919061911291157 0.0010831499598208244 -0.011180836049199448 0.0014525563583927456 0.0060128695907712979 0.0081532366415373331 0.00025870428226637548 0.0047838694448848482 0.00096178331255549181 0.0010473763894860968 0.003169226077316734 -0.052581832263576649 0.0048032988720975176 0.0064020985062415168 0.0037687546241974572 0.011209606322446832 -0.0119185052897513 0.0024585125999050388 0.0042754328899919933 -0.0080332346435396645 -0.001449061398204887 -0.030900859747584993 0.0012307206758515384 0.0041732710034655405 0.019987600535002262 0.0019117502135794172 -0.0011220909791994636 -0.004025021037347253 0.010190175180056162 0.022742093441379344 0.00076404732682306656 0.017950251460414849 0.00076285376621985782 -0.0048393246472106513 0.001784585813774505 -0.0031941312228786485 0.0024021071535226261 0.02011858070664874 0.0069352498687832451 0.0058505849264582918 0.0038479927053263886 0.00064989298339505344 -0.0039678632098027458 0.0016894536927474575 -0.012109090147376265 0.00072261993181286523 0.0011533791471540422 -0.0087870517814820897 0.0014525563583927456 -0.0032524820899637592
decision_type=2 2 2 2 2 2 2 2 2 2 2 2 2 2 2 2 2 2 2 2 2 2 2 2 2 2 2 2 2 2 2 2 2 2 2 2 2 2 2 2 2 2 2 2 2 2 2 2 2 2 2 2 2 2 2 2 2 2 2 2 2 2
left_child=2 4 6 7 10 12 -1 18 23 25 47 59 27 38 45 -9 20 34 43 53 57 33 52 24 -5 55 -18 28 -4 -14 -19 32 60 -13 -15 -28 -33 -17 39 -12 58 -42 -22 -3 -30 -7 -32 -2 -21 50 -38 -34 -11 -8 -41 56 -10 -16 -40 -6 -23 -20
right_child=1 3 5 8 11 14 19 15 9 22 13 21 29 17 16 37 26 30 61 48 42 31 -24 -25 -26 -27 35 -29 44 -31 46 36 51 -35 -36 -37 49 -39 40 54 41 -43 -44 -45 -46 -47 -48 -49 -50 -51 -52 -53 -54 -55 -56 -57 -58 -59 -60 -61 -62 -63
leaf_value=-0.049084200706849934 0.034626822358082496 0.043372134352650943 0.0074076892333568116 0.066828470140004564 0.046695798004039078 0.023145295517103443 -0.040507786906757166 0.020325106615309365 0.10550872628919289 0.032765479065811218 0.0091902646476886615 0.033152679873938072 -0.017058346718235404 0.0024788006190201465 -0.021122174656850408 0.026740691704698977 -0.012076503145269833 0.0087108825995605554 0.11724511075548494 -0.029750124537082725 -0.01676070398360761 0.022260095887138037 0.059569112679349584 0.050264921139176237 0.038217478498666045 0.051122459464397502 -0.0027848088242240308 -0.017769230997894847 -0.030299605509672201 0.0027113998103575139 0.028270853936390949 0.01501369523007378 0.01770921515468479 0.0072258896221665874 0.010488523832110755 0.013264694888517715 0.0812163487614527 0.032996331185619621 -0.0026571090008578793 0.0010935472909092568 0.0045951648666953211 0.037209546155204616 -0.0062505940264004807 0.027043382103514813 -0.024413623254219322 -0.0012359818297144776 -0.0091812575247035115 0.004069246759566679 -0.006528563249063102 0.020246004034724763 0.025664985965238654 0.055146877025424416 0.054599421656676243 -0.034237096846379968 -0.0092357052863752103 0.03879600207473792 0.024610406261932245 -0.013729278546681859 0.0058735027165248976 0.027752546192901517 0.035630064466223361 0.026094680046109233
leaf_weight=14750.834824439138 507.29746057093143 4237.8144125938416 172.47911993414164 1711.8296620845795 376.06606739759445 343.38398766517639 9566.3574183210731 4665.6017891094089 26.634898513555527 577.88425026088953 762.2116572484374 249.66215942800045 1947.9834484606981 8831.7852635756135 2341.5951683744788 7319.7497663348913 1322.8785245195031 1369.7678933665156 11.423140734434126 1562.8267356939614 1344.8956372886896 1053.0919579863548 1857.4950078055263 2942.1840736865997 264.22335593402386 1101.3561406508088 1595.4483110308647 2915.2961381152272 5334.5166263133287 562.84708605706692 982.63082003593445 9806.5888702869415 3939.9085836410522 3067.122913479805 2915.8559872508049 779.20875144004822 79.783122450113297 6144.3758569732308 3314.0308652594686 1371.1959354430437 438.76438823342323 234.60579441487789 6136.5510718747973 501.80927549302578 8486.9853208698332 418.46205835789442 85.675881639122963 154.27089964598417 234.39848961681128 230.00897863507271 72.995903834700584 77.633714698255062 361.06870796531439 3685.6655066311359 3359.0672482177615 5937.6401426643133 837.25262026488781 8320.4920521453023 2250.5783067569137 938.32296591997147 1091.4239596426487 1460.7686236053705
leaf_count=273419 5254 35851 2360 11165 3237 4069 166569 48660 199 4241 9628 2784 28969 107823 34765 69759 18100 16154 98 25690 19272 11103 12894 21550 1790 8605 21659 43934 85578 7457 10909 107044 42237 36161 33683 9672 772 55369 43869 17747 5424 2814 82632 4480 131161 5408 913 1720 3521 2265 715 785 2501 61782 43765 48553 7739 118403 28339 8951 10556 13595
internal_value=-0.000183642 0.0221071 -0.0273458 0.0365848 0.00994319 -0.0161413 -0.0431461 0.0299955 0.0468549 0.0429348 0.0038466 0.0176655 -0.0232264 0.00324277 -0.0100538 0.0272098 -0.0107447 0.00644313 0.0381259 -0.0373257 -0.0123786 0.0166292 0.0533885 0.0553828 0.0630028 0.0392358 -0.0027269 -0.0248004 -0.0262652 -0.0126266 0.0159655 0.0181407 0.0221328 0.00917746 0.00446688 0.0024816 0.0157265 0.0295955 -0.00062744 -0.00409997 0.00243008 0.0159582 -0.00813993 0.0416433 -0.0266854 0.0097533 0.0252673 0.0275011 -0.0267215 0.0339872 0.0546746 0.0184326 0.0411616 -0.0387638 -0.00624149 0.037311 0.0271046 -0.0153529 0.000793054 0.0331725 0.0290646 0.0268019
internal_weight=159343 87519.5 71823.1 39959.1 47560.3 42023 29800.1 24341.5 15617.6 10699.3 26577.7 20982.6 19420.1 25916.2 22602.9 18129.7 21841.1 14185.7 6211.82 15049.2 18143.5 19668.2 2796.45 4918.24 1976.05 7902.88 3697.54 16909.3 13994 2510.83 2438.07 16351.4 6162.06 3316.79 11747.6 2374.66 10189.4 13464.1 11730.5 5492.47 6237.98 673.37 7481.45 4739.62 13821.5 761.846 1068.31 661.568 1797.23 382.788 152.779 4017.54 938.953 13252 4730.26 6801.53 863.888 10662.1 5564.61 1314.39 2144.52 1472.19
internal_count=2046121 901701 1144420 347049 554652 613439 530981 227812 119237 84732 328042 226610 299459 321068 313980 173788 304503 169482 54024 257562 255072 214422 19636 34505 12955 65096 49431 263033 219099 36426 27976 175477 64681 38945 141506 31331 110796 125128 151586 71140 80446 8238 101904 40331 216739 9477 11822 6974 29211 3752 1487 43022 6742 228351 61512 56491 7938 153168 72208 12188 21659 13693
is_linear=0
shrinkage=0.05


Tree=10
num_leaves=63
num_cat=0
split_feature=6 6 6 6 6 6 6 2 2 5 5 2 2 6 2 2 2 2 10 2 5 9 5 4 10 5 5 8 9 9 10 9 4 5 5 5 6 4 2 2 6 2 6 6 4 10 2 10 5 9 2 6 2 5 4 5 10 10 6 10 6 4
split_gain=35068.3 5296.5 4869.89 851.21 839.234 681.049 435.517 284.966 188.87 177.12 131.588 126.684 119.722 109.373 103.97 118.513 103.082 95.9655 90.6268 73.0452 70.3386 69.62 68.3266 66.9896 65.9909 63.2707 54.515 52.8198 51.9451 51.461 51.1413 50.124 49.6002 48.7156 48.088 46.732 45.9944 45.3929 45.1813 49.6985 43.459 41.0296 40.34 39.1471 39.0496 37.4345 35.7427 35.1477 34.8859 34.6701 34.3228 67.1728 47.0778 35.7306 34.2105 34.1222 33.463 33.4063 33.1976 33.024 32.2531 31.0953
threshold=0.0010388172413124668 0.0016033890450658631 0.00069595531941239665 0.0028028352077988385 0.0012307206758515384 0.00086160221929545066 0.00051362381629094646 -0.013245752169754986 -0.0092199233219544801 0.001784585813774505 0.0013650731114504271 0.0077881818800974454 -0.013245752169754986 0.00096178331255549181 0.010773516742142554 -0.0092199233219544801 0.0047838694448848482 0.0056466451894267031 35.012730490998067 -0.037034082183624688 0.00074602997890203207 0.010447323923820641 0.00055265587718910368 0.41326944959381223 91.291081549879749 0.00077709436381765632 0.00077273640481926426 -0.0012169761075715433 -0.0071650432603269079 0.0033760877167403618 73.046855986116 0.0019763757807942377 0.40402135997217464 0.0013452039187785284 0.00072261993181286523 0.0018548030901609435 0.0013511038764933087 2.0115870234431621 -0.0119185052897513 0.0016162492653913898 0.0020224588698254274 0.015563498199526628 0.0006445451111586957 0.0015610260467115993 0.31040800864694545 73.046855986116 0.028329628141802291 77.780917549407519 0.0012727774262637937 -0.0011997247066447001 -0.0076495132127955548 0.0034631056631942748 0.003169226077316734 0.0038479927053263886 0.82773117364226922 0.00062294797835994156 21.378059238928227 48.316612248101087 0.00044423464021290906 67.528266173474336 0.0019117502135794172 1.6423035139316957
decision_type=2 2 2 2 2 2 2 2 2 2 2 2 2 2 2 2 2 2 2 2 2 2 2 2 2 2 2 2 2 2 2 2 2 2 2 2 2 2 2 2 2 2 2 2 2 2 2 2 2 2 2 2 2 2 2 2 2 2 2 2 2 2
left_child=2 4 6 7 14 11 58 27 18 21 25 22 55 17 15 28 42 34 -6 37 -17 33 -4 -11 -23 -10 -15 -3 -2 -13 -19 -18 -22 54 -14 56 -27 -5 -24 -40 41 -25 -8 -20 -12 -46 -42 50 -34 -30 -37 -52 53 -53 -9 -7 -21 -45 -1 -16 -29 -55
right_child=1 3 5 19 8 12 16 9 10 23 44 29 13 26 59 20 31 30 43 35 32 24 38 40 -26 36 -28 60 49 -31 -32 -33 48 -35 -36 47 -38 -39 39 -41 46 -43 -44 57 45 -47 -48 -49 -50 -51 51 52 -54 61 -56 -57 -58 -59 -60 -61 -62 -63
leaf_value=-0.050292580240813234 0.060734397697383084 0.046416466062005321 -0.031944173653909856 0.056232132931739821 0.031314560942917978 0.11019591643449392 -0.039817297412102014 0.013683789248192383 -0.0036391240678762199 0.02446909873527826 0.010205345718492277 -0.011658057490435929 -0.021621259333369908 -0.014191211705800511 0.0068668637552177936 -0.010759315856215878 -0.029381618092901442 -0.0082286862925144266 0.015303600582986866 0.078847964037918314 -0.0044005891003260069 0.02769560501585577 0.0025454367589857582 0.027791489972696749 0.17761792054134262 0.0076224182734368658 -0.0043014330315477916 0.030044607674826349 0.015325597083413798 0.016369935599431854 0.0092168884511273485 -0.0086656547032486295 0.00059055143986008383 0.025289904529087304 -0.013424045806768979 0.050235500756363377 0.013878923894043639 0.088617506925196834 -0.024841350623115096 -0.01880010065453314 0.037015998566573054 0.040637069098974458 -0.033749114296966136 0.020980545000048201 0.017818077244810712 0.029098951880474594 0.021885471800369854 0.061278445326963318 0.0068029728348651414 0.0021933229655587794 0.036668327780482422 0.025615232576959957 0.053384831845370344 0.045541179152875186 0.023402574178278523 0.016524169445058634 0.028306458805647423 0.05547322658674414 -0.045013634677863533 0.02101701801659496 0.039944388264386649 0.10772857401841172
leaf_weight=9873.0436990112066 53.007150299847126 2137.2751351445913 2207.4573656246066 885.684202298522 2351.7834209278226 10.006722941994665 8831.5483728796244 1918.6376744508743 800.19743060320616 2625.7602352648973 1532.3728386312723 1092.8031328245997 2282.8406633511186 1704.0952483564615 807.06960275769234 1494.3353521451354 1382.4099912531674 1602.9824211969972 2181.6108272746205 35.051505580544472 3767.8541353344917 15.19930773973465 177.40791888535023 4080.7641903534532 14.194736823439598 5623.8420645222068 7643.1720285490155 1259.8960646018386 1409.3780809268355 192.63915304094553 569.27743648737669 370.18600086122751 8799.2559855952859 7731.0228448882699 8272.8386713266373 2981.1198058575392 6149.7415278106928 123.25866257399321 10238.998657032847 5099.9860669970512 6003.6033685803413 733.33636432886124 3969.9101617224514 175.39611274749041 8029.143977612257 809.55353071540594 417.45923274755478 404.10651195049286 3040.6897149533033 781.15618272870779 2029.7312161773443 316.33471674472094 1674.9814286157489 192.10918939113617 1714.6973855048418 341.78675731271505 498.73856744915247 117.03626924753189 4264.6049443781376 843.04565417021513 2371.1185696348548 22.450768679380417
leaf_count=193226 487 16260 36093 5427 22438 128 159524 19918 10144 23498 16425 15903 34501 24546 9662 20834 23459 22462 22813 245 47600 131 2405 36924 118 65610 102298 10912 16321 2439 7394 5696 112016 72769 118937 20025 67827 702 162559 79663 49481 6345 68712 1667 84282 8154 3287 2722 36254 9544 15318 2270 11180 1298 17481 3974 4087 1162 80499 9526 18457 149
internal_value=-0.000176245 0.0206679 -0.0266157 0.034108 0.00959238 -0.0156517 -0.0424499 0.0301531 0.0152956 0.0278629 0.0134046 -0.0226143 -0.00975011 -0.0102113 0.00204879 0.00102119 -0.0363785 -0.0132273 0.0242868 0.0474973 -0.000396246 0.0232445 -0.0237135 0.0316593 0.100095 0.00996574 -0.00610443 0.0401801 0.0118261 -0.00745772 -0.00365678 -0.025006 0.000595943 0.0230457 -0.0151968 0.0459271 0.0108904 0.0601885 -0.0225426 -0.0228327 0.0333397 0.0297483 -0.0379355 0.0176063 0.0175738 0.0188513 0.0360323 0.0469289 0.002186 0.0106426 0.0461253 0.0432325 0.0492725 0.0362981 0.0182704 0.0191887 0.0316253 0.0347851 -0.0487002 0.0140962 0.0365093 0.0520482
internal_weight=159081 88953 70128 40186.5 48766.5 41436.3 28691.7 31023 27770.7 25254.7 22944.9 19009.3 22427 22075.2 20995.8 19345.7 14554.1 12727.9 4825.83 9163.57 17102.1 11393.8 17723.9 13860.9 29.394 12573.8 9347.27 5768.29 2243.54 1285.44 2172.26 1752.6 15607.8 11364.4 10555.7 8154.62 11773.6 1008.94 15516.4 15339 11235.2 4814.1 12801.5 2474.04 10371.1 8838.7 6421.06 7620.83 11839.9 2190.53 7216.73 4235.61 2205.88 530.895 3633.34 351.793 533.79 292.432 14137.6 1650.12 3631.01 214.56
internal_count=2046188 901770 1144418 339004 562766 613302 531116 275581 300522 229952 252442 299062 314240 310138 262244 243056 257391 183294 48080 63423 216704 110417 280720 119535 249 143581 126844 45629 26352 18342 29856 29155 195870 110168 153438 57294 133437 6129 244627 242222 96037 43269 228236 25642 108861 92436 52768 52962 148270 25865 50240 30215 14897 3717 37399 4102 4332 2829 273725 19188 29369 1447
is_linear=0
shrinkage=0.05


Tree=11
num_leaves=63
num_cat=0
split_feature=6 6 6 6 6 6 6 2 2 3 5 5 3 5 2 2 2 1 2 2 10 6 2 5 6 3 3 1 6 3 3 3 2 10 2 2 3 1 3 6 2 3 8 1 10 4 4 3 5 6 6 2 5 3 5 3 5 2 1 5 10 2
split_gain=31886.8 4834.84 4473.5 833.467 724.422 588.65 418.374 197.884 164.692 136.101 124.463 113.032 112.885 112.433 105.031 103.432 115.143 102.11 95.5002 93.1498 85.8601 80.3663 80.0183 73.1281 70.1048 66.4213 59.9056 57.192 56.4513 55.4585 55.2242 50.864 65.4133 49.3761 49.1838 53.2305 47.9783 46.348 49.6565 45.4455 46.7754 77.647 45.4184 45.2044 42.9156 42.5058 42.1886 41.9943 40.1779 52.7496 39.793 45.187 39.1825 54.7169 39.1465 40.4481 38.9218 38.1154 39.6924 36.9145 36.8474 35.5145
threshold=0.0010232884766985279 0.0016033890450658631 0.00069101711961812101 0.0012307206758515384 0.0025321075518840936 0.00086160221929545066 0.00051362381629094646 -0.012794104099667023 -0.0083718983324734247 0.010504821359035301 0.0011086230284469947 0.0017451570205561607 -0.056892729687833703 0.0018548030901609435 -0.013772937124955918 -0.0094666214582901347 0.010773516742142554 0.00042902343663897563 0.0047838694448848482 0.0076255202547634857 35.012730490998067 0.00096178331255549181 0.01224267977723126 0.00074602997890203207 0.00076285376621985782 -0.088628770058661863 0.026606653617602508 0.017925550445781483 0.001129490321505813 0.040024211939868611 0.02011858070664874 -0.062776565052828623 -0.037034082183624688 62.724879429146647 -0.0094666214582901347 0.0077881818800974454 0.0037687546241974572 -0.0051046186131931673 -0.012866010417755534 0.0014083617856079898 0.021902664442250645 0.012726147204687234 -0.0012169761075715433 0.0066558997859219602 21.378059238928227 0.40402135997217464 0.94847561737967023 -0.012094950763572252 0.0053588186777880154 0.0042538437037059869 0.0029210032190221014 0.00083893044023319885 0.001394902417756988 -0.0083997754153792275 0.00072261993181286523 0.018764590027476217 0.0013452039187785284 0.028329628141802291 0.0033557300604285527 0.0017643100418843014 81.447867631896372 -0.0076495132127955548
decision_type=2 2 2 2 2 2 2 2 2 2 2 2 2 2 2 2 2 2 2 2 2 2 2 2 2 2 2 2 2 2 2 2 2 2 2 2 2 2 2 2 2 2 2 2 2 2 2 2 2 2 2 2 2 2 2 2 2 2 2 2 2 2
left_child=2 3 6 15 7 9 -1 31 20 24 -10 27 17 -14 -7 37 23 22 -8 21 -5 54 44 -17 -4 60 45 56 -25 -29 33 32 -3 -18 -26 -36 -21 38 -2 40 -12 -42 -33 -11 59 -13 -41 -22 61 -50 51 -15 -35 -54 55 -16 -9 -47 -59 -6 -19 -46
right_child=1 4 5 8 12 14 18 11 10 43 39 26 13 50 19 16 30 25 -20 36 47 -23 -24 28 34 -27 -28 29 -30 -31 -32 42 -34 52 35 -37 -38 -39 -40 46 41 -43 -44 -45 48 57 -48 -49 49 -51 -52 -53 53 -55 -56 -57 -58 58 -60 -61 -62 -63
leaf_value=-0.048376713392899909 0.031890735485327969 -0.01345891823080517 -0.02851515557451989 0.028632531346302371 0.14285565970593975 0.022234576577181829 -0.037513392744377864 0.016955890861372863 0.0061466760570087955 -0.014834347169522234 0.011714034657860002 0.01962920444711427 0.022647878676338745 0.041768423485622728 -0.021822265817622227 -0.010661644477951331 -0.007382459189976944 0.04983803051674382 -0.024650471788590637 -0.011372988085648374 0.021944029117432876 -0.007074146772317322 0.092300822378143646 -0.0024196425727513468 -0.0036681256990288009 0.028754552905431215 0.034452889622309836 0.02548135566096307 0.0033425477145460239 0.17082226126387479 0.024342854815283116 0.040995749135733062 0.060483311006449797 0.0078231528535552142 -0.023215024637752817 -0.0058341518585812479 0.0045104524326803168 0.0061884073194780238 0.0073454417034959476 0.014587422542549099 0.1083114643620548 0.016689462453499514 0.031000521083561251 0.01920276315321626 0.051392499916527369 0.028569609297617482 0.022104710041822392 0.010044605772804555 0.028565612962906262 0.075659117262883213 0.043274604596872795 0.029593962273890963 0.14534437666657277 0.028121094617763711 -0.012481126805631996 -0.00068371155255144268 0.023391441864712779 0.047167679679920603 -0.0084935311245522404 0.068967708896106511 0.11002002991332481 0.030877540236327369
leaf_weight=13535.853833548725 463.85493922233582 32.846648268401623 5939.6253547891974 2619.5105705559254 18.680672027170658 251.5050180926919 11974.814248234034 3588.2087629586458 5817.2290105968714 3988.6168185770512 8559.2400518208742 1851.3744536489248 957.2490918636322 1654.5905774012208 2184.4081387445331 1699.0181532874703 431.57610599696636 397.26015746593475 1640.7053329572082 697.46359795331955 1539.7421697601676 6588.6436711326241 146.78047906607389 9300.152905613184 369.70141284540296 720.10548788309097 3074.3707258924842 13.723943881690504 7828.2877924665809 12.579667672514914 636.08836616575718 1773.5382295027375 334.58774711936712 558.0058616772294 8256.6355798952281 465.33835083246231 1493.5440803095698 1445.2553291246295 370.74567652493715 5080.500295765698 33.294294148683548 75.701926335692406 3164.4097313284874 99.992735128849745 991.09786552935839 7720.1856843456626 2950.2887215912342 1430.0865861624479 74.968790546059608 287.46509437263012 5470.9933647587895 1413.1132315695286 10.680965326726435 146.42649495601654 8913.8454114124179 252.45541904121637 6805.2448610439897 42.235131487250328 132.54077926278114 177.73743550479412 27.173668324947357 268.00993391871452
leaf_count=273725 4950 229 99417 24649 115 2834 221245 36501 68207 61574 93528 16617 7942 12113 33670 24009 5242 2432 27962 9580 15437 90923 907 120371 5469 4948 25650 114 95530 95 7143 13424 2358 6526 132817 6711 19467 17441 4127 52436 315 736 25619 1258 6175 66095 30022 15192 441 1574 37068 10911 113 1562 129280 3716 63237 350 1091 989 149 1860
internal_value=-0.000183818 0.0188717 -0.0265277 0.00858336 0.0316213 -0.0157885 -0.0421518 0.0272129 0.014352 -0.0220904 0.0124451 0.0252239 0.0416045 0.038897 -0.00987686 0.00150032 0.000382462 0.0498735 -0.0359634 -0.0102781 0.0220341 -0.0114667 0.0567892 -0.000767546 -0.0242905 0.0380019 0.0283675 0.021356 0.000213877 0.0949905 0.0125274 0.0359259 0.0538733 0.00597316 -0.0215306 -0.0222877 -0.000545724 0.0116059 0.0209872 0.0146391 0.0121285 0.0446766 0.0345905 -0.0140019 0.0539221 0.0264479 0.0173491 0.016214 0.0512484 0.0659179 0.0407187 0.0361604 0.0140334 0.0360905 -0.0140164 -0.0196323 0.0211696 0.0280469 0.00495717 0.0759949 0.0536911 0.0470257
internal_weight=158800 92146.8 66653.1 50995.7 41151.1 39501.8 27151.4 28545.8 28105.6 19119.9 22516.3 23240.5 12605.2 9495.95 20381.9 22890.1 20610.2 3109.28 13615.5 20130.4 5589.34 17939.4 1964.74 18827.5 15031.3 1144.54 12820.7 10419.8 17128.4 26.3036 1782.78 5305.38 367.434 1146.69 9091.68 8721.97 2191.01 2279.86 834.601 16699 8668.24 108.996 4937.95 4088.61 1817.96 9746.34 8030.79 2969.83 1621.54 362.434 8538.7 3067.7 715.113 157.107 11350.7 2436.86 10393.5 7894.96 174.776 196.418 424.434 1259.11
internal_count=2046188 926540 1119648 587536 339004 596716 522932 251380 300522 307246 245244 209750 87624 68034 289470 287014 260496 19590 249207 286636 55278 257589 12061 239910 244414 7529 109803 99947 215901 209 20586 41630 2587 13443 144997 139528 29047 26518 9077 177037 94579 1051 39043 62832 11154 84153 82458 30629 10050 2015 60092 23024 8201 1675 166666 37386 99738 67536 1441 1104 2581 8035
is_linear=0
shrinkage=0.05


Tree=12
num_leaves=63
num_cat=0
split_feature=6 6 6 6 6 6 6 6 2 2 2 5 2 2 2 2 9 2 10 5 5 10 5 5 6 10 9 9 9 6 5 2 9 2 2 2 2 6 5 6 6 5 6 2 4 5 7 10 6 9 9 2 5 2 9 10 5 6 7 9 9 0
split_gain=29034 4365.46 4211.03 894.076 554.649 481.156 425.15 191.69 169.98 123.695 102.626 94.7503 94.6363 94.3486 89.5944 102.504 88.8939 85.7116 82.4437 76.3928 71.4848 67.9432 61.5944 60.5526 59.8994 58.1547 50.5444 48.9482 48.0522 46.7534 45.7346 45.1339 44.0875 52.3071 42.7388 48.6635 41.4582 39.5123 37.5949 35.9391 35.6629 35.5455 34.6077 33.7594 32.8584 32.3672 29.7784 29.4126 29.3473 29.2721 29.1741 28.6297 32.644 27.1646 27.1338 25.9859 25.3085 25.1253 24.6456 24.5848 24.4215 24.657
threshold=0.0010232884766985279 0.00069101711961812101 0.001485674349658178 0.002092122970003352 0.00086160221929545066 0.0012243411583748992 0.00051362381629094646 0.0028028352077988385 -0.0058177117000645642 0.0077881818800974454 -0.010848126232741727 0.0013452039187785284 -0.013772937124955918 0.0047838694448848482 -0.0092199233219544801 0.011827083451738886 -0.0044118592099409706 0.0076255202547634857 27.864723234690945 0.00073172821605087073 0.00055265587718910368 53.647486157704641 0.00074602997890203207 0.0012463200526267968 0.00096178331255549181 35.908988727406637 -0.0064624999989961731 0.0019363305077712003 0.0033760877167403618 0.0011185000609857613 0.0011550275757064754 -0.015025324392449855 0.0048315687336317756 0.021902664442250645 0.0016162492653913898 -0.0119185052897513 0.012670678068620657 0.0016327029403701088 0.00075948112096941613 0.00044423464021290906 0.0006445451111586957 0.002125866930022524 0.0034631056631942748 -0.0024751663797378805 0.86616009873235911 0.0016712069281423609 0.0005521928429803592 74.744198866861339 0.00076285376621985782 0.0083024764185234429 0.00437491533598633 0.0028836250244657084 0.0011086230284469947 -0.015025324392449855 -0.0012499773026976577 77.780917549407519 0.0034987289130721222 0.0019387981541236067 -0.0027374892193778306 -0.0011997247066447001 0.00094712548373732119 0.0026463129459666228
decision_type=2 2 2 2 2 2 2 2 2 2 2 2 2 2 2 2 2 2 2 2 2 2 2 2 2 2 2 2 2 2 2 2 2 2 2 2 2 2 2 2 2 2 2 2 2 2 2 2 2 2 2 2 2 2 2 2 2 2 2 2 2 2
left_child=1 6 5 8 9 14 39 10 18 20 56 49 -6 40 26 22 -7 19 -4 -14 -3 43 -16 38 -21 31 -2 -15 -11 46 -20 42 33 53 35 -22 54 -38 -18 -1 -8 -12 -9 -13 -31 50 51 -19 -37 -10 -27 -24 -53 -25 -23 -47 -5 -45 -43 -28 -32 -62
right_child=2 4 3 7 12 16 13 25 11 28 41 21 17 27 15 -17 23 47 30 24 34 36 29 32 -26 45 59 -29 -30 44 60 -33 -34 -35 -36 48 37 -39 -40 -41 -42 58 -44 57 -46 55 -48 -49 -50 -51 -52 52 -54 -55 -56 -57 -58 -59 -60 -61 61 -63
leaf_value=-0.049787221738619707 0.046043620153953115 -0.030923140285973157 0.036818413273095228 0.039581716118784575 0.020740654831726633 0.024328022582665962 -0.038640157241761439 0.044510641962516397 0.012348873539122684 -0.010559316425502511 0.024713457953628778 0.023917684923266624 -0.017633017142452863 -0.028592074063824687 -0.0099258441500252488 0.013644495513540897 -0.0034223734013685211 -0.0040603279027166218 0.01084421947256848 -0.01198975335587138 0.0027981051104312717 0.037606382994135511 -0.0061741490082803611 0.023585555584330592 -0.0053589667714718766 0.011875945941748161 0.012851888167944728 -0.0075516840840693213 0.016232759161683451 0.00014193870291841123 0.027717006577601389 0.03888758165204001 0.026160190725622798 0.049724455235114623 -0.017520107738397996 -0.027129129398313669 0.018659610598057527 0.03350368752171503 0.0087874984552053937 -0.044056433067883705 -0.032513687580921644 0.05140900496573797 0.061550322197544305 0.013428809045529464 0.0064726313094711193 0.038271992222048176 0.0040589672516533502 0.0089637424807607474 -0.021534063590751763 0.078014836307447613 0.057687663672915529 -0.0043174503893454686 0.007361760681300818 0.011696911443643751 0.020767000259731966 0.050490965698717111 0.025691249467858408 0.022214814660630872 0.030453289552852522 0.0019763723197953279 0.018594249909275048 0.037050334438834161
leaf_weight=9036.893032617867 95.842989385128021 2204.2019976750016 1797.0700866356492 3230.4223287850618 256.01884306967258 1314.8891608864069 8246.427510112524 529.28532065451145 4513.7063252851367 1088.532213896513 4061.2310737222433 1445.9952768832445 3491.3959102891386 1250.8366771824658 1674.5119918063283 1319.317688472569 681.72898884117603 1594.6427250131965 538.57452497631311 8659.9657154083252 177.59482228755951 252.20330518484116 4578.046222127974 504.52663642168045 5613.7485177218914 192.03182457387447 1457.0673616379499 354.83392813056707 197.76035718619823 4959.2311514243484 5091.7805027365685 815.45597217977047 634.36809245496988 94.011499159038067 5036.1080984063447 3721.2101196460426 602.39096436649561 1752.4990273118019 8380.6263604164124 3923.5507022812963 3336.4768841378391 144.7566806524992 681.86505832523108 3950.7453996017575 3493.5729779601097 6971.6954415589571 1438.9977337867022 595.32570679485798 6331.1127942278981 17.035295054316521 42.431201420724392 1448.3694708123803 1019.3859406933188 10082.844490483403 4647.1223957687616 464.08341542631388 364.97295864671469 1024.7743134796619 4562.6054403185844 807.70058577507734 1505.5244922414422 205.69274339079857
leaf_count=193226 880 37900 14315 23331 2834 12079 159524 3254 47029 16213 34616 13285 53720 22310 23859 14943 8741 21616 5538 126852 2425 2315 60159 4622 77017 1567 16652 5652 2479 61098 44072 5349 6291 862 81613 63627 5638 14862 95254 80499 61721 1059 3726 37057 42343 46243 18379 7431 102989 160 332 19013 12515 106878 42911 2952 2451 9064 35306 9855 13866 1819
internal_value=-0.000189711 -0.0258171 0.0176789 0.0276968 -0.015212 0.00642643 -0.041621 0.0351853 0.0216554 -0.0214042 0.0310577 0.0188625 -0.00946544 -0.0353009 0.00126767 0.000176782 0.0117276 -0.00985298 0.0272195 -0.0110035 -0.022506 0.0209386 -0.000777876 0.0109146 -0.00938191 0.0404482 0.0104784 -0.0239424 -0.00644018 0.000126525 0.0248699 0.0479812 0.0133537 0.0125932 -0.0212907 -0.0231469 0.0242544 0.0297065 0.00786899 -0.0480523 -0.0368754 0.0281408 0.0541038 0.0171928 0.00275844 0.0384578 -0.00249546 -0.000519837 -0.0236053 0.0125958 0.0201666 -0.0038341 0.000507024 0.0122634 0.0216338 0.0390346 0.0381717 0.0152384 0.0310977 0.00897327 0.0259803 0.0208127
internal_weight=158508 65116.6 93391 49406 38967.6 43985 26149 22060.8 27345.1 18756.5 12364 18206.5 20211.1 13188.6 22292 19931.4 21693 19955.1 9138.64 17765.1 17470.2 13675.7 18612.1 20378.1 14273.7 9696.85 2360.61 1605.67 1286.29 16937.6 7341.57 2026.61 11315.8 10681.4 15266 10229.9 7254.22 2354.89 9062.36 12960.4 11582.9 8768.59 1211.15 6421.51 8452.8 7670.24 8484.8 2189.97 10052.3 4530.74 234.463 7045.8 2467.76 10587.4 4899.33 7435.78 3595.4 4975.52 4707.36 2264.77 6803 1711.22
internal_count=2046188 1119648 926540 412117 596716 514423 522932 160186 251931 307246 96763 172321 289470 249207 279696 252309 234727 286636 79610 257589 288554 125132 237366 222648 203869 63423 27387 27962 18692 213507 65295 12329 118653 112362 250654 169041 65726 20500 103995 273725 221245 70981 6980 59406 103441 51094 110066 29047 166616 47189 1899 91687 31528 111500 45226 49195 25782 46121 36365 26507 59757 15685
is_linear=0
shrinkage=0.05


Tree=13
num_leaves=63
num_cat=0
split_feature=6 6 6 6 6 6 6 6 3 5 5 5 3 1 6 1 10 3 1 3 1 1 10 3 5 3 1 1 4 4 5 1 5 6 3 10 3 5 1 1 1 3 1 6 5 3 5 4 3 1 3 6 3 3 5 3 1 5 1 3 5 5
split_gain=26486.8 4365.6 3544.61 797.339 567.384 408.543 349.399 164.939 133.188 124.529 91.4148 89.4807 83.1362 72.6446 71.8992 67.267 65.2845 62.6997 60.0718 54.2432 52.0214 51.0248 48.8399 66.5586 47.896 61.7784 46.6249 43.9515 42.8889 42.3455 43.3456 42.2103 41.4703 41.02 61.1376 39.7631 40.2587 39.2773 38.4327 38.4036 38.1778 37.1674 68.7008 37.0851 36.8317 36.4955 35.4763 35.0816 33.881 53.4606 33.4249 31.1045 30.7438 30.6696 35.535 30.5294 30.5271 30.2998 30.1288 30.109 29.7109 29.3615
threshold=0.00097973072086377866 0.0014730643997880129 0.00068605129816051084 0.002092122970003352 0.0011720717659507724 0.00051362381629094646 0.00086160221929545066 0.0028028352077988385 0.010504821359035301 0.0013452039187785284 0.00090995282037586989 0.0012299434113870031 -0.029889747813965247 -0.0062473520565626264 0.00076285376621985782 0.0020768059133903232 27.864723234690945 -0.088628770058661863 0.0048032988720975176 0.0015962819732137092 -0.0072365223353610944 -0.0043015125355561059 72.663043221621606 -0.018509913640602668 0.00072712654007555495 0.0067245627616354673 -0.010890894476423827 0.009423647517136537 0.72399826948178914 0.47412472955804502 0.001784585813774505 -0.0047242136751802213 0.0021658202984558422 0.001291683543776476 -0.0047156013813960942 12.542128337711263 -0.0076589051958105272 0.00072712654007555495 0.0061789044744747787 0.0066558997859219602 -0.014058901325402827 -0.031998605491865888 -0.0056949433046666878 0.00044423464021290906 0.0017265599955435557 -0.026378815141691766 0.00081919801781290831 0.40402135997217464 -0.023584449737205911 0.00088812950883920838 -0.0062859942319766762 0.00059416371151344569 -0.0005940989518755101 0.023917812108124051 0.0013847111870399691 -0.0053489560335284172 0.017925550445781483 0.00079550089269067278 0.0042754328899919933 0.037981019370847642 0.00057825304019974624 0.0016712069281423609
decision_type=2 2 2 2 2 2 2 2 2 2 2 2 2 2 2 2 2 2 2 2 2 2 2 2 2 2 2 2 2 2 2 2 2 2 2 2 2 2 2 2 2 2 2 2 2 2 2 2 2 2 2 2 2 2 2 2 2 2 2 2 2 2
left_child=2 4 5 9 10 43 8 17 14 13 38 12 31 -3 60 51 28 40 21 -20 45 -8 33 27 25 -23 50 -24 55 -18 56 -6 41 -13 -35 36 -14 -37 -2 -10 -5 42 -19 -1 -22 61 -15 -28 -32 -50 -12 -7 -17 54 -43 -11 -31 -16 -54 -51 -4 -9
right_child=1 3 6 7 11 15 18 20 39 16 26 22 35 46 57 52 29 32 19 -21 44 24 23 -25 -26 -27 47 -29 -30 30 48 -33 -34 34 -36 37 -38 -39 -40 -41 -42 53 -44 -45 -46 -47 -48 -49 49 59 -52 -53 58 -55 -56 -57 -58 -59 -60 -61 -62 -63
leaf_value=-0.049532712413081138 -0.0068321943692671921 0.02945250792152785 -0.033834360385507058 0.11646059884562568 0.043236138992851579 -0.039604241423375881 -0.0020446031561791966 0.098728640648490781 -0.013645929290674933 0.028486822186740358 0.068384047982256821 0.0078919488245994627 0.0657652564210221 -0.0034002192638730544 -0.023083295799921556 -0.035268729765482683 0.017175058714765611 0.050388509816715381 -0.015623565806092254 0.0095313228271179853 0.018731966897750682 -0.0237211829845301 0.045923721032260847 0.01921643274607808 -0.010821278777820582 -0.0076321133160386426 -0.0034252994762689719 0.13417265329172062 0.035971652055973101 0.019498006265305786 0.030907856800415492 0.015826543521500366 0.031086714231730289 0.018106595391356273 0.0095796316934478008 -0.0065379397433007833 0.0073181621288593056 0.005789986170992148 0.014303994506660712 0.017246403249958336 0.04956367321168121 0.0061825673696969839 0.025483651641005023 -0.0435899500957318 0.036004742797574284 0.035816863820892733 0.013212190307571451 0.002082501865108301 0.018039643329744313 0.025370746869588429 -0.014848288613024715 -0.034086474977123388 -0.025299060420198208 0.029549768264751232 0.022338286372293823 0.0064937784460867946 0.07683868586808372 -0.017203521041624412 -0.0048407209524851972 0.038342849129409752 -0.025409932628266654 0.046868034516506653
leaf_weight=8639.2198094390333 6326.2075136750937 685.06668051332235 1348.0353679396212 25.9597527384758 177.6242468804121 4498.9057946503162 1301.8299584165215 27.733071036636829 3948.5238921493292 431.30389978736639 42.948624737560749 4918.8729037120938 54.403332971036434 341.18238016963005 4468.4998223744333 641.75494529306889 5243.2608983814716 383.95409841835499 317.32447401806712 660.15062209591269 323.21526785939932 1790.9765226356685 56.243251301348209 981.78129484504461 9760.9747608006001 894.70306747406721 3817.8505056872964 18.833407573401928 1283.1264561414719 7358.0402404069901 1869.4166292920709 671.32189409434795 6879.3392494767904 4011.1883346289396 4416.8528853207827 689.53664503246546 64.267846286296844 10257.214550405741 222.64311490952969 103.23321014270186 119.51982268691063 391.89741971343756 993.19917463511229 3771.1357167139649 6838.9773698672652 1028.0423933267593 5536.0028786212206 11910.166441753507 2688.3089375346899 2403.119306139648 16.772892192006111 5908.3483778722584 1077.9510326273739 1248.1101413071156 2588.3627486675978 248.82680004090071 23.284786567091942 4299.1030292697251 216.02765613794327 549.62522665411234 4680.1738901361823 1717.8485486954451
leaf_count=193226 88197 6160 24405 149 1742 91047 18187 172 62964 3347 393 54677 553 3804 75241 12251 47579 2730 4438 8498 2567 28488 568 9856 143081 13693 48773 176 9908 67534 14978 7460 50190 39177 46131 9206 716 119013 2777 1276 853 3582 8004 80499 44552 6477 56610 149051 23276 20830 166 113920 20366 10169 21086 2192 169 69756 3622 4420 81605 9655
internal_value=-0.00019403 0.0154397 -0.0269659 0.0256271 0.00471376 -0.0413208 -0.0163822 0.0326571 -0.0208908 0.0200919 -0.00114716 0.009688 0.0064824 0.0140439 -0.0230903 -0.0348798 0.021888 0.0288657 -0.0106116 0.00136512 0.0374767 -0.0114631 0.0123396 0.0226863 -0.0124482 -0.0183613 0.000912963 0.0680615 0.0305912 0.0210394 0.0223999 0.0215614 0.0284855 0.0115203 0.0136379 0.00532552 0.0341125 0.00501345 -0.00611362 -0.0128588 0.0615009 0.0252931 0.0324272 -0.0477269 0.0352253 0.0432905 0.0122478 0.000745527 0.0250742 0.0231409 0.0450081 -0.0364717 -0.0263212 0.0229696 0.0202138 0.0204406 0.0196789 -0.0202002 -0.0218836 0.0277854 -0.0272938 0.047692
