tree
version=v4
num_class=1
num_tree_per_iteration=1
label_index=0
max_feature_idx=10
objective=binary sigmoid:1
feature_names=ret_5m ret_1h ret_4h ret_24h vol_spike volatility_1h volatility_4h hl_spread bar_return sma_distance rsi14
feature_infos=[-0.038357400722021762:0.045185185185185217] [-0.14388282596209079:0.31215127092374462] [-0.2313683362427823:0.31379203949398349] [-0.33076563958916894:0.57662573897226022] [0:11.565473229516094] [5.5885941268640575e-08:0.050245888484176181] [4.5854307851476033e-05:0.030564412676286842] [-0.025690999291282823:0.019239793524167048] [-0.037271289812514263:0.045314236325472379] [-0.11355140186916679:0.12600108302217472] [0:99.999996285463567]
tree_sizes=6930 7064 7116 7089 7198 7135 7140 7118 7140 7125 7149 7173 7149 7169 7157 7135 7148 7163 7198 7151 7160 7150 7205 7170 7180 7185 7171 7203 7188 7199 7220 7208 7202 7199 7218 7222 7208 7167 7222 7151 7181 7185 7166 7179 7171 7212 7143 7204 7166 7164 7211 7141 7147 7131 7192 7177 7180 7174 7228 7136 7187 7145 7231 7153 7141 7114 7093 7121 7136 7152 7170 7175 7144 7223 7143 7161 7101 7050 7162 7144 7162 7161 7181 7125 7144 7096 7072 7095 7034 7188 7111 7160 7067 7145 7094 7098 7054 7115 7067 7082 7028 7054 7121 7202 7070 7074 7048 7088 7110 7121 7109 7030 7039 7079

Tree=0
num_leaves=63
num_cat=0
split_feature=6 6 6 6 6 6 6 1 9 5 9 5 5 5 5 6 9 6 1 3 5 3 3 3 9 3 9 3 9 5 5 5 5 3 3 4 3 6 6 9 1 6 6 1 6 3 4 1 6 3 3 4 5 6 3 1 6 3 5 1 6 5
split_gain=101666 17642.9 15650.4 3320.25 2519.53 2101.07 1973.26 910.26 786.372 729.373 635.823 484.843 483.377 439.288 421.999 333.323 329.903 323.478 244.33 236.066 235.071 220.779 203.505 192.741 237.795 177.303 173.503 169.616 158.882 155.929 151.027 145.411 136.61 129.588 127.247 122.754 112.384 110.342 105.424 102.439 100.417 98.1613 95.5788 95.0033 96.9883 94.7684 92.9472 87.8825 84.8265 83.0773 84.718 81.984 80.4414 79.8296 77.577 77.0481 129.669 74.2441 74.1449 73.2703 72.5525 69.9165
threshold=0.0012915529601951429 0.002117483702761666 0.00086030876827680172 0.0029131580586077817 0.0015988085845823959 0.0010428491786857923 0.00068877564394882306 -0.010873692296056557 -0.006386789656647073 0.0015017667996015574 -0.0040342873420430294 0.0024051013798180245 0.0012145911212435789 0.0030898677655774895 0.0012145911212435789 0.0042988244825994332 -0.006386789656647073 0.00052406375306823371 -0.0071519034889973012 -0.08875683804122779 0.00097687988697185051 -0.027104922716605969 -0.013015560669152769 -0.027934873111924215 0.00040440324003854228 -0.0099014571139384149 -0.00485405440323211 -0.017433883087224319 0.0034692777559449666 0.00083213571393704318 0.0018496296766600943 0.0013956579379095092 0.0030898677655774895 -0.08875683804122779 0.010980334293731244 0.48069354429618477 -0.0039244295765823436 0.0011289297651417051 0.001190765359624423 -0.0014436704402830956 0.006435330126525308 0.0038266288917823102 0.0014832278585621926 0.0050613304005705526 0.00096554362962408575 0.023114726454255944 0.37458818403425592 0.0062136726699431053 0.00094332067844964628 -0.017433883087224319 -0.035964595388011826 2.0245384406691165 0.00077602619671384636 0.00076134081776967641 0.02805951082583558 0.017964981380243276 0.0050809526342552574 0.066786063470953852 0.00082270036702928077 0.017964981380243276 0.0014377815752890592 0.0024709423319529407
decision_type=2 2 2 2 2 2 2 2 2 2 2 2 2 2 2 2 2 2 2 2 2 2 2 2 2 2 2 2 2 2 2 2 2 2 2 2 2 2 2 2 2 2 2 2 2 2 2 2 2 2 2 2 2 2 2 2 2 2 2 2 2 2
left_child=2 4 6 8 10 20 17 15 27 18 22 31 52 30 29 -5 36 -1 -6 55 48 32 -2 24 -18 39 -16 -3 34 -7 -9 -10 33 -17 53 -25 -11 -28 -31 60 -37 49 -27 44 -22 -42 -13 -39 -4 50 -21 -34 -12 -8 59 -15 -57 -23 -20 -32 -14 -47
right_child=1 3 5 7 9 14 28 13 11 16 12 46 25 19 26 21 23 -19 58 41 43 57 -24 35 -26 42 37 -29 -30 38 54 -33 51 -35 -36 40 -38 47 -40 -41 45 -43 -44 -45 -46 61 -48 -49 -50 -51 -52 -53 -54 -55 -56 56 -58 -59 -60 -61 -62 -63
leaf_value=-2.4186434338226164 -2.2823247275046743 -2.1996157953824804 -2.3882298998490139 -2.1929331125756777 -2.2836143351561513 -2.3743968794067207 -2.4027085416186189 -2.2826637854788121 -2.3134828169634303 -2.2463893178321488 -2.3671614404598547 -2.2803754220668635 -2.3220986227474252 -2.1778086540218302 -2.3154155764176521 -2.0448119880230808 -2.2729756002898212 -2.4096823157006906 -2.3618419193709737 -2.2282309019735327 -2.3813292685035994 -2.2137501147263721 -2.3201660908609032 -2.3150686308744008 -2.3094125743614033 -2.3397064776330407 -2.3619088086002047 -2.2501539202994678 -2.3641534593264617 -2.3657641660078608 -2.2361474808235107 -2.283496270085613 -2.0955720921029513 -2.2877900295251359 -2.3895114889139171 -2.3040778479378732 -2.2977279863501203 -2.3513659039022197 -2.355822474851454 -2.3275413586509157 -2.2985986072663911 -2.2064649949110926 -2.3275383337746582 -2.3570364206665011 -2.371083207005229 -2.2778420155071171 -2.2553789410575487 -2.3300549756668318 -2.3807687093221888 -2.2459622140787099 -2.1759337342830696 -2.0005807213772151 -2.346874206672565 -2.3961690788685477 -2.2614713333772181 -1.9734371883318518 -2.1641266314140757 -2.0947410124049055 -2.3250730615239359 -2.1675394890827353 -2.2967290637888169 -2.224464664304652
leaf_weight=22445.532595284283 670.72493961453438 407.32664635777473 8342.3570154160261 487.7571966201067 363.89728491008282 3683.7348804846406 7919.5870762690902 241.05647373944521 451.61832364648581 384.20090334862471 538.08508479595184 446.28764390200377 568.81488567590714 204.21206962317228 315.52920546382666 8.2311966642737406 1174.7877448648214 18266.358067959547 141.81175967305899 280.80139477550983 4692.1740603819489 71.023468360304832 755.46706908196211 2067.5198173671961 723.56138296425343 4719.6897749453783 2545.3995779901743 280.25264833122492 371.89330452680588 8624.0991183817387 1078.3651553690434 3856.9819721803069 151.14044922590256 16.462393328547478 4492.9791011065245 4439.2803419157863 147.53440116345882 5579.3402760922909 3860.1960584968328 2632.9638320282102 659.04447958618402 905.03967132419348 2452.3478595092893 688.75517992675304 4548.6376690268517 324.54432561993599 2230.9678654149175 529.69710343331099 7010.7061798349023 416.89051295816898 106.92716428637505 26.731791071593761 5315.628413438797 11362.343875363469 323.52522508054972 13.16991466283798 27.594106912612915 16.070431582629681 4133.1582183539867 40.3720598295331 558.54548793286085 75.648616962134838
leaf_count=286323 8556 5196 106418 6222 4642 46991 101025 3075 5761 4901 6864 5693 7256 2605 4025 105 14986 233012 1809 3582 59855 906 9637 26374 9230 60206 32470 3575 4744 110012 13756 49201 1928 210 57314 56629 1882 71172 49242 33587 8407 11545 31283 8786 58024 4140 28459 6757 89431 5318 1364 341 67808 144942 4127 168 352 205 52724 515 7125 965
internal_value=-2.3668 -2.303 -2.39166 -2.25136 -2.32201 -2.37077 -2.40791 -2.21681 -2.27123 -2.30656 -2.33442 -2.27626 -2.33714 -2.22731 -2.36053 -2.1677 -2.29896 -2.41462 -2.32294 -2.21118 -2.38095 -2.12522 -2.30237 -2.30111 -2.28686 -2.33094 -2.35183 -2.22021 -2.39658 -2.36536 -2.24603 -2.28664 -2.0966 -2.2068 -2.39709 -2.30468 -2.26063 -2.35316 -2.36269 -2.32214 -2.30078 -2.21776 -2.33555 -2.37495 -2.37629 -2.28694 -2.25955 -2.34952 -2.38482 -2.23047 -2.21381 -2.0813 -2.34874 -2.39886 -2.23991 -2.16528 -2.10252 -2.19179 -2.32629 -2.23367 -2.30953 -2.26775
internal_weight=160215 44936.1 115279 12088.8 32847.3 50420.6 64858.7 4415.37 7673.44 14635 18212.3 6985.86 16786.1 3637.95 25138 777.417 9996.12 40711.9 4638.87 1954.63 25282.6 289.66 1426.19 9464.39 1898.35 10932.4 8969.97 687.579 24146.8 16168 1683.32 4308.6 202.566 24.6936 23774.9 7566.04 531.735 8654.44 12484.3 3760.32 5498.52 1709.66 7172.04 9929.57 9240.81 1059.24 2677.26 6109.04 15353.1 804.619 387.729 177.872 5853.71 19281.9 1442.26 244.976 40.764 87.0939 4274.97 1118.74 1127.36 400.193
internal_count=2043763 573220 1470543 154209 419011 643183 827360 56324 97885 186689 232322 89114 214129 46407 320669 9917 127514 519335 59175 24934 322514 3695 18193 120731 24216 139457 114424 8771 308025 206245 21473 54962 2584 315 303281 96515 6783 110399 159254 47968 70141 21809 91489 126665 117879 13512 34152 77929 195849 10264 4946 2269 74672 245967 18398 3125 520 1111 54533 14271 14381 5105
is_linear=0
shrinkage=1


Tree=1
num_leaves=63
num_cat=0
split_feature=6 6 6 6 6 6 6 5 9 9 5 6 6 9 5 5 10 3 9 6 6 9 9 3 5 5 3 9 5 3 3 5 9 5 10 3 5 3 3 10 10 3 9 5 9 6 3 5 10 5 3 5 4 6 3 9 5 10 4 9 10 6
split_gain=88763.2 15556.8 12186.6 2709.64 2355.29 1900.38 1304.92 632.228 564.421 559.808 559.058 380.537 329.686 323.848 318.068 306.821 286.184 271.734 204.038 195.312 180.021 156.39 151.597 145.669 150.604 144.777 161.933 131.517 126.742 125.679 120.417 110.841 107.786 105.276 102.503 102.239 97.2434 96.5812 96.3951 93.2378 92.4547 90.3401 86.3387 86.2651 81.4237 80.4291 79.04 89.6906 77.9291 77.5944 76.3051 75.4955 75.1004 74.8029 72.9838 69.6009 69.2031 67.6407 66.5571 65.0321 64.0941 63.3532
threshold=0.0012245596767345727 0.0020801216085618596 0.00085580422363813692 0.0015842064391115641 0.0027940860563301245 0.00068877564394882306 0.0010229871118110038 0.001246524588732678 -0.006386789656647073 -0.010281377056272854 0.0014517807722216488 0.0038266288917823102 0.00052406375306823371 -0.0043894368359089211 0.0022018728978883003 0.0010714271737139339 27.629779923520619 -0.08875683804122779 -0.0031073055848814253 0.001349765738959017 0.00092133278489672972 0.0024646218668148427 -0.0054613733351794305 -0.052482147495126356 0.0018032655681953517 0.0018032655681953517 -0.023600909260971744 -0.007084090231117667 0.0027134555924203867 -0.0034941130971324337 0.035920340892180221 0.00076696637200297172 0.00091547146780934796 0.0010959214100847907 47.402722784193749 -0.027934873111924215 0.0013169410863958892 -0.0054140057159798851 -0.043380753203837323 32.510065763990049 81.424517464446879 0.011230930490754633 0.0041794927999915252 0.0016163855901885941 0.0048071548350835389 0.001349765738959017 -0.08875683804122779 0.0038850020341248451 43.850871374855281 0.00074353269653430558 -0.013280415140218103 0.00072991991832887886 0.36974046292194435 0.0016923544764720557 -0.018586121181296652 0.0019662353068051757 0.0027134555924203867 75.030565145222113 0.59052536235389852 0.0027803597567543918 30.806004583120849 0.0042988244825994332
decision_type=2 2 2 2 2 2 2 2 2 2 2 2 2 2 2 2 2 2 2 2 2 2 2 2 2 2 2 2 2 2 2 2 2 2 2 2 2 2 2 2 2 2 2 2 2 2 2 2 2 2 2 2 2 2 2 2 2 2 2 2 2 2
left_child=2 3 5 7 8 12 20 18 35 38 22 23 -1 50 36 49 37 40 54 -15 59 41 -5 34 -25 -18 32 -17 -19 43 -28 -20 -27 -22 46 -3 -10 -12 61 -26 48 51 -29 -21 -31 -33 -11 -48 56 -8 -9 -7 -16 -32 -2 -14 -13 -35 -38 -4 -45 -6
right_child=1 4 6 10 9 21 15 13 14 11 16 17 55 19 52 27 25 28 31 29 33 -23 -24 24 39 26 30 42 -30 44 53 45 -34 57 -36 -37 58 -39 -40 -41 -42 -43 -44 60 -46 -47 47 -49 -50 -51 -52 -53 -54 -55 -56 -57 -58 -59 -60 -61 -62 -63
leaf_value=-0.051544636876559746 0.060485031030743187 0.14217502023580564 -0.02111905163369732 0.090439276641591029 0.1722861683055647 -0.035230714443008272 -0.012666294753145142 0.072963240534521259 0.042894945583536181 0.105810419727596 0.09853154066872985 0.32833608516334856 -0.04305521552104255 0.022465807995510321 0.071058148037371247 0.094463502856888384 0.049605634958384555 0.097346053290178564 -0.0039586555326888108 0.035842703998778612 -0.013684176775116869 -0.012080028759657788 0.03622499321854105 0.064096288319441794 0.13804665711493752 0.086072640123032229 0.053288564147504471 0.0067463793668800067 0.13428169641175369 0.027568930359565542 0.040985423160462192 0.011131244841082098 0.057244993394112875 -0.0050711603290400165 0.10788913409305929 0.10500995098693107 0.060123893819432984 0.06247532368319323 0.15070016315067306 0.10311307438672319 0.31827233194200449 -0.023332871997379379 0.028092074509908811 0.087423796954659641 0.051473908364979871 0.021046382263846732 0.17437645908598001 0.11308414410773748 0.15547727535650777 -0.0017678175873591169 0.046174970066854323 -0.028696451925225942 0.090763504463172107 0.082820057853699669 0.029650333496208481 -0.028902813579900617 0.19506528942395107 0.029260338857587911 0.0745779942443172 -0.0032369138745252666 0.048389625596853607 0.22376171516019305
leaf_weight=21496.275358781219 272.10793458670378 353.81829364597797 8962.754403591156 132.97077883780003 113.66715504974127 8310.2372614443302 2000.8360531628132 524.84698664397001 372.56642400473356 97.629164539277554 574.15786023437977 10.93691588193178 16708.96516469866 4623.9636123329401 573.48953957110643 43.85688690841198 4244.1514082029462 280.73157359659672 779.84257637709379 2226.7813586071134 10262.427779741585 1253.6199507191777 4258.9094317406416 232.80248489230871 210.10407759994268 952.97353713959455 3681.7657733261585 10530.8437134251 1345.0737918540835 4075.2616795226932 129.7228417173028 4375.565871886909 491.47907838225365 3285.366864182055 353.40411283820868 387.94898796826601 1197.4692681804299 274.52914428710938 176.92580318450928 2101.241681650281 11.4806712269783 3879.8943998068571 496.03759488463402 113.76980695873499 390.33563999831676 3840.4646080359817 218.05822315067053 82.180573180317879 197.68820780515671 8888.5245492309332 538.65211565792561 9444.0164781808853 3082.0421391800046 606.09348255395889 651.08905806392431 916.39593552798033 89.069032318890095 150.02189204096794 2378.1522921770811 539.00288237631321 1390.3209452852607 126.0670605301857
leaf_count=286323 3345 3949 116247 1588 1260 108934 25708 6276 4553 1092 6762 120 220897 57808 6829 541 51487 3246 9975 27427 132428 16261 52489 2771 2380 11318 44641 133494 15029 50621 1573 55157 5979 42169 4034 4465 14310 3323 1956 24198 117 50438 6246 1384 4847 48132 2488 928 2152 113488 6615 123676 36155 7301 8117 12115 950 1901 28400 6952 17118 1280
internal_value=-0.000105279 0.0527294 -0.0263046 0.0365563 0.0979801 -0.0406934 -0.00654715 0.0259941 0.0811057 0.122918 0.0529383 0.118475 -0.0473884 0.0328817 0.0770443 0.0021888 0.0589808 0.136075 0.0163533 0.0306823 -0.0148164 -0.0292496 0.0378664 0.10814 0.102428 0.0566389 0.061731 0.00805029 0.127904 0.0353176 0.056979 0.014056 0.076264 -0.011148 0.127485 0.122737 0.0672044 0.0868683 0.178695 0.106289 0.179042 -0.0302445 0.0077066 0.0420913 0.0296585 0.0157659 0.144892 0.1576 0.173672 -0.00377033 0.0593952 -0.0317549 0.0876721 0.0754447 0.0387387 -0.0423194 0.20964 -0.00357192 0.0697373 -0.0201047 0.0513422 0.199355
internal_weight=160311 53142.3 107169 39149.8 13992.5 62009.4 45159.7 23803 8345.49 5647.06 15346.8 5230.4 39121.6 13883.9 7603.72 21960.1 10954.9 1934.98 9919.07 12820.4 23199.6 22887.8 4391.88 3295.42 2544.15 10106.2 5862.03 11070.7 1625.81 8196.47 4417.58 8995.87 1444.45 13697.8 751.272 741.767 3948.19 848.687 416.66 2311.35 309.175 21634.1 11026.9 3730.87 4465.6 8216.03 397.868 300.239 297.694 10889.4 1063.5 17754.3 3655.53 735.816 923.197 17625.4 100.006 3435.39 3575.62 9501.76 1504.09 239.734
internal_count=2043763 645945 1397818 483283 162662 818644 579174 296822 98661 64001 186461 59505 519335 172096 90247 279477 132384 21614 124726 159205 299697 299309 54077 37891 29349 122299 70812 140281 18275 101397 53515 113264 17297 176498 8542 8414 47263 10085 4496 26578 3339 283048 139740 45929 55468 103289 4508 3416 3222 139196 12891 232610 42984 8874 11462 233012 1070 44070 42710 123199 18502 2540
is_linear=0
shrinkage=0.05


Tree=2
num_leaves=63
num_cat=0
split_feature=5 5 5 5 5 5 5 3 9 1 9 3 9 9 1 1 9 5 3 3 3 3 1 1 3 5 4 5 3 4 5 5 1 5 5 10 1 3 1 3 3 4 9 3 9 3 1 9 9 9 3 3 4 5 3 1 3 10 3 8 4 3
split_gain=70891.2 11483.7 10721.1 2332.76 1494.78 1334.81 1190.37 593.081 476.509 380.492 339.797 323.37 308.388 306.042 267.8 248.094 224.891 221.368 221.29 218.373 212.902 192.129 197.285 186.926 161.886 158.412 152.867 148.448 138.895 133.407 128.504 122.668 121.28 117.657 115.067 101.384 97.544 93.0595 92.248 89.9352 86.7499 85.1846 82.6734 79.5809 77.4901 88.484 76.439 73.5084 72.0515 69.6569 69.0678 67.3008 67.2551 66.3751 64.8931 64.6423 77.6148 64.5418 63.1312 62.6207 61.1433 60.7536
threshold=0.0012225551727312277 0.00074353269653430558 0.0018738744902573098 0.0030898677655774895 0.00097687988697185051 0.00051423414140045625 0.0014760697316842542 -0.017433883087224319 -0.0040342873420430294 -0.0071519034889973012 -0.0054613733351794305 0.011468373328283545 -0.0042006665857419736 -0.010281377056272854 0.0044543429844098323 -0.0064008594168909463 0.0034692777559449666 0.0023462784130756915 -0.027934873111924215 0.039569935710052968 -0.08875683804122779 -0.034503364196495127 0.0052022745503109711 0.0072270356956745116 -0.028803745363006113 0.00086045524846540438 0.43534088149345102 0.00062228414976616439 -0.011731198452817558 0.26260061967024506 0.0010714271737139339 0.0024709423319529407 -0.012027231939350512 0.0003993376114407627 0.0013654227282596063 79.007071111698096 0.0083299289639102731 -0.024223520600044009 -0.010873692296056557 -0.039336214756716219 0.014502253478554829 0.5353767411095236 0.0027803597567543918 -0.039336214756716219 -0.00022363140413855784 -0.08875683804122779 -0.0050527282837318768 -0.007084090231117667 0.0013016035779611637 -0.00072069099566929296 0.027237079526572398 -0.02036721080914616 0.41675887200354522 0.0016838289305178041 -0.062830989855035255 0.012242968056826455 0.058180696000250116 68.843329236829064 -0.021843269008169793 0.0032389249274225045 0.4762533632537656 0.018584163191088802
decision_type=2 2 2 2 2 2 2 2 2 2 2 2 2 2 2 2 2 2 2 2 2 2 2 2 2 2 2 2 2 2 2 2 2 2 2 2 2 2 2 2 2 2 2 2 2 2 2 2 2 2 2 2 2 2 2 2 2 2 2 2 2 2
left_child=1 5 6 7 14 33 12 10 32 28 -4 27 37 39 15 58 18 60 -11 26 57 44 41 24 -14 40 -9 -7 38 -22 -20 47 54 -1 -26 49 48 -2 -6 -5 51 -23 46 -27 -10 -46 -29 -28 -13 -19 -16 -17 -36 -43 -8 -24 -57 -15 -3 -31 -12 -45
right_child=2 4 3 13 9 11 8 19 21 16 17 36 23 20 50 25 -18 35 30 -21 29 22 55 -25 34 43 31 42 -30 59 -32 -33 -34 -35 52 -37 -38 -39 -40 -41 -42 53 -44 61 45 -47 -48 -49 -50 -51 -52 -53 -54 -55 -56 56 -58 -59 -60 -61 -62 -63
leaf_value=-0.051104325850606681 0.070371887005931111 0.048241121352892324 0.10641858090897933 0.1614555920402668 0.11597070438291784 -0.039099441310886579 0.17591858482765316 0.0427341960964914 0.066654517489781212 0.019690902947068257 0.052525058134430695 -0.024359155100652105 0.034108541796739146 0.12917871330510586 -0.00099199396063232828 -0.0089999522743573514 0.019940705951816098 0.096365728770203968 -0.00601952709812998 0.074694281218954522 0.064460696210474192 0.025727465713862474 0.044972128404943655 0.040467286154867145 0.012312320055472016 0.029225368035894379 0.08616547804815021 -0.0088745504795303947 0.016529239215225807 0.097750126441260188 0.0018596898752830033 0.071579740381640902 0.05867874297721655 -0.044260896828219709 0.011891517917173022 0.16538166237975072 0.089422584293614549 0.037393515297017753 0.047993637630425634 0.11899278695389542 -0.011164968550590021 0.031239519238595356 -0.0076518452883749992 -0.014418100512529917 0.19274570678152431 0.040340391949879949 -0.032450338729555502 0.053668542690427347 -0.009945541786474537 0.077256782634024079 0.028598653163988047 -0.023199181572798475 0.025113277371704015 0.041714731985901782 0.087767705320151712 0.063297033316595669 0.16116757452642494 0.1897630903359955 0.0075594071940114499 0.11373789601994122 0.069245573774681976 -0.0037542766258582862
leaf_weight=14335.078107245266 299.85586674511433 118.35908214747906 961.89013382792473 294.80079999566078 59.842668540775776 10572.662788406014 22.833840414881706 1833.3827422484756 667.19370324164629 1292.9622118771076 738.46391480416059 3580.8686717823148 1332.3504998758435 366.16105102747679 2021.7413150593638 902.89298887550831 1449.4472238644958 798.47777400165796 9271.8617283776402 1796.8428914248943 263.56571338325739 3803.9481825456023 2109.0824851840734 938.90009940415621 8576.7153348401189 111.88225930184126 181.58880155533552 353.97544517368078 401.7870971262455 2725.7872194200754 11710.687195360661 1505.5848059877753 1478.8536130487919 11178.435951985419 1284.737266227603 39.971477121114731 20.13265834748745 746.3773684874177 300.63445855677128 216.1048181578517 2128.2699059695005 4041.1323326826096 365.75243538618088 11063.704389534891 9.6637972146272642 656.83457784354687 11975.717613637447 4173.3638232201338 1144.0439842566848 1184.1663202866912 218.51360082626343 11018.085071988404 3826.3814889714122 2416.5240352451801 243.71978811919689 212.15725838392973 22.395645663142204 49.957995340228081 490.85993995517492 789.96629916876554 2106.0484589338303 1519.0058485716581
leaf_count=198812 3444 1479 10068 2708 693 143760 234 21262 7655 16121 8407 47748 16088 3537 26069 11766 18112 8664 119330 19978 2836 45767 24975 11337 106484 1404 2000 4679 4955 28411 148480 16548 17030 153413 15842 418 260 8882 3679 2157 27821 48494 4794 144518 107 7624 161086 48008 15166 12904 2789 146112 46841 28448 2686 2471 255 449 6288 8190 23664 19556
internal_value=-0.000143127 -0.0234143 0.0473596 0.0761685 -0.00716426 -0.0398324 0.0297109 0.06671 0.0396458 0.00197403 0.0792632 -0.0322972 0.0205477 0.106957 -0.0147258 -0.016087 0.000856845 0.0738965 -0.000384924 0.0590001 0.102508 0.0365618 0.0346524 0.0188237 0.0174708 -0.0168057 0.0553349 -0.0347231 0.0367455 0.0987704 -0.00162201 0.0592769 0.0642743 -0.048106 0.0158513 0.0865421 -0.0204012 0.0468453 0.0592785 0.143495 -0.0204636 0.031663 -0.0310786 -0.0127574 0.0546086 0.0425502 -0.0317735 0.0550236 -0.0208692 0.0849526 0.00189427 -0.0221237 0.0217898 0.0351595 0.095319 0.0477413 0.0726419 0.136452 0.0154631 0.101342 0.0649048 -0.0131307
internal_weight=160323 107607 52715.8 20026.1 54080.5 53526.7 32689.7 15319.8 15684.3 24487.2 5829.02 28013.2 17005.3 4706.34 29593.3 27353.1 23725 4867.13 22275.5 9490.76 4195.44 13938.9 12605.2 15959.1 15020.2 26743.8 7693.92 23268.1 762.264 3779.32 20982.5 5860.54 1745.41 25513.5 13687.8 2022.62 4745.05 1046.23 360.477 510.906 14049.2 10261.6 12695.4 12694.6 1333.69 666.498 12329.7 4354.95 4724.91 1982.64 2240.25 11921 5111.12 6457.66 266.554 2343.64 234.553 416.119 609.219 3515.75 2844.51 12582.7
internal_count=2043763 1428890 614873 220209 699172 729718 394664 171921 185746 311370 64125 377493 208918 48288 387802 358944 302043 54057 283931 107796 43423 165796 150410 196592 185255 351177 87818 314319 9327 39437 267810 66556 19950 352225 169167 21986 63174 12326 4372 4865 185699 122709 170559 165478 15386 7731 165765 50008 62914 21568 28858 157878 62683 76942 2920 27701 2726 3986 7767 36601 32071 164074
is_linear=0
shrinkage=0.05


Tree=3
num_leaves=63
num_cat=0
split_feature=6 6 6 6 6 6 6 2 2 5 1 2 2 6 6 2 6 6 2 2 6 5 2 6 2 6 3 9 2 1 6 10 5 5 3 1 1 1 5 2 10 3 2 10 2 9 9 5 5 4 3 9 1 9 3 5 5 1 2 5 5 2
split_gain=70668.4 11132.3 9863.91 1852.12 1553.69 1387.2 1340.68 660.124 626.711 341.81 318.026 289.27 263.122 221.072 212.07 193.868 183.471 166.458 185.063 154.52 143.438 141.674 134.958 125.878 117.96 115.307 110.918 106.487 104.938 101.969 100.616 99.8743 96.2617 96.1838 94.1351 91.7689 89.025 85.743 84.5126 79.8237 77.5166 71.4369 69.1889 68.402 67.4133 66.5301 66.2323 81.8952 65.3231 64.0981 62.113 60.7745 61.0192 60.2132 57.959 57.9086 57.1628 55.4121 54.4816 53.9903 53.8564 53.5079
threshold=0.0012175530503308973 0.0008141679849707988 0.0020480936034908705 0.0014832278585621926 0.00098435712956676026 0.0027940860563301245 0.00060274804293411065 -0.012305077058785306 -0.012760192032979121 0.0014174513215836724 -0.0099764283656452717 -0.015016460048651202 -0.011174363898018512 0.0011289297651417051 0.00070348413782975313 0.0064294539719882424 0.001349765738959017 0.0038266288917823102 -0.010250801983630374 -0.013204724527990484 0.001658321840731158 0.0024051013798180245 0.0092910706423480222 0.00091236585615172476 0.017327240854166707 0.00047044356477099898 0.047821512879520751 -0.006386789656647073 0.0056465273856577411 0.0066666666666667105 0.0042988244825994332 26.095207483936303 0.00091034090554596985 0.0013654227282596063 0.0074521898120648586 -0.010873692296056557 0.017964981380243276 0.0043437548621764197 0.0012555064592294335 0.0048998093792839157 20.791396756506 -0.08875683804122779 0.02166318672247514 72.185023225881011 -0.016640909790311294 -0.006386789656647073 0.0045735981248540289 0.0035444474693190385 0.0010311227216738064 0.4716619641996333 0.026434159681759554 -0.0046067951147905619 0.0101186532921429 0.0035873115381109826 -0.027104922716605969 0.0027134555924203867 0.0011910889798462723 -0.010873692296056557 0.007664460922025885 0.0012720873229685309 0.00076250939800112194 -0.0064598895455219565
decision_type=2 2 2 2 2 2 2 2 2 2 2 2 2 2 2 2 2 2 2 2 2 2 2 2 2 2 2 2 2 2 2 2 2 2 2 2 2 2 2 2 2 2 2 2 2 2 2 2 2 2 2 2 2 2 2 2 2 2 2 2 2 2
left_child=1 6 3 11 15 7 25 45 31 48 30 -2 27 22 39 19 33 18 -12 -3 49 35 32 -21 57 -1 -26 -6 -16 59 40 -5 -14 60 -24 -9 -28 -17 -33 -8 -7 58 51 -30 -29 -4 -23 -48 -10 -11 56 -18 -53 -20 -32 -43 -37 -22 -19 -15 -13 -50
right_child=2 4 5 8 12 10 14 21 9 20 17 16 13 29 28 37 42 41 53 23 24 46 34 -25 26 -27 36 44 43 -31 54 38 -34 -35 -36 50 -38 -39 -40 -41 -42 55 -44 -45 -46 -47 47 -49 61 -51 -52 52 -54 -55 -56 -57 -58 -59 -60 -61 -62 -63
leaf_value=-0.051839482745071788 0.048041315975800754 0.020290953711738748 0.10222711931073947 0.079158376917759579 0.080539410153843694 0.13906469599827384 -0.03987119026514728 0.087808902375413167 0.017451575934599978 0.025466457545876533 0.099525553151062041 -0.0048106452420968301 -0.011519374097717396 0.0015400281641550825 -0.030610902624746396 -0.010909138306443168 0.043749009405049027 0.10972616244219263 0.067704354487414617 -0.023056589685105183 0.071766091769318516 0.062240442345118455 -0.0061701974033503137 -0.01504539877401713 0.055640709781102839 -0.045263674155578373 0.09138177429716203 0.043832107841208501 -0.024085174980959759 0.028890821111328929 0.14518385301978026 0.024585995929624301 -0.0030560409114964676 0.020889025111010248 0.019287909249082497 0.020474993064218822 0.22828195440835197 0.0079984228981866759 0.060228062512127235 -0.02714004852908207 0.099063095335231832 0.075584730898720351 0.063339095467691106 -0.0029771372033900569 0.013034130790117882 0.082754125479879384 0.072923733533446597 0.12085535042945666 0.042115200409478533 0.038854023605764211 0.06148547725966709 0.022078197314322895 0.055751025611814234 0.084319705769247896 0.10616409130900389 0.10009006083106071 0.049567997809712931 0.043583012609439004 0.15772434347444561 0.010624521159356205 0.012067678748787086 0.028001478512560182
leaf_weight=15370.291648171842 868.29625091701746 243.16360025107861 577.35452220588923 685.9720096513629 70.993538297712803 144.89251068234444 9500.0879539325833 178.36091350764036 1222.7296258509159 1234.1238818839192 1009.4130357280374 508.82912809401751 5078.6436546370387 5576.0395168960094 12454.6110227108 2226.3812818899751 357.52251267433167 235.03614941239357 1462.6177001520991 12078.9633590132 178.90079782903194 1899.8353934809566 585.58299390226603 8254.0536312907934 668.48990397900343 11772.538972526789 136.22377968579531 209.72346593439579 1291.0830104574561 441.73121082782745 339.23167623579502 180.80582181364298 9926.9819470643997 3598.5072959214449 955.76687929779291 177.15732198953629 13.009376958012579 820.6162171959877 2075.4065472409129 1414.552164696157 737.84869879484177 292.11913235485554 110.96304804086685 546.17036744207144 1162.9514489024878 1825.4262978509068 556.49946553260088 106.10729853063822 809.99479779601097 3245.0436216294765 1147.7211006581783 7680.1618151664734 136.93752408772707 869.37981642782688 132.27715531736612 1379.8169491365552 3596.4933770671487 6945.6172227039933 78.989752933382988 2314.3314927443862 6642.945035353303 3928.8478742688894
leaf_count=222740 10025 3180 5456 7221 812 1309 133417 1807 14991 14210 9935 6679 66900 71251 170694 29652 3986 2041 14716 162665 1885 19467 7504 108792 7410 167742 1465 2597 17606 5368 2755 2170 126158 42866 12103 2089 134 10577 22878 19734 6818 2976 1308 7319 14650 19239 5683 1065 9550 36940 12429 92116 1594 8650 1214 12921 39041 77304 666 28366 82322 46605
internal_value=-0.000170356 -0.0251652 0.0439317 0.0307876 -0.00827871 0.0762919 -0.0412765 0.0645669 0.0410259 0.0375967 0.0939539 0.0198184 7.55196e-05 -0.00112868 -0.0329732 -0.0175876 0.018531 0.0884541 0.0816403 -0.0193307 0.0423201 0.0573963 -0.00447323 -0.0198045 0.0463551 -0.0489874 0.0643414 0.0208278 -0.0289654 0.00551336 0.115589 0.0624514 -0.00592045 0.0142216 0.00961598 0.0525769 0.103316 -0.00581696 0.0573718 -0.0382212 0.105629 0.0999183 0.0241224 -0.0178103 0.0177396 0.0874332 0.0669878 0.0805993 0.0277553 0.0351654 0.0513 0.0235901 0.0226681 0.0738986 0.134237 0.0958085 0.0482022 0.0442907 0.1218 0.00420461 0.0108668 0.0304139
internal_weight=160271 102295 57975.9 41229.3 49945.9 16746.6 52349.3 10065 21325.2 18383 6681.62 19904.2 26322.7 24879.1 25206.5 23623.2 19035.9 5327.37 3341.41 20576.2 12421.4 7662.17 16547 20333 7942.24 27142.8 817.723 1443.67 14291.9 8332.1 1354.25 2942.18 15005.6 10750.3 1541.35 5099.73 149.233 3047 2256.21 10914.6 882.741 1985.96 8285.58 1837.25 1372.67 2402.78 2562.44 662.607 5961.57 4479.17 4921.37 8174.62 7817.1 2332 471.509 1671.94 3773.65 7124.52 314.026 7890.37 7151.77 4738.84
internal_count=2043763 1389827 653936 483659 650575 170277 739252 106276 242763 210494 64001 240896 335709 317650 348770 314866 230871 51905 33301 274637 139348 81581 212665 271457 88198 390482 9009 18059 195619 104985 12096 32269 193058 131867 19607 55366 1599 40229 25048 153151 8127 18604 99004 24925 17247 24695 26215 6748 71146 51150 53559 97696 93710 23366 3969 15897 41130 79189 2707 99617 89001 56155
is_linear=0
shrinkage=0.05


Tree=4
num_leaves=63
num_cat=0
split_feature=2 2 3 3 7 7 2 2 1 1 3 3 3 7 2 2 7 9 7 7 7 9 9 1 3 9 3 0 1 3 3 3 1 0 1 2 1 7 7 10 10 10 9 0 7 7 7 9 7 1 3 9 1 10 1 9 2 7 9 3 0 1
split_gain=19888.8 12791.5 6566.64 4420.5 2984.86 3278.76 2086.76 1691.59 1512.91 1610.39 958.174 925.572 790.537 708.294 655.628 611.774 526.149 516.738 434.62 450.696 385.029 381.162 334.531 325.414 302.988 298.259 287.169 266.543 252.458 245.693 233.453 229.427 224.644 219.795 214.271 208.455 196.49 195.711 184.612 182.578 169.351 166.642 160.954 159.203 158.488 153.837 150.905 148.622 140.071 133.582 131.467 124.646 123.184 117.903 115.119 111.41 110.172 109.642 103.334 103.127 95.894 93.6993
threshold=-0.01055713938335867 0.0090601419613535201 -0.019920038978171791 0.015133144701556024 0.00060527082499273199 -0.00052687038988413748 -0.018783233291699005 0.018500551038638239 0.0037040848215986748 -0.0035983060092326098 -0.033132694803269906 -0.033132694803269906 0.035920340892180221 -0.00089825065729870468 -0.0056078012168893623 0.0038839808837638494 0.0010919604427644949 0.0045735981248540289 0.0008325432737920081 -0.00084885404915291385 0.0010919604427644949 0.0034692777559449666 0.0013559378185503681 -0.0092723155828229858 -0.056905021991387909 -0.0046067951147905619 0.039569935710052968 -0.00078826609673698911 0.0093816677320947024 0.058180696000250116 -0.062830989855035255 -0.052482147495126356 0.0062136726699431053 0.00039879033642142852 -0.0053433545743482571 -0.013744475821612699 -0.0064008594168909463 0.00029234779660203275 -0.0015683506838155001 58.981268948911328 31.120013069440805 69.762734156437645 -0.0028001203869401077 -0.0026185031812885336 -0.00021034333918340528 -8.2541623237508671e-06 -0.0011382650577284046 -0.0037491891298623843 -0.0011913661023949527 -0.0064008594168909463 -0.062830989855035255 -0.010281377056272854 0.0044543429844098323 33.350143353227267 0.0014056382643043987 -0.0015648498590958846 0.011351570497869614 0.00077451715628673601 -0.0013840084983666732 0.028929601573031042 0.0010828103857917217 -0.013962223234448677
decision_type=2 2 2 2 2 2 2 2 2 2 2 2 2 2 2 2 2 2 2 2 2 2 2 2 2 2 2 2 2 2 2 2 2 2 2 2 2 2 2 2 2 2 2 2 2 2 2 2 2 2 2 2 2 2 2 2 2 2 2 2 2 2
left_child=6 2 11 4 5 13 30 17 9 34 61 23 18 38 53 22 49 26 19 -5 21 36 27 -2 54 -12 31 -16 41 -26 -1 -3 42 37 -7 -27 -13 44 -4 -24 -36 -10 -21 -33 -29 60 -45 -14 -38 -6 -25 -32 58 -11 -9 -46 -48 -52 -15 -37 -35 -8
right_child=1 7 3 12 16 8 10 24 28 14 25 20 47 52 15 -17 -18 -19 -20 32 -22 -23 39 50 29 35 -28 33 -30 -31 51 43 -34 45 40 59 48 -39 -40 -41 -42 -43 -44 46 55 -47 56 -49 -50 -51 57 -53 -54 -55 -56 -57 -58 -59 -60 -61 -62 -63
leaf_value=0.10048529228435621 0.08737124188193901 0.07197279392375229 0.045185069076616798 0.029204970100248664 0.02625489126168494 0.0089139962891008149 0.11711596398539548 0.16034024081846932 0.0084648844139926915 -0.029201857580813985 0.054982232586624484 0.036078474243030477 0.059126866080843166 0.0067065155075309597 -0.023003438075110447 -0.020551735612216918 0.02940535789666314 0.049138897806501595 0.030665002556429045 0.017130947305688933 0.054006937486613796 0.047112725779358988 -0.0057117584674685846 0.05554187726344284 0.05122746243962574 0.039921970076339942 0.045122350453291132 -0.029515254514487377 0.052849964889423687 0.082242731623912324 0.10092637949191063 0.051797199629828775 0.029210318604989328 -0.033691048673955899 -0.01943270594697601 0.019938522727872169 0.040090321388389805 -0.028684874264379476 0.015265033575916468 -0.028170814208967235 0.0016444675842060648 -0.010259991904158329 -0.0063366851547348793 0.041102861183169831 -0.027855519860872448 -0.010483730483255883 0.0082031180427126291 0.024560633194730827 0.0018915049848503521 -0.00098525715030014626 0.027830185594818348 0.071651553424321376 0.010256766469729534 -0.010840698415733697 0.088447196081113497 -0.042399135202231431 0.019260868445165009 0.049060093970090562 -0.011276260379636098 0.054171095126819814 -0.010858638419242525 0.069087896997241535
leaf_weight=1116.8126059770584 314.72225834429264 192.84994865208864 617.52788620442152 1154.6005771532655 483.44256619364023 2148.3599929660559 107.16598871350288 86.140694670379162 2026.5056815445423 1084.0634924322367 1322.5167299062014 488.8899898827076 343.27181635051966 927.95392274111509 3709.6355766952038 9287.9167757481337 2104.948045656085 1841.6996276676655 1202.4092780873179 781.38569831848145 494.84208582341671 593.14495576173067 1327.7239542976022 665.01057916134596 3683.9717000722885 2649.186341509223 1076.1139276996255 3036.7498813793063 214.94417288899422 772.41001197695732 404.66151810437441 316.62151941657066 505.55207522958517 6604.5464555248618 2306.3948650211096 3837.0958451628685 248.99767846614122 4148.0666163191199 3122.161022439599 2841.6215515360236 1624.1210209950805 2872.2683541625738 11250.52203246206 553.82868130505085 1393.2143028602004 930.89601413905621 4140.3368509933352 3304.8077694699168 6632.60960046947 6517.1512813866138 3424.0241473540664 3583.7178020849824 974.49031057953835 4518.6273018568754 157.4717578291893 24006.051563106477 4940.4730760827661 739.51577218621969 5742.2630022391677 233.38624456524849 494.27835762500763 1938.3539623096585
leaf_count=9350 2909 1902 6664 13438 5616 26376 924 743 24994 15226 13928 5440 3529 11491 50742 127146 24224 20025 13991 9211 5375 6440 17285 6426 38370 29556 11787 42495 2337 7336 3452 3320 5935 93749 31571 45886 2743 58071 37584 39608 20555 37749 146388 6123 19351 12448 51299 38031 82909 83554 38285 35092 11895 59617 1366 351235 58630 7811 75488 2562 6511 19669
internal_value=-0.000195101 -0.00589895 -0.0114487 -0.0153794 -0.0197353 -0.0226188 0.0542316 0.0338481 -0.0264341 -0.0283664 0.0410492 0.0213826 0.0069526 0.00237431 -0.0307241 -0.0323076 0.00748648 0.0245922 0.00184325 -0.000687824 0.0112119 0.00855276 -0.0345592 0.0381091 0.0595714 0.0332776 0.0205631 -0.0358329 -0.000186855 0.0566032 0.0802797 0.0179578 -0.00344071 -0.0370047 -0.0037833 0.0290058 0.00544962 -0.0388307 0.0202057 -0.0210188 -0.0107234 -0.00251396 -0.00481263 0.016911 -0.0403107 -0.0295951 0.0157645 0.0278132 0.00327366 0.000895876 0.0348982 0.0746218 -0.00634855 -0.0143934 0.113868 -0.0416014 0.0142192 0.031601 -0.00877451 0.0219013 -0.0321013 0.0716041
internal_weight=160165 144972 127210 113608 95065.9 85960.4 15192.9 17761.9 74576 69462.3 10087.7 13601.8 18542.5 11384.4 63383.4 57780.7 9105.54 13061.9 14894.5 13692.1 8458.48 7963.64 48492.8 5143.27 4699.99 8042.19 11220.2 44323.4 5113.72 4456.38 5105.19 10144.1 12537.5 40613.8 6078.88 6719.67 7370.5 32584.1 3739.69 4169.35 3930.52 4898.77 12031.9 9951.26 28436 8029.72 9634.64 3648.08 6881.61 7000.59 4828.55 3988.38 7644.71 5602.69 243.612 25399.3 9080.81 4163.54 6670.22 4070.48 7098.82 2045.52
internal_count=2043763 1883344 1682443 1524105 1293582 1180188 160419 200901 1037066 971986 112525 158338 230523 143122 893484 818641 113394 153086 188963 174972 102907 97532 691495 55431 47815 91932 133061 634602 65080 45706 47894 121274 161534 583860 78502 78004 91092 471152 44248 56893 52126 62743 155599 119372 413081 112708 116052 41560 85652 89170 52522 38544 98874 74843 2109 370586 109929 46096 86979 48448 100260 20593
is_linear=0
shrinkage=0.05


Tree=5
num_leaves=63
num_cat=0
split_feature=6 6 6 6 6 6 6 2 2 5 6 2 2 2 5 6 9 5 5 2 2 1 2 6 9 2 6 6 3 3 2 5 9 1 5 2 3 2 3 7 4 1 9 3 3 5 5 7 3 2 9 3 3 6 5 4 3 1 2 2 3 2
split_gain=58055.7 8879.69 7934.12 1845.45 1125.84 1096.22 837.175 410.991 352.569 262.562 213.601 186.43 180.408 176.157 168.136 161.064 150.25 137.678 134.896 129.701 129.676 125.633 104.414 104.236 103.981 99.266 96.8047 92.1001 85.2867 77.6578 109.6 71.9044 66.5107 64.4596 63.4081 61.9437 74.7951 61.8015 62.7595 60.0996 59.359 58.6202 57.3091 58.3524 76.5564 63.1054 55.8339 54.8597 54.1079 52.4352 51.874 51.6278 51.2555 50.9184 49.9672 48.3003 47.459 46.3991 46.1656 45.4815 45.007 52.4416
threshold=0.0011289297651417051 0.0019042441880905193 0.00076134081776967641 0.001349765738959017 0.0026878262930912621 0.00094332067844964628 0.00059091152664818433 -0.0092348284960421228 -0.012760192032979121 0.0014062727598722019 0.0038266288917823102 -0.0075033223969261922 0.0058960752685569559 -0.017652527763710509 0.00096083297833787903 0.0016276196942113638 -0.0011425513466229995 0.001246524588732678 0.0018259127967844625 0.0048000315116971679 -0.011529842178089387 -0.012027231939350512 -0.0097280899240942392 0.00086030876827680172 0.0024058734173125766 0.0097937471224754952 0.00047044356477099898 0.00068363259144219762 -0.0058704659451596633 -0.062830989855035255 -0.036662636513690609 0.001584816705894274 0.0020999712812111997 0.017964981380243276 0.00074353269653430558 0.011351570497869614 0.019943542432194986 0.0031043447897474157 0.02805951082583558 0.00096226443047631182 0.31117187393797702 -0.0058188574999831757 0.0082618527847583296 -0.056905021991387909 -0.062830989855035255 0.0018496296766600943 0.00077602619671384636 -0.0021524351964462558 0.0080026074654632202 -0.0057211585352749386 0.0040065088220345721 0.020441645478726737 -0.0029462635698983548 0.0010179587773210532 0.0043833678283127621 0.42155093067694566 0.051999661154025663 0.0062136726699431053 0.02416584496962371 -0.013204724527990484 -0.011731198452817558 -0.0022956802949181117
decision_type=2 2 2 2 2 2 2 2 2 2 2 2 2 2 2 2 2 2 2 2 2 2 2 2 2 2 2 2 2 2 2 2 2 2 2 2 2 2 2 2 2 2 2 2 2 2 2 2 2 2 2 2 2 2 2 2 2 2 2 2 2 2
left_child=2 3 6 13 8 12 26 16 29 46 11 42 20 -2 35 40 28 34 -10 27 -4 -12 41 48 -14 53 -1 -8 -5 30 -3 -18 -21 55 -15 59 -37 38 -23 56 -11 -16 43 44 -6 -45 -9 -20 -22 -36 58 -35 -33 -24 -47 -17 -31 -51 -19 -7 61 -42
right_child=1 4 5 7 10 14 19 9 18 15 21 -13 24 17 22 33 31 50 47 32 23 37 25 -25 -26 -27 -28 -29 -30 39 -32 52 -34 51 49 36 -38 -39 -40 -41 60 -43 -44 45 -46 54 -48 -49 -50 57 -52 -53 -54 -55 -56 -57 -58 -59 -60 -61 -62 -63
leaf_value=-0.051203236020361358 0.048455347528329702 0.017311709949574285 0.0057222685755698652 0.053454273880256281 0.081994193151453787 0.020487577500694611 -0.03986631738591867 0.0025312433211888141 0.039545835802241025 0.014887119962304227 0.1050336288484795 0.060584611644433177 -0.014389405202411701 -0.0056936375015697307 0.030295927410127932 0.028549505801719388 0.021942449016280677 0.0133675163482945 0.070916979633838639 -0.028258875971466035 -0.027545733857209272 0.075417496197573486 -0.0083343006815313619 -0.018409774713004801 0.0057071989964516618 0.011892617333298624 -0.044766233509984626 -0.03221266844285911 0.036244728557319535 0.05778147177337209 0.10381545943979663 0.046836937847524671 -0.0088453203677649889 0.028203570044451884 0.014267472626910466 -0.0040941469249246637 0.045388835913124627 0.088921212444234385 0.029822823324465182 0.075438774192056329 0.045308520429620663 0.0059006050750768698 0.128351399775012 0.040519531693437444 0.12432295160427807 0.079942304234282488 0.021586683922506782 0.050181335408213457 -0.019466802113894149 0.0045564283343884392 0.028218867586700076 0.13975243925309153 0.0217976899651884 -0.0011888723201092845 0.053529297373982931 0.039735288058102725 0.10593234600206661 0.019033083303901924 0.11926790424774965 -0.01082341376579944 0.025734974980712234 0.026973021943646616
leaf_weight=14193.318426281214 299.1292976513505 43.012104697525501 421.12559664994478 2528.9414469078183 530.49762513488531 117.43229021131992 8036.1810072660446 401.70218868553638 3856.8559704720974 941.05451789498329 628.08060400187969 3130.1300173997879 2596.7166363745928 1013.9615127369761 353.09992727637291 1219.0565515756607 998.19672168791294 7853.4547235816717 334.70681013166904 2111.5062257796526 8442.2284304797649 1225.7937647551298 4002.4930874705315 9349.9870919510722 855.76201850175858 1100.5121146887541 9925.0578340664506 7693.8147650212049 1006.4150000661612 1918.61051966995 246.27147050201893 812.18309462070465 557.71665395796299 16.586529776453972 2198.440742880106 259.15115987509489 108.27146599441767 1045.5977719053626 80.424809329211712 783.14811315387487 741.95251166820526 813.75279702991247 58.317749857902527 137.95875476300716 133.75126793980598 1188.6899985820055 8932.5904172807932 6786.9815772473812 2746.807388395071 7759.924944140017 648.52726610004902 27.688055045902729 273.10435443371534 6611.7770872414112 210.81121405959129 4631.9571314975619 52.576393246650696 596.00527633726597 10.304639577865599 9373.95747359097 4200.0777869448066 822.02436798810959
leaf_count=222128 3207 356 5478 25478 4314 1453 119868 5101 40989 10701 4597 28766 35478 13491 4138 13153 11298 92944 3184 30361 119823 10084 52225 128133 11020 13470 150955 111126 10834 18147 2170 8477 7667 169 27129 3335 1351 8702 689 7104 8088 10081 506 1344 1121 10385 104532 67074 38329 97641 7344 258 2927 83928 1753 48864 507 7169 117 125660 47031 9055
internal_value=-9.08663e-05 0.0339191 -0.0267637 0.0217756 0.0599137 -0.0126408 -0.0424263 0.0302131 0.0512517 0.0271224 0.0744249 0.068486 -0.0199987 0.0103681 -0.00474179 0.0318308 0.0422785 0.00980076 0.0470772 -0.0343935 -0.0217432 0.0851674 -0.000980578 -0.0223063 -0.00940808 -0.00240129 -0.0485543 -0.0361228 0.0485552 0.0663095 0.0909537 0.0316278 -0.0242025 0.0378595 0.00624934 -0.00965623 0.0104874 0.0798619 0.0726102 0.0637212 0.0265302 0.0132828 0.0794294 0.0781335 0.0905174 0.0727832 0.0207666 0.0511559 -0.0255624 0.0073967 0.0146272 0.097963 0.040536 -0.00388331 0.0759636 0.0374047 0.0590658 0.00558901 0.0135063 -0.010436 0.0284311 0.0356714
internal_weight=159996 70325.5 89670.7 47933.3 22392.2 47153.1 42517.6 27553.5 14022.2 21934.7 8370.05 5390.16 24412.6 20379.7 22740.4 12600.4 5618.84 20080.6 10978.5 18399.2 20960.1 2979.9 12881.6 20539 3452.48 11714.8 24118.4 15730 3535.36 3043.62 289.284 2083.48 2669.22 5895.29 11568.3 9858.81 367.423 2351.82 1306.22 2754.34 6705.11 1166.85 2260.03 2201.71 664.249 1537.46 9334.29 7121.69 11189 10554.4 8512.29 44.2746 1085.29 10614.3 1399.5 5851.01 1971.19 8355.93 7863.76 9491.39 5764.05 1563.98
internal_count=2042807 766800 1276007 555008 211792 633902 642105 305966 139531 246952 72261 48189 338261 249042 295641 137319 59014 245835 111247 269022 291763 24072 163842 286285 46498 149623 373083 230994 36312 28284 2526 22702 38028 62444 145430 131799 4686 19475 10773 25758 74875 14219 19423 18917 5435 13482 109633 70258 158152 131939 100405 427 11404 136153 12138 62017 18654 104810 93061 127113 64174 17143
is_linear=0
shrinkage=0.05


Tree=6
num_leaves=63
num_cat=0
split_feature=6 6 6 6 6 6 6 2 2 6 5 6 2 2 2 5 2 10 2 5 2 6 9 6 2 5 5 1 5 9 5 1 2 5 4 6 1 2 6 6 1 4 10 6 9 5 2 1 6 2 6 8 1 9 1 2 10 5 1 10 10 1
split_gain=52164.6 7540.64 7476.92 1517.61 1020.24 985.201 845.425 326.861 296.55 215.667 199.372 167.203 152.362 145.142 135.686 127.263 127.253 117.854 109.022 104.168 103.248 99.5589 97.8188 91.5566 89.6848 85.6932 75.2759 70.9395 67.1404 66.1142 64.4226 64.0793 58.2873 57.4768 57.0651 55.61 54.407 52.2204 57.5534 51.7587 50.6861 50.519 49.1883 48.8578 46.4009 45.2561 53.9054 44.3256 42.7087 41.9097 49.9891 45.5286 41.7997 41.556 41.1474 38.5869 37.6098 47.6945 40.8613 35.9212 34.5412 33.2562
threshold=0.0011229813092051286 0.00076134081776967641 0.0018556360363977847 0.001349765738959017 0.0026878262930912621 0.00091236585615172476 0.00059091152664818433 -0.012305077058785306 -0.012305077058785306 0.0016276196942113638 0.00096083297833787903 0.0038266288917823102 -0.011912828315560229 -0.0075033223969261922 0.0080137851646737718 0.0014883929782378894 0.0048000315116971679 25.656353628693598 -0.010859817851971985 0.001246524588732678 0.0044109961511519255 0.00047044356477099898 -0.010281377056272854 0.00068363259144219762 -0.011912828315560229 0.0013654227282596063 0.0011835889383573328 -0.0053433545743482571 0.0012555064592294335 0.0020999712812111997 0.0024709423319529407 0.0028281094586639637 0.011009744596334638 0.00074353269653430558 0.44014683159937462 0.0023427041892715825 0.0044543429844098323 0.007664460922025885 0.0012461760486080181 0.00085580422363813692 0.017964981380243276 0.48974468380634434 80.58196162687328 0.0010229871118110038 -0.0058555076000886821 0.00072534292875474327 -0.014335609398065162 -0.0056534336298486578 0.0012175530503308973 -0.036662636513690609 0.0020157524373731121 -0.0009854401227926688 0.0069494863723823528 0.0082618527847583296 0.0075440067057838131 0.0016111785099844902 73.342868856842173 0.001719915568648453 -0.0064008594168909463 60.606008079349792 52.382614117811123 0.0058323306914969128
decision_type=2 2 2 2 2 2 2 2 2 2 2 2 2 2 2 2 2 2 2 2 2 2 2 2 2 2 2 2 2 2 2 2 2 2 2 2 2 2 2 2 2 2 2 2 2 2 2 2 2 2 2 2 2 2 2 2 2 2 2 2 2 2
left_child=1 6 3 12 8 14 21 17 29 26 32 13 27 53 24 -10 23 -5 47 33 43 -1 -13 -8 -3 -11 -9 -2 -19 49 44 -18 45 -14 60 -31 -22 38 -21 55 -27 -28 -24 -20 -17 46 -7 -12 52 50 -4 -51 -35 59 -16 -26 57 58 -15 -6 -32 -60
right_child=2 5 4 7 11 10 16 9 15 25 18 22 19 56 54 30 31 28 20 37 36 -23 42 -25 39 40 41 -29 -30 35 34 -33 -34 48 -36 -37 -38 -39 -40 -41 -42 -43 -44 -45 -46 -47 -48 -49 -50 51 -52 -53 -54 -55 -56 -57 -58 -59 61 -61 -62 -63
leaf_value=-0.05090694440853058 0.037012241054216313 0.0069067897251425649 -0.033492942136064303 0.058213171345934345 0.072081152444755367 0.076174877503199068 -0.03922579710541696 0.016044099094570149 0.03026401898730631 0.023007180670924689 0.029402489702349745 0.099972396076038361 -0.0059110613767747629 0.076708972423252697 -0.0079576862037933609 0.059367825702768863 -0.028977112843589198 0.016129641406271419 -0.0094622376101644208 0.0059499161193100301 0.0002662202011809532 -0.044244000811450405 0.071529660284122887 -0.031476468988925574 -0.026482984112663106 0.034698343505229982 0.01872961834156615 0.015278333658294611 0.039765683444832993 0.023850163548478652 0.025357059329131373 -0.01233097990646684 0.0065201114079779555 0.0025196547437134759 0.0546851382916064 0.061527111879022725 0.013863011679504459 0.020263777986446737 0.015505833844527819 -0.018892577898226324 0.09498151881532288 0.026122677401139917 0.10516178081665598 -0.0022974558531000766 0.041122814655381069 -0.0094409420496719704 -0.016850343104073337 0.0063961720497162939 0.0097296951358444937 0.069050085170406603 0.047192173422845346 0.056744528093085805 0.026009242939880078 0.11091878307651742 0.027625328051112921 -0.020314320891508919 0.068539747077621602 0.054608578121422058 0.0086127705748440409 0.050958764677407987 0.048592964798655033 0.073035373898211783
leaf_weight=13577.705863524228 665.99549219757318 266.63691489398479 22.652750514447689 834.30301503837109 2106.3311987072229 15.648470789194105 7765.9327913224697 4064.0010383427143 1904.5170048251748 1965.653288193047 333.20610651373863 379.12984621524811 1036.7802868559957 36.570952452719212 1318.9430917054415 365.4976192638278 1752.014385253191 346.61528740078211 4670.058402441442 3253.1234445571899 2617.5819595381618 9549.6439602300525 2668.628675378859 7485.4276804178953 7460.740064188838 5887.8438425511122 3250.9743393734097 860.61758638173342 2255.9137372300029 237.76753366738558 300.76390504091978 862.87151888012886 472.88243587315083 5277.0708455517888 2163.3483517840505 166.52822507917881 1023.3832145258784 1785.5953607708216 3055.7443221360445 6905.8631844893098 35.076471745967865 7989.3746621608734 113.33305663615465 4850.9920281171799 7484.5198605582118 8345.5131220445037 3227.0080055594444 563.30416990071535 5076.6882701739669 1327.6737966164947 125.82831260561943 1732.533582650125 196.44261187314987 63.947590172290802 86.578200936317444 3839.8920930474997 440.82940528541803 2637.535878136754 135.91776437312365 222.54909487813711 341.59193584322929 23.49544445425272
leaf_count=222128 7149 3463 195 7827 16996 195 119868 48168 20470 22173 3819 2500 13888 334 17791 3302 25849 3857 61780 38882 33554 150955 20723 111126 107940 60798 36431 9946 22463 2241 2874 12179 6034 66923 19715 1491 12456 20514 35431 96631 314 87696 849 61606 73948 112658 44694 6895 62335 11575 1019 15687 2311 506 1056 54993 3832 23038 1338 1921 3253 224
internal_value=-0.00011308 -0.026251 0.0311034 0.0195224 0.0532624 -0.012354 -0.0418446 0.0274699 0.0458 0.0253375 -0.00597025 0.0669334 0.00954313 0.0617942 -0.0207418 0.0421688 -0.0336751 0.0418601 -0.0019241 0.00836282 -0.00307325 -0.0481557 0.0761468 -0.0354224 -0.0218813 0.0320532 0.0218759 0.0247599 0.0366177 0.0584237 0.0442966 -0.0234841 -0.0106865 0.00532251 0.0507995 0.0393692 0.00408793 0.0127149 0.0105784 -0.0223029 0.0350554 0.0239844 0.0728998 -0.00581177 0.0419723 -0.0113887 -0.0164014 0.0149469 0.00642645 0.0608246 0.0348826 0.0620833 0.00336269 0.0711546 -0.00576582 -0.0243869 0.0549539 0.0528403 0.0290429 0.0700627 0.0377134 0.0181078
internal_weight=159831 86991.8 72839.3 47837.8 25001.5 45998.2 40993.6 26629.8 16173.2 23192.9 26119.6 8828.27 21208.1 5667.18 19878.7 12560.2 17866.2 3436.83 14058.5 19681.4 13162 23127.3 3161.09 15251.4 18473.1 7888.57 15304.4 1526.61 2602.53 3612.98 10655.7 2614.89 12061.1 11587 2805.7 404.296 3640.97 8094.46 6308.87 18206.5 5922.92 11240.3 2781.96 9521.05 7850.02 11588.2 3242.66 896.51 10550.2 3208.69 148.481 3060.21 5473.51 2392.83 1405.52 11300.6 3274.35 2833.52 195.984 2328.88 642.356 159.413
internal_count=2042807 1267670 775137 547106 228031 625565 642105 289727 155770 255580 343691 72261 257379 48189 281874 123562 269022 34147 180110 240284 169396 373083 24072 230994 263027 83285 172295 17095 26320 32208 103092 38028 163581 145457 25842 3732 46010 94827 74313 259564 61112 124127 21572 123386 77250 157547 44889 10714 131569 28476 1214 27262 69234 19423 18847 162933 28766 24934 1896 18917 6127 1562
is_linear=0
shrinkage=0.05


Tree=7
num_leaves=63
num_cat=0
split_feature=6 6 6 6 6 6 6 2 2 5 6 5 2 2 2 2 3 10 5 6 2 2 3 6 2 9 9 4 5 5 9 3 9 2 2 3 2 9 5 5 9 5 1 4 3 5 5 6 9 6 6 3 3 5 2 3 10 9 1 3 9 5
split_gain=46971.8 7312.7 6269.49 1364.56 920.121 853.255 740.229 300.085 213.332 198.326 193.166 182.836 160.73 130.118 124.691 121.84 115.06 108.59 103.785 102.396 97.5388 93.5537 92.159 90.9147 87.1555 81.8777 79.2365 78.5532 73.2098 72.7066 72.3271 68.9478 67.6403 65.2363 64.2204 63.2958 96.6033 62.0357 60.249 58.6697 50.2183 51.2628 48.7316 48.6032 48.0194 47.7907 47.2565 46.4447 45.8166 44.7696 44.0437 43.8293 43.5264 51.9202 43.3946 63.8523 64.4477 52.0784 42.3673 53.4661 41.4496 40.7873
threshold=0.0011229813092051286 0.00076134081776967641 0.001642710918576037 0.0025213783541282245 0.00091236585615172476 0.00059091152664818433 0.0013246013340188283 -0.013204724527990484 -0.0090041476081589838 0.001719915568648453 0.0034724963441780435 0.00096083297833787903 -0.010250801983630374 0.0057691178122012418 0.0048000315116971679 -0.017652527763710509 -0.011975040411076608 32.801807178838281 0.0012555064592294335 0.00047044356477099898 -0.010859817851971985 0.0044109961511519255 -0.062830989855035255 0.00068363259144219762 -0.011912828315560229 0.00052490989160047807 0.00020573868285800326 0.58149439159742033 0.0014062727598722019 0.0043833678283127621 0.0045735981248540289 0.0083843870999931198 0.0024646218668148427 -0.036662636513690609 -0.015016460048651202 0.015133144701556024 0.011009744596334638 0.0019662353068051757 0.0010199304933277335 0.00072991991832887886 -0.0054613733351794305 0.001584816705894274 0.0049261083743842313 0.31117187393797702 0.030884969320418735 0.0024709423319529407 0.00072991991832887886 0.0014832278585621926 0.0040065088220345721 0.0010229871118110038 0.002117483702761666 0.026434159681759554 -0.034503364196495127 0.0019017689051795295 0.0031740712836294542 0.02805951082583558 50.885754597592737 0.0082618527847583296 -0.0068800030854489483 -0.013562333634705768 0.010378443600746913 0.0043833678283127621
decision_type=2 2 2 2 2 2 2 2 2 2 2 2 2 2 2 2 2 2 2 2 2 2 2 2 2 2 2 2 2 2 2 2 2 2 2 2 2 2 2 2 2 2 2 2 2 2 2 2 2 2 2 2 2 2 2 2 2 2 2 2 2 2
left_child=1 5 6 7 13 19 15 22 16 38 12 35 29 24 23 -2 26 34 46 -1 -13 49 33 -7 -3 50 -8 51 -10 -5 40 -26 -15 -4 -12 39 -37 -16 44 -6 52 -42 -23 -30 -9 58 -17 -45 -20 -22 -24 -11 53 -14 55 56 57 -19 59 -29 -40 -32
right_child=2 4 3 10 11 14 8 9 28 27 17 20 30 32 37 18 -18 54 48 -21 21 42 25 -25 31 -27 -28 45 43 -31 61 -33 -34 -35 -36 36 -38 -39 60 -41 41 -43 -44 47 -46 -47 -48 -49 -50 -51 -52 -53 -54 -55 -56 -57 -58 -59 -60 -61 -62 -63
leaf_value=-0.0506155519444242 0.041254739513243682 0.0065229113203413864 0.003664494151405628 0.066663078001301695 -0.018074629689617833 -0.038581776359800306 0.044393340554792111 0.0079668032912234479 0.01621405821711001 0.030720355469121337 0.097391654812325423 0.01402169014619245 0.1613805317137304 -0.014441708945213814 -0.027187461380252728 -0.0062667527735736986 0.022514442381905562 0.067831873922990601 0.011195953546514268 -0.043718872019172614 -0.0090623784526187561 0.00062214851761637402 0.046577374363585916 -0.03074156376269865 -0.024041028139872522 0.03249770880396801 0.02055871902195118 0.068219059415418531 0.013145470717493649 0.036963817350872341 0.055693312048836242 -0.016467993690237596 0.0037694049865866401 0.08355727751440746 0.064754598829941001 -0.0058346427067348175 0.031434789980362782 -0.0090621672335814887 0.02990829341479307 -0.0095108980994618678 0.01785781803525743 0.043509975816763954 0.014139133891644671 0.020182744692314611 0.053290434095107621 0.049560770768273504 0.0057145371753309455 0.028466804355758497 0.025767394473900553 -0.002186846862963302 0.058784760779298485 0.043256161029705309 0.050453210993466446 0.071351521277002547 0.069956433335658041 0.026488900296986362 0.0515279718494192 0.13942929761579054 0.038470669998005413 0.039373872479247139 0.10663125190335375 0.088948068414652581
leaf_weight=12987.998885177076 275.78452361375093 268.17168503254652 28.162316642701626 2175.0076542198658 2818.1939894407988 7507.3885393068194 1810.0065552294254 503.86282977461815 8573.3145743086934 3128.4752662852407 421.30163192749023 907.4345144033432 19.499410465359688 2183.2879172861576 1939.0253849551082 892.28072589635849 1686.7058828026056 1058.7958050966263 7008.6589361950755 9190.272760655731 4633.2707392051816 2775.579443462193 2027.2072683721781 7286.2716166004539 12453.240564383566 733.25938476622105 431.90351095050573 285.72692328691483 1100.5903514102101 227.64197420328856 1014.024191595614 3961.6496683582664 665.24676752090454 275.60195817053318 234.69123104214668 2056.3392499908805 189.92987608164549 623.99271486699581 7435.0972486659884 6888.6889804378152 210.37683273106813 2623.1921848133206 877.63228341937065 3266.3357107043266 66.106978751718998 1695.565981797874 10597.864885523915 3510.2857633158565 584.44287267327309 4841.776229120791 1162.6588454842567 897.2447414547205 293.46664449572563 89.605117104947567 1571.5648569688201 140.95340059697628 914.16209085285664 26.022410243749619 5092.7072504684329 366.97275330871344 17.645698681473732 101.42868926376104
leaf_count=222128 2796 3463 229 17155 39628 119868 17686 5708 98708 30308 2754 10714 151 30728 29234 12010 17921 7660 81502 150955 61780 35508 18217 111126 182220 6774 4560 2513 12186 1712 8558 56862 8601 2208 1709 27729 2337 8794 76771 93887 2067 22867 10502 35565 729 15035 131342 36839 6390 61606 9646 8470 2427 685 11926 1128 6922 184 48705 3437 156 821
internal_value=-0.000131283 -0.025528 0.0288341 0.0443174 -0.0118651 -0.0412596 0.0152601 0.037541 0.0219113 0.0349217 0.0587677 -0.00570245 0.0534689 -0.0200651 -0.0329563 0.00825846 0.0323796 0.0669622 0.00778161 -0.0477577 -0.00183227 -0.0029281 0.049618 -0.0347203 -0.0217514 0.0475636 0.0398016 0.0391406 0.0194113 0.0638492 0.0477376 -0.0222133 -0.0101887 0.0761503 0.0857153 -0.0102469 -0.00268338 -0.0227747 0.0288917 -0.0119972 0.0439531 0.0416054 0.00386941 0.0228911 0.0132236 0.0421846 0.00478412 0.0244739 0.0123175 -0.00554896 0.0510268 0.0335143 0.0604778 0.0874417 0.0636476 0.0590144 0.0613079 0.0695493 0.0400078 0.0520012 0.0300899 0.0587172
internal_weight=159632 85055.4 74576.2 34838 45520.4 39534.9 39738.2 23716.3 20379.1 19489.4 11121.7 25988.8 6754.24 19531.6 17356.7 19359 3928.62 4367.49 19083.2 22178.3 14035.7 13128.3 4226.89 14793.7 16683.1 3923.13 2241.91 11466.7 16450.5 2402.65 4351.59 16414.9 2848.53 303.764 655.993 11953.2 2246.27 2563.02 8022.71 9706.88 3236.14 2833.57 3653.21 7877.21 569.97 7440.97 11490.1 6776.62 7593.1 9475.05 3189.87 4025.72 402.571 109.105 3711.5 2139.93 1998.98 1084.82 5745.41 652.7 7452.74 1115.45
internal_count=2042807 1267670 775137 317632 625565 642105 457505 228906 223465 191832 88726 343691 56443 281874 269022 234040 40167 32283 231244 373083 180110 169396 37074 230994 242545 34637 22246 108468 183298 18867 37576 239082 39329 2437 4463 163581 30066 38028 83364 133515 28197 24934 46010 84590 6437 69690 143352 72404 87892 123386 27863 38778 3263 836 27820 15894 14766 7844 54655 5950 76927 9379
is_linear=0
shrinkage=0.05


Tree=8
num_leaves=63
num_cat=0
split_feature=6 6 6 6 6 6 6 5 1 6 5 3 5 1 6 9 1 3 6 5 5 3 9 3 6 3 5 5 1 1 9 6 1 3 5 3 9 9 1 3 6 3 5 1 3 3 5 4 3 9 8 7 6 3 6 4 1 9 5 3 1 1
split_gain=42408 6601.96 5783.41 1161.78 935.054 735.863 642.003 246.397 167.82 157.667 142.615 128.347 119.24 116.746 89.1483 90.3752 85.3445 84.7767 84.3277 78.6041 75.0848 78.9368 73.5659 72.8063 72.2163 67.9168 66.865 66.5038 63.7155 62.8581 60.708 59.1524 58.4292 58.1996 57.2644 53.5485 50.4297 50.3572 48.1984 47.9125 46.9551 45.206 42.9227 41.7027 49.3838 44.5718 44.2605 40.0654 39.8625 41.1429 67.9045 38.8283 36.5066 35.9069 35.1881 34.6237 34.54 34.4566 34.2827 42.8672 41.663 33.2929
threshold=0.0011008920023172278 0.00073238556959806967 0.0016276196942113638 0.0025213783541282245 0.00090803343759295258 0.0012915529601951429 0.00055508531663997236 0.001719915568648453 -0.0078180987846312982 0.0034724963441780435 0.0010655312306298 0.0083843870999931198 0.0011413546796731481 -0.0092723155828229858 0.0019306435230751248 -0.003381097108968278 -0.012027231939350512 -0.0079070052528440442 0.00068877564394882306 0.00093540893038181053 0.0018496296766600943 -0.056905021991387909 0.002055300195593968 -0.011975040411076608 0.00098909000509838805 -0.022401148229084952 0.00074353269653430558 0.0013654227282596063 -0.0051908022091228792 0.0053462456153371427 -0.007084090231117667 0.0004495386381303445 0.0062136726699431053 -0.012487323262069359 0.0015017667996015574 -0.039336214756716219 -0.010281377056272854 0.0019255106672996238 -0.0066353385142693391 0.011994218804708747 0.0014832278585621926 0.013064642423973096 0.00076696637200297172 0.0020080464166871708 0.026434159681759554 -0.00096247046815167703 0.0024051013798180245 0.83686220712999826 0.026434159681759554 0.00095940133380934 0.0021452833637947148 0.00064316371329964383 0.0010179587773210532 -0.052482147495126356 0.00086030876827680172 0.79395763070425052 0.0093816677320947024 0.0071211525808667639 0.0027134555924203867 0.027237079526572398 0.017964981380243276 0.0032563305518515944
decision_type=2 2 2 2 2 2 2 2 2 2 2 2 2 2 2 2 2 2 2 2 2 2 2 2 2 2 2 2 2 2 2 2 2 2 2 2 2 2 2 2 2 2 2 2 2 2 2 2 2 2 2 2 2 2 2 2 2 2 2 2 2 2
left_child=1 6 5 7 11 19 31 13 33 20 24 26 35 -4 25 23 55 34 37 -2 21 -5 -13 -16 -6 -9 -3 47 -12 52 -21 -1 -32 -7 -14 61 -27 -8 -28 -20 -19 51 -37 45 -45 -38 -47 -15 49 -17 -51 -26 -30 -22 -40 -11 -43 -55 59 60 -18 -10
right_child=2 4 3 9 10 8 18 14 12 16 28 22 17 27 15 48 58 40 39 30 53 -23 -24 -25 41 36 38 -29 29 -31 32 -33 -34 -35 -36 42 43 -39 54 -41 -42 56 -44 44 -46 46 -48 -49 -50 50 -52 -53 -54 57 -56 -57 -58 -59 -60 -61 -62 -63
leaf_value=-0.050714671816159608 -5.887354468627398e-05 -0.026995178654522785 0.051603744271490885 0.078084771356738414 -0.012575661527244082 0.045283165652799183 -0.037946324609537514 0.042100422052495354 0.046717119723818944 0.062861775554431162 0.012712065867728321 -0.016746174393410789 0.020264411354696796 0.016491959478732637 0.05782886065036788 0.04092854981446227 0.050575150560539718 0.014720492386268984 -0.031374238267878031 0.050830598678123708 0.058525362739864799 0.029936100507185322 -0.0015300435751579391 0.039678123982953277 -0.0092232859557386006 0.10027174232572492 0.0058282753873834733 0.030209424149195453 -0.0074985346267544221 0.012315652999955774 0.0066328660861406964 -0.044928346543623293 0.018693210021895484 0.024989961079605123 0.029823037028992191 -0.0032101256299156252 0.033606365102467763 -0.024508562154985508 -0.022934906416060479 -0.01761626220441331 0.021794127463325028 0.00044551852931996118 0.01219529725498987 0.030051301121702012 0.048119256286347868 0.023384264864770375 -0.002553153777238493 0.027264569192115208 0.045425022247015417 0.027497826882979515 0.04487450664692675 0.0043950300726014304 -0.0002957370224379988 0.047396840733997934 -0.016473042974436154 0.082538406502459666 0.074754022605255474 0.06043817377158503 0.059765757511994304 0.021516048435241322 0.11803636990686331 -0.0021683216231462694
leaf_weight=11089.038273926824 4115.3551916927099 6203.3879619799554 504.75808874517679 95.517564259469509 7734.2681141868234 771.05361012369394 10987.767957810313 1672.6834124922752 165.64184241741896 381.67629876732826 761.4874617010355 4979.1077072843909 3215.0002761259675 1876.3610426411033 1295.6411246210337 2764.6371361166239 568.93520404398441 6000.4028714522719 3971.3362857401371 81.291875891387463 1210.4785883650184 782.27841591089964 945.12427206337452 963.22014204412699 5318.5233086124063 25.538871392607689 172.63595853745937 5747.6638919860125 3455.8892208039761 659.10241428017616 13888.759826093912 7340.5516150221229 1082.5467279180884 652.13282332569361 3056.5025651678443 502.50340672582388 1032.6138642951846 744.41825262084603 6460.8982627093792 752.77072967961431 3852.186212234199 1831.530225224793 4511.9227042943239 1210.8151906579733 549.96252628415823 1277.9605141207576 188.77121134847403 1598.3346795290709 1662.462433129549 2021.7047473788261 778.79434087872505 580.54171252250671 3583.1154787987471 4353.7224793732166 3126.1811368614435 539.70360821485519 15.772822491824625 573.16665106266737 2921.0716997906566 129.31622949242592 23.845920614898205 44.101238541305065
leaf_count=198438 53402 94925 4436 752 107653 6986 181711 14944 1834 2469 9212 72669 34882 20063 10308 24676 4456 66485 62204 777 8967 7085 12827 8339 72148 210 2328 56366 45769 7839 167179 126696 12115 6614 31098 6357 9800 11574 96452 11278 40753 24200 52584 11683 5049 12337 1785 16963 14632 18294 6878 7661 45198 35121 44787 3342 185 4518 20802 1043 171 498
internal_value=-0.000146357 -0.0256108 0.0259725 0.0404526 -0.0131342 0.0132835 -0.0420005 0.0344231 0.01936 0.0535596 -0.00630519 -0.0206037 0.0182517 0.0281896 0.0383489 0.0413594 0.0607925 0.0203787 -0.0348225 0.00606473 0.0488534 0.0351754 -0.0143187 0.0500891 -0.00915797 0.0335557 -0.0229362 0.0269081 -0.00108473 -0.0024495 0.00773891 -0.04841 0.00750493 0.0359844 0.0249229 0.0116868 0.0302207 -0.0370937 -0.0203563 -0.029182 0.0174862 -0.00574562 0.0106515 0.0298008 0.0356947 0.0256486 0.0200461 0.0214473 0.0386312 0.0366016 0.0323301 -0.00788307 -0.00383204 0.0508097 -0.0208278 0.0743875 0.00107999 0.048914 0.0573542 0.0475989 0.0532889 0.0364383
internal_weight=159404 80713.4 78691 36751.6 45827.6 41939.4 34885.9 25171.9 22771.4 11579.7 23940.2 21887.3 21348.3 9727.12 15444.8 9486.46 4564.55 16124.1 16456.3 19168 7015.16 877.796 5924.23 2258.86 15480.6 5958.35 15963.1 9222.36 8459.59 7698.11 15052.6 18429.6 14971.3 1423.19 6271.5 5224.17 4285.66 11732.2 9759.72 4724.11 9852.59 7746.37 5014.43 4260.12 1760.78 2499.35 1466.73 3474.7 7227.6 5565.14 2800.5 5899.07 7039 6137.37 9587.08 921.38 1847.3 4926.89 3643.17 722.097 592.781 209.743
internal_count=2042807 1235754 807053 325489 643853 481564 591901 236763 248091 88726 319865 323988 234491 97828 138935 83127 32283 173218 266767 233473 56443 7837 85496 18647 211847 55808 238492 93392 108018 98806 180071 325134 179294 13600 65980 61273 40864 193285 143567 73482 107238 104194 58941 40654 16732 23922 14122 37026 64480 49848 25172 79809 90967 48606 141239 5811 24385 39639 26472 5670 4627 2332
is_linear=0
shrinkage=0.05


Tree=9
num_leaves=63
num_cat=0
split_feature=6 6 6 6 6 6 6 2 2 2 5 2 9 2 9 5 9 5 9 6 1 6 2 5 1 6 6 2 3 3 3 1 7 5 6 2 3 6 5 3 3 2 3 1 7 9 9 3 1 3 2 1 3 3 2 3 1 9 2 5 3 3
split_gain=38445.4 5886.89 5402.03 1037.63 838.514 824.735 379.32 259.256 158.03 152.462 143.647 134.427 132.166 131.066 117.142 110.01 108.375 93.3637 93.2838 90.1312 89.1809 88.5231 83.3025 79.921 76.382 76.1069 65.9999 84.2078 62.9559 62.6549 55.0689 51.0987 47.4413 46.8976 45.9955 45.0182 52.7997 43.8672 42.9702 42.7702 41.726 41.2937 40.8662 40.514 40.0979 39.8344 39.6 39.0281 39.0081 56.8568 38.5 46.4208 48.0974 43.5903 38.1295 46.8413 51.1937 45.826 42.8093 36.6329 40.2114 57.8975
threshold=0.001052902299566035 0.0015988085845823959 0.00068877564394882306 0.0025213783541282245 0.00087771414975275559 0.0012915529601951429 0.00051127174559798102 -0.0092348284960421228 -0.0071785526988099582 0.0056465273856577411 0.0014174513215836724 -0.015016460048651202 -0.0082416310423507038 -0.011174363898018512 -0.00099975979972638496 0.00093540893038181053 0.0027803597567543918 0.0018496296766600943 0.0024058734173125766 0.00080582140797005072 -0.0086934977064450619 0.00096554362962408575 0.0048998093792839157 0.0010959214100847907 0.0066666666666667105 0.0019042441880905193 0.0038266288917823102 -0.0075033223969261922 -0.056905021991387909 0.026434159681759554 -0.0096839776586212772 -0.0049277559855401267 0.0012342882790459255 0.00055184008982966189 0.0020480936034908705 -0.0097280899240942392 0.0041894265330481026 0.0011709706536936746 0.0015017667996015574 -0.062830989855035255 -0.08875683804122779 -0.036662636513690609 -0.048893630158926386 -0.0061944448819533085 0.0012342882790459255 0.0082618527847583296 0.0024058734173125766 0.084375849733136069 0.0006081523193178785 -0.023600909260971744 0.027995043904750608 0.0046765914335097367 -0.0026718444053464015 0.010980334293731244 0.019874188711907274 0.019943542432194986 0.0069494863723823528 0.0045735981248540289 0.02416584496962371 0.0022018728978883003 -0.010113219904977598 -0.035964595388011826
decision_type=2 2 2 2 2 2 2 2 2 2 2 2 2 2 2 2 2 2 2 2 2 2 2 2 2 2 2 2 2 2 2 2 2 2 2 2 2 2 2 2 2 2 2 2 2 2 2 2 2 2 2 2 2 2 2 2 2 2 2 2 2 2
left_child=2 5 6 7 9 11 -1 14 20 19 -9 43 -5 31 34 -13 21 28 -11 33 -7 -15 -8 -10 32 48 27 45 -14 50 38 -6 37 -4 41 -21 -37 -17 -22 -36 -28 42 -3 -2 -16 -19 -24 -42 49 -12 59 52 -52 -54 57 56 58 -25 -56 -27 61 -61
right_child=1 3 4 12 13 8 22 10 23 18 25 15 17 16 44 24 -18 26 -20 35 30 -23 46 54 -26 29 40 -29 -30 -31 -32 -33 -34 -35 39 36 -38 -39 -40 -41 47 -43 -44 -45 -46 -47 -48 -49 -50 -51 51 -53 53 -55 55 -57 -58 -59 -60 60 -62 -63
leaf_value=-0.049200350948922722 0.039852077469894255 -0.046989654732621594 -0.034687542341946244 0.063749762287224621 0.025581029982590653 0.041587593326846528 -0.039111305527661788 0.020209004818134303 0.0086358593328189712 -0.017039460731454653 0.035757155445700892 -0.002290905408789077 0.067959280460285029 -0.013868020067035412 0.029565126586112579 0.0018338295266402478 0.0025829839900177788 0.051872140852257748 0.0036228153771493844 -0.0017775340061770711 0.021105492035115445 -0.0071505612938193176 -0.030105598642067528 0.015748700185166116 0.018545785368466777 0.028966924558285589 0.067977943467504964 0.041495256836330062 0.028359080133678268 0.040875298084939199 0.01622328967026037 3.1138163400479527e-05 0.020034796490270186 -0.025758905554547042 0.073004184050479412 -0.024041843120865353 -0.015232937562910678 0.0069496975349492719 0.034031523654967588 0.047917640387707933 0.050234317753402716 0.041041741130055806 0.057314647880704096 0.014689660503036953 0.055337320645466349 0.086961002596350645 -0.0069238153922709421 0.072544536560254544 0.030271621902256685 0.019633341105475273 0.0038828631354890699 -0.0096200640667246911 0.14164472054222915 0.028023382172158093 0.055647080910248947 0.017447807578603938 0.023711455661443913 0.027705988111516838 0.13105547373086368 0.02942099175806287 0.030371287571513295 0.052102446981692169
leaf_weight=14551.512029930949 310.55174240469933 26.204962112009525 1736.1222755797207 1354.2171280011535 343.53388524800539 718.2752929776907 12852.937753658742 4149.1060365363955 3584.6079778671265 2416.8858714736998 686.64875827729702 5845.0680638030171 112.90147521346807 10240.445393338799 2473.2638285905123 8579.6661362349987 1679.2087508812547 2510.1450072303414 705.75902094691992 320.28532729670405 1320.0571895092726 9412.1027354598045 1401.2805705107749 11454.666338317096 1070.6149457395077 3915.3778481557965 507.72638729214668 4107.0267516747117 903.86247484385967 2294.981787532568 1926.7848064079881 454.71766441315413 495.22593297809362 9619.2098647095263 189.56206937134266 4803.5709889009595 2633.7968367859721 8190.4304832369089 1253.4671778231859 1638.2216481417418 2208.7517742291093 2716.9393616020679 14.635495014488695 329.91566999256611 160.73266955465078 83.576471075415611 212.1068977676332 215.1152306869626 3880.3202530667186 2683.4913397803903 40.625328131020069 121.44522749632597 16.823716878890991 16.94191687554121 65.337285570800304 237.35937636345625 86.21071396023035 861.55211739242077 26.435812711715698 458.17059653252363 1200.2343913167715 729.07050945609808
leaf_count=270090 3106 213 28067 8600 4059 6408 222009 43589 42093 35879 6295 77078 852 146039 22372 106757 21611 18423 9404 4482 13826 126988 23101 124068 11837 35976 3130 32416 7947 19885 20683 5782 5668 150790 1366 73248 39261 97110 11975 12869 15310 23534 115 3642 1377 575 3219 1473 36876 26019 354 1045 149 149 677 2399 866 8847 270 3834 10471 6254
internal_value=-0.000158525 0.0225719 -0.0267263 0.0367774 -0.015755 0.0104931 -0.0435005 0.0314092 0.0176532 -0.0226125 0.0285017 0.00428112 0.0490371 -0.00886475 0.0395413 0.00368228 -0.00960911 0.0471661 -0.0123695 -0.024286 0.0252268 -0.0106509 -0.037767 0.0152308 0.0055864 0.0306463 0.0486872 0.0459496 0.0327563 0.0337732 0.0226155 0.0110267 0.00478279 -0.027124 0.0443684 -0.0201319 -0.0209223 0.00433239 0.0274013 0.0505194 0.0549444 0.0402916 -0.0096114 0.0268905 0.0311378 0.0530028 -0.027058 0.0522143 0.0268538 0.0229185 0.0312651 0.00943233 0.0405359 0.0846352 0.0170876 0.0319879 0.0513787 0.0165851 0.0773689 0.0319435 0.036825 0.0433494
internal_weight=159156 85772.3 73383.5 39416.1 44365.6 46356.2 29017.8 27412.8 21534.8 22235.6 20193.2 24821.5 12003.3 22130 7219.56 24181 21331.8 10649.1 3122.64 19113 5218.58 19652.5 14466.3 16316.2 18335.9 16044.1 9632.34 6700.75 1016.76 8793.67 4500.31 798.252 17265.3 11355.3 4585.56 7757.65 7437.37 16770.1 2573.52 1827.78 2931.59 2757.78 40.8405 640.467 2634 2593.72 1613.39 2423.87 7250.46 3370.14 6498.69 195.836 74.391 33.7656 12731.6 415.343 177.984 12316.2 91.7731 6302.85 2387.48 1187.24
internal_count=2042807 878778 1164029 341468 645610 537310 518419 252742 232112 341131 190896 305198 88726 304479 61846 298450 294638 80126 45283 295848 52892 273027 248329 179220 221372 147307 71327 51414 8799 78117 46484 9841 209535 178857 38097 116991 112509 203867 25801 14235 19913 23862 328 6748 23749 18998 26320 16783 69190 32314 58232 1697 652 298 137127 4212 1813 132915 947 56535 20559 10088
is_linear=0
shrinkage=0.05


Tree=10
num_leaves=63
num_cat=0
split_feature=6 6 6 6 6 6 6 2 2 5 2 9 9 6 2 2 9 5 6 2 5 6 2 2 4 2 2 2 5 2 6 9 6 5 9 5 10 10 6 5 0 5 9 2 6 5 9 5 0 9 9 6 2 10 4 4 2 2 2 6 10 6
split_gain=35127.4 5120.77 5053.41 943.573 790.586 677.951 392.659 277.589 181.405 165.25 139.635 128.632 124.639 122.167 117.177 104.464 98.4535 97.7672 87.57 85.7617 77.6414 72.7415 72.5823 67.9201 63.3043 62.1986 61.4694 57.4074 56.9318 56.0989 51.8839 49.8321 48.9933 46.7339 44.1326 43.8312 43.6319 43.0496 40.126 39.5012 39.3223 38.5746 37.5848 45.1682 37.4624 37.4405 37.3248 36.3922 35.5413 35.3929 34.4319 33.8714 33.6907 45.2111 33.221 32.8454 32.5969 32.4234 32.1559 31.9891 31.0998 33.3698
threshold=0.001052902299566035 0.00068877564394882306 0.0015700458457736472 0.0025974587271523999 0.00086030876827680172 0.0012245596767345727 0.00051127174559798102 -0.0092348284960421228 -0.012760192032979121 0.0013459105574365881 -0.011174363898018512 0.0034692777559449666 0.0027803597567543918 0.00095646390989680391 -0.013744475821612699 0.011716668507459673 0.00074695790763390512 0.001053740759754772 0.0038266288917823102 0.0068540494074721412 0.00055184008982966189 0.002117483702761666 0.0049980444675338251 -0.0099809033541703434 0.86244292199309214 0.013034776589922139 -0.0043226692504517708 0.0032441603272133084 0.0024709423319529407 0.017327240854166707 0.0020480936034908705 -0.006386789656647073 0.0013679927406846978 0.0038850020341248451 -0.010281377056272854 0.00091034090554596985 35.014353623078094 47.927903694681198 0.00080582140797005072 0.00076696637200297172 -0.0032170071484384217 0.00071185169801213854 0.0038591991480259051 0.027995043904750608 0.0029131580586077817 0.0032896935191650649 -0.0028001203869401077 0.0012640654485732295 0.0028089887640448956 0.0024058734173125766 -0.0014141341563062013 0.00060274804293411065 -0.028739513762087662 28.355623419324058 0.82440880925268945 0.41225194592090547 0.035472387798245582 0.01257696196581526 -0.017652527763710509 0.00043472912416053577 48.09622667040864 0.0017679200508054684
decision_type=2 2 2 2 2 2 2 2 2 2 2 2 2 2 2 2 2 2 2 2 2 2 2 2 2 2 2 2 2 2 2 2 2 2 2 2 2 2 2 2 2 2 2 2 2 2 2 2 2 2 2 2 2 2 2 2 2 2 2 2 2 2
left_child=1 6 5 7 11 15 59 16 36 54 46 20 13 41 34 23 30 39 42 51 -3 25 38 31 -25 26 -11 -20 56 32 52 -2 -19 -32 -5 -15 -7 -27 -22 -10 -18 -12 44 -44 -16 -45 -6 -26 -42 -21 -33 -8 -4 -54 -9 -29 -23 -14 -38 -1 -55 -62
right_child=2 4 3 14 10 8 19 9 17 21 12 -13 57 35 18 -17 40 29 27 49 22 28 -24 24 47 37 -28 55 -30 -31 33 50 -34 -35 -36 -37 58 -39 -40 -41 48 -43 43 45 -46 -47 -48 -49 -50 -51 -52 -53 53 60 -56 -57 -58 -59 -60 -61 61 -63
leaf_value=-0.050527526852104848 0.047718863597759238 -0.031913179850161469 0.016198788753419253 0.064402740084599217 0.02225935816624975 0.033443676034735727 -0.040457075288220817 0.012021392775786833 -0.0032574838162973555 0.03115350967964152 -0.020592016252029069 0.0069027833714086877 -0.00040780635627042303 -0.011326091023251477 0.030138185494411732 0.016668629078129518 0.10209411103717854 0.011537249335911437 0.038458863841358659 -0.025006137568750832 -0.02576725908094283 0.029921385769647552 -0.014835125139833594 -0.0025164726462170708 0.0017960250401431459 0.017301946404233434 0.022122711659152382 0.035883022444308819 0.040073199532456187 0.027936030148839403 0.04617113886925877 0.014492335095768395 0.016733787433288998 0.0036885769476092903 0.050359040315226172 -0.004694781599804897 0.037374042714316241 0.035662719011929189 -0.020203094201030985 0.0089715435606852519 0.022280572566266671 -0.013376231118908106 0.049597109947121257 0.015403963334682941 0.04034165570490255 0.047348518067705667 0.0012034439883526786 0.010484690624265301 0.043857294769850196 0.0042482634072735712 -0.00057787537719483607 -0.035422335076163845 0.045980956484425191 0.031038624767553754 0.021485217783435734 0.058951720407757785 -0.0063441909119764141 0.018436462784195459 0.014919962813739916 -0.045433083906277531 0.03086057515873511 0.056820076958608128
leaf_weight=9339.3406363762915 86.25165506452322 2418.2935886792839 203.95005203038454 672.66355383396149 372.19087679684162 1398.4337683618069 6420.4214202240109 1968.6446304917336 783.24828945845366 2461.6627952456474 2343.2317053228617 353.44756598770618 1552.4371288865805 4160.7760891020298 1616.2134090960026 1158.5552882552147 16.792800217866898 8384.6904810592532 663.97383133322001 492.68691480532289 9036.2760291993618 3919.91037658602 2708.7307079285383 9250.1969758272171 4959.6594187021255 374.39509278535843 8033.7099766731262 175.31476815789938 1795.0133610740304 792.59459871798754 2545.4307151809335 986.84951933473349 9880.8428915888071 66.426092103123665 3322.8872877657413 6212.5104154348373 201.62138920277357 2167.3669323548675 5051.4822367094457 4208.0171736702323 1415.1074491366744 8837.4937991127372 1234.3917936459184 204.94782257080078 2028.8074805140495 166.03427821397781 484.38216998428106 1591.9918025135994 220.60798612236977 130.84668419882655 615.36262860149145 6963.8633756861091 1027.888697527349 2162.1510410904884 1753.0425145253539 1287.3169403076172 62.957355126738548 267.61439120769501 762.20825048536062 4598.6749247200787 229.01746018975973 269.4379924684763
leaf_count=182709 792 39648 1581 3865 4363 12903 116467 20793 10104 22937 35275 4702 20300 58672 13004 13501 134 94156 4486 8238 145028 33917 40546 116931 63589 3459 75638 1172 14321 8086 19425 11260 103679 474 22455 82579 1912 19440 78020 49428 12649 127591 9294 1536 15202 1185 6147 18752 1849 1985 7358 121882 8366 18923 18241 8408 533 3161 7719 87554 2164 2398
internal_value=-0.000272996 -0.026182 0.0210619 0.0335248 -0.0155119 0.00942719 -0.0429051 0.0289665 0.0145807 0.0261059 -0.00947509 -0.022987 -0.0102017 -0.0112627 0.0458271 0.00212854 0.0368703 0.013282 0.0420919 -0.0369931 -0.0235368 0.0280101 -0.0223309 0.00116541 0.000146903 0.0259404 0.0242409 0.0506516 0.0326801 0.0149134 0.0396391 0.0106973 0.0143483 0.0450907 0.0527233 -0.00735463 0.0278023 0.0329582 -0.0237721 0.00705252 0.0259721 -0.0148885 0.0386249 0.0449993 0.0358174 0.0297009 0.0103525 0.00390729 0.0251906 -0.0188672 0.00870431 -0.0378375 0.0359811 0.0370749 0.0164792 0.0561866 0.0293481 0.00236299 0.0196171 -0.0488467 0.0336342 0.0448929
internal_weight=158871 71744.7 87126.6 42066.1 43798.9 45060.5 27945.8 30693.5 26411.7 22536.7 24230.6 19568.2 23374.1 21554 11372.6 18648.9 8156.81 24049.4 7377 14007.8 19214.8 18815 16796.5 17490.3 15801.8 13037.1 10495.4 2126.61 5777.88 19058.1 6504.3 1688.46 18265.5 2611.86 3995.55 10373.3 2362.26 2541.76 14087.8 4991.27 1652.51 11180.7 5250.39 1605.37 3645.02 370.982 856.573 6551.65 1635.72 623.534 1602.21 13384.3 3892.45 3688.5 3721.69 1462.63 3982.87 1820.05 963.83 13938 2660.61 498.455
internal_count=2042886 1164867 878019 357849 646032 520170 518835 277242 287987 209279 338088 307944 327578 304117 80607 232183 67963 265453 54287 248572 303242 170245 263594 218682 199272 121474 98575 14066 48771 205921 53331 19410 197835 19899 26320 141251 22534 22899 223048 59532 14632 162866 40221 12015 28206 2721 10510 82341 14498 10223 18618 238349 33432 31851 39034 9580 34450 23461 9631 270263 23485 4562
is_linear=0
shrinkage=0.05


Tree=11
num_leaves=63
num_cat=0
split_feature=6 6 6 6 6 6 6 2 2 6 2 3 5 2 5 5 2 2 2 3 2 10 3 3 5 2 3 1 3 1 5 2 5 2 4 6 2 2 3 5 2 3 3 5 1 1 3 3 3 5 5 6 1 2 3 1 2 1 6 3 6 6
split_gain=31943.6 4727.59 4617.79 806.318 677.003 664.839 399.611 227.003 177.571 163.942 156.855 135.109 117.246 100.555 96.0574 85.7657 85.7332 82.7296 77.2459 100.682 75.0028 72.0866 66.2948 65.6697 63.5385 62.7468 60.3374 73.1913 59.2576 55.402 54.1509 51.5323 53.4628 51.5112 50.2819 48.6545 48.6074 48.4356 47.9894 47.4269 46.8953 45.2809 43.602 42.6856 44.9507 42.083 42.1574 40.9951 49.8444 40.7953 40.1055 37.354 37.1786 60.0469 52.0759 36.8968 36.8066 36.5927 34.1088 36.7445 34.0926 33.0381
threshold=0.0010378186492942016 0.00068877564394882306 0.0015700458457736472 0.002117483702761666 0.0012245596767345727 0.00086030876827680172 0.00051127174559798102 -0.013744475821612699 -0.0042416747877550001 0.0029131580586077817 -0.012760192032979121 0.010285913839744311 0.00096083297833787903 0.0097937471224754952 0.0013459105574365881 0.001053740759754772 0.0048998093792839157 -0.0099809033541703434 0.013034776589922139 0.047821512879520751 -0.011174363898018512 28.355623419324058 0.010044068351468429 -0.030785835807146385 0.00055184008982966189 0.0064294539719882424 -0.052482147495126356 0.0050613304005705526 0.019943542432194986 0.0043437548621764197 0.00079458115497684303 -0.013744475821612699 0.00072086493602232106 0.011351570497869614 0.40776367037766253 0.0014165894918316516 0.007664460922025885 -0.011912828315560229 -0.017815204370242307 0.0029436705781397472 0.0016111785099844902 0.020441645478726737 -0.013832694468832006 0.0024709423319529407 -0.012027231939350512 -0.0061944448819533085 -0.012751896967286956 0.051999661154025663 0.02254011723360794 0.0016163855901885941 0.00076696637200297172 0.0009345038453208173 0.0028862031315559649 0.0097937471224754952 -0.034503364196495127 0.006435330126525308 -0.015016460048651202 0.0043437548621764197 0.0024560465938633564 -0.071729150103239867 0.00064688770535281616 0.00043472912416053577
decision_type=2 2 2 2 2 2 2 2 2 2 2 2 2 2 2 2 2 2 2 2 2 2 2 2 2 2 2 2 2 2 2 2 2 2 2 2 2 2 2 2 2 2 2 2 2 2 2 2 2 2 2 2 2 2 2 2 2 2 2 2 2 2
left_child=1 6 4 8 13 11 61 26 21 43 42 24 22 17 -10 23 60 45 47 -20 -14 -4 31 -12 -3 -24 27 -5 29 -15 -19 -7 -33 51 -32 -17 37 -26 49 -11 -13 -35 -6 44 -9 46 -2 48 -16 -23 -25 -22 58 54 -54 -42 -48 -18 -45 -60 -8 -1
right_child=2 5 3 7 10 12 16 9 14 39 15 40 20 28 18 35 57 30 19 -21 33 38 25 50 36 -27 -28 -29 -30 -31 34 32 -34 41 -36 -37 -38 -39 -40 -41 55 -43 -44 52 -46 -47 56 -49 -50 -51 -52 -53 53 -55 -56 -57 -58 -59 59 -61 -62 -63
leaf_value=-0.050279120475120335 0.035020385399288888 -0.033148515622877739 0.039418813619859654 0.056021984058579694 0.031551338428562496 0.025641604682565385 -0.039329320215346665 0.053655810623120262 0.012667779701949043 0.036266944246511626 0.028337411710251489 -0.020176282586420725 0.013489874398286356 -0.0023289326408115012 0.019525371883693014 0.011935666933822801 -0.027971908688653398 -0.0081750689521354527 0.026231418081220221 0.052988583524701587 -0.011884419561506125 0.023316814365338834 -0.0103808631602555 -0.005588745680440186 0.0035780798456968993 0.0061164517592888126 0.042416121131571075 0.028770160569181542 0.0240361666370273 0.018562879395641219 -0.0047443726640404365 -0.020990792149832044 -0.012733518642976244 -0.0012681638210373643 0.0020952429983042468 0.017056839619351203 -0.01007396783217469 -0.024330672856729438 0.023979718108489569 0.045859566811259217 -0.010962309012065538 0.032271227997813505 0.017923999057074712 0.037838336669835458 0.027602602108948084 0.0058060555609690881 0.032449576096343802 0.0059342745117144718 0.029731166091263157 0.035776111663843695 0.0071406749381880564 -0.0049669948450094554 0.028703129288051077 0.031727036454026039 0.059062152205635224 0.018573262128622623 -0.0099615633468257293 -0.003588918978089068 0.071093418479059339 0.021631152468541772 -0.03323813369361564 -0.044991835354855014
leaf_weight=8926.6446863152087 294.56377652287483 1861.5023819282651 1659.9386964067817 1997.6999180987477 1402.9443571940064 77.58323472738266 8928.5481953769922 170.31542107462883 2816.8239732980728 2227.386593349278 326.64875184744596 1885.3852838426828 496.46783238649368 796.21443902701139 6189.4778776839375 11520.584987387061 1363.092148900032 2098.523029640317 2185.5215088203549 418.96741376072168 2956.8247800096869 913.62232182919979 2596.6794242113829 733.36120857298374 157.44777832180262 740.80956245213747 3891.6853508874774 281.04331047087908 693.92369402945042 527.61035335808992 3560.3423252925277 2834.3111316487193 6356.8258526101708 299.11096070706844 10956.133161529899 7763.2276750132442 661.84839389100671 12325.011843431741 3755.0186747610569 3056.8943015187979 2180.4103438034654 151.65876158326864 1009.2388024330139 804.34668082743883 5928.7687702402472 1321.0491972267628 82.065899521112442 447.79317434877157 1483.012848675251 2338.9860157743096 3959.8600787520409 5740.4524611532688 189.84533701837063 832.19713438302279 551.87838573008776 111.12887582182884 135.82660084217787 173.45225736871362 39.220583565533161 880.36550781875849 3092.9660748839378 4416.2199015133083
leaf_count=182709 3011 31703 13360 12261 12630 954 166281 1244 29358 16237 3661 29644 5865 9741 57518 126154 23655 28951 19445 3454 42541 8581 37518 9518 2210 10104 27176 1773 7969 5995 44929 42887 92340 3685 137069 79767 9777 200181 34764 20172 33023 1819 9904 6269 50238 15636 815 4018 13655 19403 46353 76931 1444 6258 4257 1406 1511 2688 280 6684 55948 87554
internal_value=-0.000275941 -0.0260646 0.0192519 0.0310913 0.00844671 -0.0154677 -0.0423862 0.0381524 0.0244617 0.0347703 0.0136889 -0.022289 -0.00958689 0.00160378 0.0208848 0.0124819 -0.0363407 0.000444718 0.023043 0.0305357 -0.00543737 0.0300499 -0.0127615 0.00666031 -0.0245029 -0.00671902 0.0461995 0.0526609 0.0122012 0.0059975 -0.000667553 -0.0149373 -0.0152799 -0.00646455 0.000417744 0.0139973 -0.0232785 -0.0239786 0.0278307 0.0418162 -0.0143355 0.010016 0.0258498 0.0308081 0.0283301 0.010524 0.0226862 0.0206398 0.021498 0.0322764 0.00515158 -0.00731872 0.035391 0.0409471 0.0512917 -0.00952997 0.00601195 -0.0252194 0.0303183 0.0237407 -0.0377621 -0.0485291
internal_weight=158577 68334.4 90242.9 43060.8 47182.1 41433.5 26900.9 20851.6 22209.2 14681.2 26715.9 19182.7 22250.7 20466.3 13541.6 24303.7 13558.1 18448.5 10724.8 2604.49 9644.51 8667.57 12606.2 5019.87 15005.8 3337.49 6170.43 2278.74 2017.75 1323.82 16615 9268.72 9191.14 9148.05 14516.5 19283.8 13144.3 12482.5 7007.63 5284.28 4176.92 450.77 2412.18 9396.94 6099.08 1833.51 512.456 8120.28 7672.49 3252.61 4693.22 8697.28 3297.85 1573.92 741.724 2291.54 217.893 1536.54 1723.93 919.586 12021.5 13342.9
internal_count=2042886 1141423 901463 357849 543614 622588 518835 154293 203556 113083 287987 307944 314644 255627 127448 265453 248572 231922 98090 22899 130841 76108 183803 59532 243871 47622 41210 14034 23705 15736 210949 136181 135227 124976 181998 205921 212168 202391 62748 36409 64073 5504 22534 76674 51482 20973 5337 75191 71173 27984 55871 119472 25192 11959 5701 34429 2326 26343 13233 6964 222229 270263
is_linear=0
shrinkage=0.05


Tree=12
num_leaves=63
num_cat=0
split_feature=6 6 6 6 6 6 6 6 2 2 2 5 2 2 9 10 2 6 2 2 5 2 5 10 5 9 9 5 6 2 2 10 2 9 10 5 5 9 4 10 5 4 6 6 6 10 6 9 4 4 6 5 5 9 2 2 2 2 9 2 6 4
split_gain=29102.6 4797.98 3771.52 904.284 630.657 406.399 393.216 196.073 165.434 122.633 118.221 114.527 110.282 108.122 94.6575 84.9606 84.7683 83.9525 82.7221 76.562 68.7642 63.3753 57.6665 53.5646 52.2217 49.6583 46.0531 45.5026 45.4857 45.2237 45.4582 43.2158 42.175 40.8734 40.8297 39.9111 38.1872 36.5735 35.6421 35.1122 36.9149 34.6718 34.2268 34.1195 34.0634 31.3817 30.8519 36.817 30.8241 30.6708 30.4239 34.6671 30.3176 27.3651 27.1916 26.0727 26.3745 25.7605 25.3684 32.5405 26.6927 25.1491
threshold=0.00098909000509838805 0.0014832278585621926 0.00068877564394882306 0.002117483702761666 0.0012245596767345727 0.00051127174559798102 0.00086030876827680172 0.0029131580586077817 -0.0062162700513572746 -0.011529842178089387 0.0078297343558576555 0.0013459105574365881 0.011716668507459673 -0.0097280899240942392 -0.00485405440323211 28.355623419324058 0.0048998093792839157 0.0011118406813851298 0.0064294539719882424 -0.013744475821612699 0.00055184008982966189 0.013034776589922139 0.00072534292875474327 35.924656323086367 0.00076696637200297172 0.0034692777559449666 -0.006386789656647073 0.0011616821051397446 0.00080137569365768251 -0.017652527763710509 0.02166318672247514 72.917417782859147 -0.015757996663617709 0.0019662353068051757 49.248136101043308 0.0024709423319529407 0.00079458115497684303 0.00091547146780934796 1.0835299737681992 76.577750860739513 0.0018496296766600943 0.44448911082208392 0.001349765738959017 0.00043472912416053577 0.00064688770535281616 62.022608478775716 0.00091236585615172476 -0.0042006665857419736 0.17138233715447029 0.42155093067694566 0.0032332104812000267 0.0043833678283127621 0.00079950634033063006 -0.0014141341563062013 0.02416584496962371 0.0015583851234376447 -0.010859817851971985 0.013520683712380134 0.0045735981248540289 0.0097937471224754952 0.0025213783541282245 2.4630544924538085
decision_type=2 2 2 2 2 2 2 2 2 2 2 2 2 2 2 2 2 2 2 2 2 2 2 2 2 2 2 2 2 2 2 2 2 2 2 2 2 2 2 2 2 2 2 2 2 2 2 2 2 2 2 2 2 2 2 2 2 2 2 2 2 2
left_child=2 4 5 8 12 43 10 9 15 -5 20 52 13 26 -6 -3 44 36 19 -8 -4 49 -21 32 -16 -12 -2 -17 55 -26 42 -20 50 -18 -23 -11 -15 -29 -19 40 54 -38 -31 -1 -7 -14 -24 -48 -42 -13 51 -9 57 -28 -25 56 -22 -10 60 -60 -37 -52
right_child=1 3 6 7 14 16 18 23 11 35 25 21 45 17 24 27 33 38 31 22 28 34 46 39 29 -27 53 37 -30 30 -32 -33 -34 -35 -36 58 41 -39 -40 -41 48 -43 -44 -45 -46 -47 47 -49 -50 -51 61 -53 -54 -55 -56 -57 -58 -59 59 -61 -62 -63
leaf_value=-0.050033246210331006 0.041320965265844833 0.036497611719365414 -0.030928811000499143 0.039167558857546747 0.026937018508328747 -0.038726104059827279 0.020117391832155204 0.049177107092861341 -0.011134975531530299 0.025825786135012203 -0.010801428005893633 0.014466301551663931 0.0023469950443346993 -0.010333034584018651 -0.0022261413363750893 0.01052052090197364 -0.028924927772455179 -0.00020194165854386004 -0.0065248428284442137 -0.019217214021134264 -0.0030851037015991074 0.014317113909990537 -0.014547483356549734 0.01488578323153299 0.029620359286191222 0.017773941347196332 0.01229455102789463 0.028006628586290869 -0.018071682117388365 0.0089624632719015399 0.033842580946024041 0.0086322070300494085 0.039638472093914884 -0.0091102603225127338 0.030119411415129905 0.034827011743020456 -0.0076534383869031304 0.019543684445116997 0.0063229690670440339 0.051560412122885979 0.0052032706212998651 -0.0012799812495261603 0.013197086479040991 -0.04454629189191673 -0.032542979499466933 0.018024200470800649 0.017278105796630982 -0.0095979305098263176 0.039279732458218232 0.020861832249162198 0.056773292427511723 0.0029380011179600631 0.013145674624734769 0.0010073976829597017 0.062091635046276718 -0.019949547727054286 -0.026001736063409421 0.046301014692245727 0.051014958684438873 0.031784877871800669 0.023894944892537111 0.083590515356453635
leaf_weight=8531.9677984826267 108.69512440264225 1942.8667445927858 2199.0990186296403 3596.3819527477026 979.04477741569281 8622.0630558356643 178.42404118180275 225.98332679271698 204.06967753171921 5899.7174335122108 1076.4185606390238 2373.693069986999 456.92041381448507 2203.9458439722657 717.70758982002735 523.50779937207699 1168.0483197830617 6798.9270178973675 1643.9993043616414 2820.7811071053147 128.19493031129241 485.5823080688715 4198.3515062704682 253.00223737210035 338.57363370060921 177.0424652993679 1414.1258353739977 4959.8273014351726 5988.5244400687516 10273.230898395181 218.93153738975525 658.70210034400225 742.28143937885761 334.87596431002021 2583.9809103533626 1253.4549626633525 2981.9924574866891 1719.1152661666274 3023.7327678874135 522.57344971597195 67.099611237645149 7502.5996096506715 8910.529153726995 4241.800625115633 3003.3806045241654 1059.1522433012724 129.96773012727499 6515.792576931417 6038.5904018506408 8915.9303288757801 683.98156678676605 49.396314918994904 4449.1379719600081 865.74550653994083 34.688371151685715 3156.7722492106259 6088.908149395138 21.587214469909668 379.65815467387438 523.08691545575857 1006.9419880583882 100.23709057271481
leaf_count=182709 965 15359 38159 25295 8865 166281 2080 1377 2389 48969 16075 22560 5458 31545 9320 5405 20970 84455 23034 43568 1968 4371 63196 1973 3045 2220 16129 42737 95504 115611 2136 8513 4789 5373 22453 9579 39456 15567 37031 3390 455 98256 93298 87554 55948 11995 1682 92399 39468 81823 3836 305 46365 10509 270 51646 102372 239 2765 3781 7515 526
internal_value=-0.000277492 0.01667 -0.0274017 0.0275745 0.00537759 -0.0418619 -0.0166883 0.0353292 0.0216918 0.0313554 -0.0216005 0.0190362 0.000206664 -0.00059051 0.0117492 0.0272187 -0.0356841 -0.00166376 -0.0109641 -0.0124238 -0.0226593 0.0212492 -0.0128487 0.0410996 0.0110224 -0.00676536 0.00952437 0.0247157 -0.0214756 0.011504 0.0111879 -0.00218907 0.0487779 -0.0245099 0.0276196 0.0282553 -0.00435031 0.0258283 0.00180664 0.0390991 0.0380805 -0.0030927 0.0109294 -0.0482112 -0.0371287 0.0132993 -0.0111921 -0.00907233 0.0389052 0.0195171 0.0551804 0.040883 0.0122389 0.00800843 0.0205776 -0.0236502 -0.0255292 -0.00564043 0.0327868 0.0398723 0.0299571 0.060201
internal_weight=158273 97410.2 60863.1 49556.4 47853.9 25902.1 34961 21377.1 28179.3 12659.2 18815 19034 26415.8 24899.8 21438 9145.32 13128.4 22511.2 16146 13843.3 17561.5 14359.2 13664.9 8717.83 20459 1253.46 2388.57 7202.45 15362.4 19741.3 19402.7 2302.7 1801.88 1502.92 3069.56 9062.86 12688.5 6678.94 9822.66 6915.95 6393.38 10484.6 19183.8 12773.8 11625.4 1516.07 10844.1 6645.76 6105.69 11289.6 1059.6 275.38 4674.79 2279.87 287.691 9373.88 6217.1 225.657 3163.14 902.745 2260.4 784.219
internal_count=2042886 981635 1061251 413561 568074 518835 542416 154293 259268 97904 307944 180200 335799 318346 232275 79068 248572 290743 234472 202925 289649 131207 200845 56389 223410 18295 27603 63709 251490 214090 211045 31547 10833 26343 26824 72609 169257 58304 121486 45556 42166 137712 208909 270263 222229 17453 157277 94081 39923 104383 6044 1682 48993 26638 2243 155986 104340 2628 23640 6546 17094 4362
is_linear=0
shrinkage=0.05


Tree=13
num_leaves=63
num_cat=0
split_feature=6 6 6 6 6 6 6 6 1 3 5 5 1 3 3 1 5 3 10 1 1 5 5 1 5 10 3 3 3 5 5 1 5 3 6 1 1 1 4 3 3 3 6 4 6 3 10 3 10 6 10 6 6 1 4 4 1 10 5 5 5 7
split_gain=26572.9 4191.27 3687.44 755.332 598.52 412.977 371.222 145.694 115.759 115.534 100.584 84.4722 81.334 78.8905 74.5692 95.1084 92.2241 80.7244 66.2558 65.6142 63.8922 63.2452 61.6241 59.833 59.5758 56.0166 55.3114 54.1529 52.689 52.3017 49.0939 48.8722 46.2672 70.8224 46.1161 43.6494 41.535 40.4507 38.2106 37.2523 36.5016 36.2304 35.2314 34.3822 34.3032 34.1808 33.3142 62.0543 33.1412 32.1898 32.186 32.0621 30.1484 30.0419 29.2254 28.391 27.9854 27.776 27.525 27.5035 27.4897 26.203
threshold=0.00098909000509838805 0.0015700458457736472 0.00068877564394882306 0.0012245596767345727 0.0025974587271523999 0.00051127174559798102 0.00084732565852937438 0.0019306435230751248 -0.0071519034889973012 0.010285913839744311 0.0012145911212435789 0.0012302949816572503 0.004797478972129122 0.0016065508182769863 -0.052482147495126356 0.0004029907673814837 0.0020160849245537955 -0.08875683804122779 30.559320073501386 0.0043437548621764197 -0.0041859209063675453 0.0013654227282596063 0.0022018728978883003 0.0058323306914969128 0.00055184008982966189 68.843329236829064 -0.007376731785359413 -0.030785835807146385 -0.0052631578947369131 0.00079458115497684303 0.00076696637200297172 0.0056497851772351346 0.00071185169801213854 0.0043471705480100384 0.00059091152664818433 0.0011401473989758328 0.0046765914335097367 -0.0064008594168909463 0.22675565600351413 -0.035964595388011826 -0.0079070052528440442 0.024339025106244864 0.00043472912416053577 0.17138233715447029 0.00093018237930734638 -0.0081010919430018462 53.927222770911442 -0.034503364196495127 69.446573456590059 0.001275810188511821 12.52530571271342 0.00076134081776967641 0.0050809526342552574 0.0066666666666667105 0.30611483120696553 0.36488858648034567 0.014156107958427146 72.917417782859147 0.0026220148678114843 0.0010959214100847907 0.0017814535446068365 -1.6653345369377346e-16
decision_type=2 2 2 2 2 2 2 2 2 2 2 2 2 2 2 2 2 2 2 2 2 2 2 2 2 2 2 2 2 2 2 2 2 2 2 2 2 2 2 2 2 2 2 2 2 2 2 2 2 2 2 2 2 2 2 2 2 2 2 2 2 2
left_child=2 3 5 10 7 42 9 18 26 24 23 27 20 -14 15 -6 31 25 28 34 40 56 37 29 -4 -17 59 -10 58 -2 -29 -16 33 -22 -7 -11 51 39 -12 -9 -8 48 -1 -18 -34 49 47 -23 -39 -13 -40 -26 -19 60 -47 -31 -20 -56 -3 -5 -52 -28
right_child=1 4 6 8 14 19 12 22 11 35 38 45 13 -15 16 17 43 52 21 -21 32 46 -24 -25 36 -27 61 30 -30 55 -32 -33 44 -35 -36 -37 -38 41 50 -41 -42 -43 -44 -45 -46 54 -48 -49 -50 -51 53 -53 -54 -55 57 -57 -58 -59 -60 -61 -62 -63
leaf_value=-0.049789256851294601 -0.0080879626098109246 0.03565915785900526 -0.032347078798957166 0.051603282766953265 0.048713810599520874 -0.039235666704230919 0.0057043623031493461 0.044161086023055116 0.020742966856909135 -0.018340805704969348 -0.0052336021377338265 0.0068937091602463176 -0.016828581895354314 0.010860389573457471 0.015535250053225345 0.037842141001616494 0.0060554866295142841 0.026856326791184382 0.012570888313029317 -0.010854436742929328 -0.024813335163669164 0.029794123294206228 0.030566144443329897 0.010287598904477249 -0.02604117793847692 0.077213697378058069 -0.00093711435799353864 -0.0058772869875556889 0.018248150073808613 -0.0056854265926749407 0.007579587246364098 0.038801674246038857 -0.013889979772364773 -0.0089518620621030325 -0.033038401911422134 -0.0073791775509415795 -0.0060481410320430773 0.022245118914204304 0.053143989880787529 0.026664999625691407 -0.0093356139420254346 0.029134090744165703 -0.044095859185047936 0.036303649378537944 -0.0084475042620226759 0.0048111106480730375 0.02369641203298491 0.016189976048567818 0.011013157633753943 0.017949119276885878 0.0055455493586520771 -0.020594154386420802 0.0006781848783243543 0.01778899384396344 0.011726600187780897 -5.0070355593166444e-05 0.082514128561267011 0.020978534044481495 0.0048828910949949541 0.027648893827691329 -0.012495065467996338 0.019183770896458247
leaf_weight=8154.6324734091759 3379.4422011971474 1352.6725625023246 1683.5803302824497 134.72144091129303 2234.6950999945402 5057.389045022428 739.33926134184003 427.07848646491766 719.5002903342247 2081.1278692558408 834.47272339463234 757.90974232554436 383.13497523590922 782.92636338621378 933.69286669045687 310.70596849918365 95.149397976696491 747.49297279119492 3276.8544074371457 274.74590655788779 1781.8243148028851 992.74922417104244 6586.2848676368594 965.07393821328878 4586.9690621607006 127.38017144799232 230.03096303343773 737.02560370415449 843.47103407979012 2784.7749504521489 8429.4472956508398 297.66081772744656 6714.5949962064624 1163.1688448451459 7385.8046434521675 1611.3298897333443 381.15316142886877 4902.0872931629419 36.134057961404324 1057.7182983607054 887.90737830102444 1663.3665348514915 4075.1081837899983 7425.3502275049686 5089.9054235517979 1349.9890816733241 5209.9638092964888 5385.8917358219624 758.34157548099756 5016.3249634429812 6389.8664720878005 6572.513789139688 128.95761109888554 489.31297248601913 7372.1065752953291 11321.05424977839 14.364140041172503 911.53699870407581 76.773480497300625 1083.9163303747773 218.37390062212944 545.56349753588438
leaf_count=182709 47544 10779 30365 1259 12983 102069 10213 3042 7665 33796 10204 8266 5315 10140 7234 1834 663 4869 33255 4618 28472 8092 49091 11601 79707 706 2260 9610 7581 36510 95277 2242 101989 17997 141885 24769 5701 41756 326 8310 12781 13811 87554 49284 72298 14352 46145 48130 6565 49267 76244 108873 792 5150 76533 145763 138 8959 547 9251 2457 5288
