tree
version=v4
num_class=1
num_tree_per_iteration=1
label_index=0
max_feature_idx=3
objective=binary sigmoid:1
feature_names=Column_0 Column_1 Column_2 Column_3
feature_infos=[-0.12726757369614516:0.11290322580645173] [0:99.999999582089558] [3.7073498613196625e-05:0.062874177469431733] [-2.3100261262741038:4.694010616254956]
tree_sizes=3520 3595 3616 3599 3606 3618 3613 3620 3620 3618 3603 3618 3629 3614 3627 3625 3617 3612 3626 3624 3627 3623 3619 3633 3641 3621 3642 3635 3647 3635 3639 3651 3638 3648 3656 3642 3639 3647 3645 3652 3652 3638 3654 3662 3660 3638 3647 3644 3651 3666 3643 3648 3658 3637 3650 3662 3651 3647 3648 3657 3654 3648 3654 3670 3646 3643 3642 3660 3666 3662 3655 3652 3660 3652 3664 3645 3663 3647 3665 3652 3660 3637 3662 3659 3642 3682 3669 3649 3645 3656 3611 3656 3650 3667 3685 3620 3616 3578 3597 3604 3648 3589 3618 3573 3656 3633 3599 3674 3635 3653 3637 3564 3589 3586 3565 3624 3609 3624 3617 3621

Tree=0
num_leaves=31
num_cat=0
split_feature=2 2 2 2 2 2 2 1 3 1 1 3 2 2 2 2 0 3 2 3 2 0 2 2 0 3 1 1 1 1
split_gain=452133 55921.8 52960.6 6823.45 6781.33 6279.43 4764.12 1822.86 1725.07 1361.56 1333.7 1164.79 992.846 889.859 1058.96 834.846 765.462 691.133 687.53 625.196 568.746 536.617 480.922 447.358 433.571 431.115 413.312 342.999 334.245 331.328
threshold=0.0018135339183023424 0.0025211129792134025 0.0013022827329385118 0.0020863912110468132 0.001018018465740344 0.0015752352241083492 0.0029574003655564438 69.999902000137425 -0.085420288491412102 66.666660444445142 69.999902000137425 0.031001130395983269 0.00076829233591053112 0.0057201113382086268 0.0033259818361174196 0.0014300088504135041 0.0075920622299761051 0.010702377114995946 0.0022575557534203834 -0.11186748087961441 0.0011597223698659577 0.0043679692960267866 0.0022852645474752474 0.0019358659812909512 0.0042358835976219486 -0.15821507511999638 66.666660444445142 27.450972856595865 60.703035715614654 66.666614814855251
decision_type=2 2 2 2 2 2 2 2 2 2 2 2 2 2 2 2 2 2 2 2 2 2 2 2 2 2 2 2 2 2
left_child=2 3 4 11 12 7 17 15 18 20 19 23 -1 14 -8 -4 27 -3 -5 -7 -6 -9 -10 -2 -11 -12 -14 -13 -15 -29
right_child=1 6 5 8 9 10 13 21 22 24 25 16 26 28 -16 -17 -18 -19 -20 -21 -22 -23 -24 -25 -26 -27 -28 29 -30 -31
leaf_value=-2.8274721856288534 -2.7437898672835193 -2.6645644098099259 -2.7926482969686486 -2.714543998136723 -2.8127436779794963 -2.7659687270051956 -2.6326796673266055 -2.7668240184658464 -2.6878297535696976 -2.794499389625082 -2.7468874363395792 -2.6918157328138692 -2.8210427229056361 -2.6346707755430843 -2.6087157238880181 -2.7802782540731745 -2.6552369415773187 -2.6407562905509159 -2.6945914806603466 -2.7516911915395799 -2.8039574329923758 -2.7334444901309061 -2.665289940471443 -2.728811791350565 -2.7671214175693972 -2.7139765045656237 -2.8111157843495946 -2.7270780898451599 -2.6700507115111534 -2.6998822194969714
leaf_weight=76388.645160086453 9987.2555285319686 9760.0908789038658 28025.660403706133 8154.4560936838388 38919.425750412047 21505.544596686959 6933.8937645033002 5043.7384236976504 5162.8579901531339 11226.936493031681 1969.770407192409 1073.9493937790394 68157.383943535388 2310.544930100441 13755.279594361782 26571.762568540871 511.29952669143677 4432.6583535969257 9175.898111499846 11915.813430771232 34965.725024566054 1581.6125229746103 4369.3519790098071 9953.6464001610875 1659.9052629992366 2010.9278152137995 12391.850921139121 6053.3346011862159 938.796620182693 1374.1725749149919
leaf_count=1386441 181267 177144 508661 148002 706381 390322 125849 91543 93705 203767 35751 19492 1237045 41936 249656 482273 9280 80452 166541 216270 634622 28706 79303 180657 30127 36498 224910 109867 17039 24941
internal_value=-2.77801 -2.68085 -2.80468 -2.71273 -2.81719 -2.77376 -2.63418 -2.78362 -2.69458 -2.80597 -2.75762 -2.72957 -2.82339 -2.62057 -2.61675 -2.78663 -2.71465 -2.65713 -2.70398 -2.76088 -2.80859 -2.75886 -2.6775 -2.73631 -2.79097 -2.73026 -2.81952 -2.71823 -2.64489 -2.72205
internal_weight=436282 93947.5 342335 55816.2 243710 98624.8 38131.3 61222.8 26862.6 86772 37402.1 28953.7 156938 23938.5 20689.2 54597.4 9012.76 14192.7 17330.4 33421.4 73885.2 6625.35 9532.21 19940.9 12886.8 3980.7 80549.2 8501.46 3249.34 7427.51
internal_count=7918448 1705131 6213317 1013055 4423293 1790024 692076 1111183 487551 1574897 678841 525504 2848396 434480 375505 990934 163580 257596 314543 606592 1341003 120249 173008 361924 233894 72249 1461955 154300 58975 134808
is_linear=0
shrinkage=1


Tree=1
num_leaves=31
num_cat=0
split_feature=2 2 2 2 2 2 2 1 1 1 3 1 3 2 3 2 2 2 2 2 3 0 0 1 2 2 0 0 1 1
split_gain=382888 46413 42074.5 5453.9 5453.38 4934.57 4720.96 1567.72 1223.16 1192.4 1075.11 1048.77 792.638 727.873 638.437 614.24 607.177 505.781 502.345 629.61 484.338 432.852 393.25 390.657 385.23 382.109 337.862 316.595 285.442 283.636
threshold=0.0017476522588374059 0.0023781585588270922 0.0012638968189172676 0.00095517203713813904 0.0028843638410019764 0.001478132878174838 0.002005899623933763 66.666614814855251 66.666660444445142 67.796449296561036 0.21058077037892894 72.727268099173799 -0.094022434670803637 0.0015941639152348551 -0.11186748087961441 0.00075638263654231722 0.0011061299794267543 0.0021764116587745471 0.0071044464181596071 0.0033259818361174196 -0.15821507511999638 0.0051856009156032732 0.0042358835976219486 27.180863827301234 0.0013701459277264232 0.0026075206763538062 0.0082838569406014102 0.0082838569406014102 26.315724838570549 68.749939843802679
decision_type=2 2 2 2 2 2 2 2 2 2 2 2 2 2 2 2 2 2 2 2 2 2 2 2 2 2 2 2 2 2
left_child=2 6 3 15 12 9 11 13 16 24 17 14 25 -7 -2 -1 -5 -8 19 -6 -9 -11 -10 -15 -4 -3 -12 -13 -16 -17
right_child=1 4 5 8 18 7 10 20 22 21 26 27 -14 23 28 29 -18 -19 -20 -21 -22 -23 -24 -25 -26 -27 -28 -29 -30 -31
leaf_value=-0.04926776972662078 0.028876096090798137 0.080900213325331011 -0.018594331503244823 -0.036966465797868699 0.12057047072416988 0.00021252122384622662 0.052002655125891833 0.020010134285808539 -0.019798444657538265 0.0030991066487158418 0.078349337300407815 0.061734974554151924 0.10874020700326606 0.034256246780143017 0.066943444303199581 -0.043731110270653815 -0.028271348792806367 0.067364090467046986 0.1028607423976587 0.13628789725380963 0.045819508011143553 0.040037383643893185 0.0063369054389293055 0.011381075598447653 -0.0092982795323066515 0.097676660063028956 0.1195640816373414 0.11765830173300665 0.041272048264980044 -0.033670933835214086
leaf_weight=69844.533806864172 18705.244670107961 7349.9403780028224 23598.263764046133 40954.341201435775 9900.5394071787596 19358.44927687943 11279.833753470331 3777.7397676035762 12670.1277131401 6229.8721513003111 6957.9861231483519 2227.0712168850005 7662.3162213563919 2064.6209372393787 1224.4132061600685 52645.517233408988 39385.339319430292 10207.460295647383 1722.6959657669067 17875.77034746483 3503.5682602077723 908.79186094179749 1623.7583093047142 19440.735383886844 21117.595365982503 6306.3092659935355 535.51981560885906 285.52667009830475 9363.9754153564572 8081.9105200618505
leaf_count=1324381 330220 122874 435472 768853 158933 351123 194446 67418 234106 112649 117011 38549 124476 36837 20994 992660 733422 172964 27830 280801 61391 16000 29344 347611 386444 103621 8881 4759 163218 151160
internal_value=-3.81819e-05 0.0798712 -0.0274616 -0.0394459 0.115136 -0.000472372 0.0503896 0.0110545 -0.0303061 -0.0111747 0.0649872 0.0370888 0.0958692 0.00724594 0.0344297 -0.0460701 -0.0327038 0.0593 0.129061 0.130686 0.0324289 0.00780156 -0.0168295 0.0135772 -0.0142042 0.0886474 0.0812947 0.06809 0.0442406 -0.0423923
internal_weight=436810 111605 325205 225206 50817.6 99999.6 60787 48145.1 94633.6 51854.5 28980.8 31806.2 21318.6 40863.8 29293.6 130572 80339.7 21487.3 29499 27776.3 7281.31 7138.66 14293.9 21505.4 44715.9 13656.2 7493.51 2512.6 10588.4 60727.4
internal_count=7918448 1869577 6048871 4233926 818535 1814945 1051042 864380 1765725 950565 493302 557740 350971 735571 514432 2468201 1502275 367410 467564 439734 128809 128649 263450 384448 821916 226495 125892 43308 184212 1143820
is_linear=0
shrinkage=0.05


Tree=2
num_leaves=31
num_cat=0
split_feature=2 2 2 2 2 2 2 1 1 1 3 3 3 1 2 0 2 2 2 1 0 1 3 2 2 2 2 0 1 2
split_gain=330280 38608.6 35005.7 4452.67 4340.99 4336.49 4157.3 1314.92 1205.5 1053.27 1037.22 785.914 637.695 524.464 524.46 514.458 483.29 445.296 432.799 428.815 427.208 401.392 385.979 372.423 362.989 503.104 331.271 296.548 258.915 256.174
threshold=0.0017004591883954352 0.0023430367961519961 0.0012226756685580927 0.0019358659812909512 0.00093461102726544751 0.001461987340254817 0.0028843638410019764 66.666614814855251 68.156659861076832 66.666660444445142 -0.11186748087961441 -0.11186748087961441 -0.18024324905767583 66.666614814855251 0.00072527721215480834 0.0075920622299761051 0.0013423010801281179 0.0020647916901083033 0.0011008829046875222 24.137445511544282 0.0051856009156032732 29.99790014698937 -0.16574257199814993 0.0015846148163318448 0.0057201113382086268 0.0033259818361174196 0.0026075206763538062 0.0035893832416845632 66.666660444445142 0.0021081028176445677
decision_type=2 2 2 2 2 2 2 2 2 2 2 2 2 2 2 2 2 2 2 2 2 2 2 2 2 2 2 2 2 2
left_child=2 3 4 11 14 8 12 19 16 18 17 -2 26 -13 -1 21 -4 -5 -6 -7 -10 -12 -9 -21 25 -8 -3 -11 -16 -23
right_child=1 6 5 10 9 7 24 22 20 27 15 13 -14 -15 28 -17 -18 -19 -20 23 -22 29 -24 -25 -26 -27 -28 -29 -30 -31
leaf_value=-0.049391599410186157 0.022883983512531129 0.069631246739718849 -0.020516742458739065 0.038925343230951079 -0.036885837211050966 0.023689880141031378 0.10298384890356965 0.016002196382723103 0.00053992896300461373 -0.021803625092291074 0.082902549120232469 0.033921127575153323 0.0921217738534299 0.060271755280606881 -0.044173099355734241 0.099995741829509335 -0.010770331438065916 0.053393162400812211 -0.029103185225104911 -0.0022449045609684907 0.035552425513338336 0.050911447971753759 0.039637708186506498 0.0080785410475056451 0.095427871962247057 0.11657618126233078 0.084609139272760453 -0.001902468891698289 -0.035152930945715942 0.066509711299481925
leaf_weight=59033.865608107299 20183.928650680929 8694.5067078843713 27190.924192078412 8575.1920932382345 43663.366061612964 2538.7844844013453 10980.535342469811 3532.6471236273646 7049.6000577434897 11132.458825647831 2048.1494504660368 9919.1478270962834 10305.271842047572 2332.315667539835 50476.676685199142 995.13742455095053 23897.940279722214 14003.552619315684 30232.440436907113 19357.196036539972 994.08524066209793 5264.4603536501527 3380.0199583470821 15922.391455058008 4050.2235454171896 17915.025947272778 6415.7733825221658 2250.2525561861694 9443.9588719718158 5264.4238197132945
leaf_count=1169615 350355 135935 513140 143891 848263 45218 158933 62101 127985 209845 32431 168250 153582 38000 991130 15168 442644 227216 578120 351944 17021 86233 57260 281918 58975 249656 96891 41267 182893 82568
internal_value=-0.000100531 0.0678331 -0.0279113 0.0423974 -0.0398331 -0.00423907 0.0977251 0.00750764 -0.0131249 -0.0313643 0.0544647 0.0289477 0.0825314 0.0389375 -0.0460468 0.0653884 -0.0159576 0.0478984 -0.0337018 0.00384253 0.00486698 0.0626502 0.027559 0.00241428 0.109446 0.111411 0.0759908 -0.0184573 -0.0427515 0.0587106
internal_weight=437044 126948 310097 68586.3 206233 103864 58361.3 44731 59132.5 87278.5 36150.9 32435.4 25415.6 12251.5 118955 13572.2 51088.9 22578.7 73895.8 37818.4 8043.69 12577 6912.67 35279.6 32945.8 28895.6 15110.3 13382.7 59920.6 10528.9
internal_count=7918448 1998084 5920364 1144112 4021133 1899231 853972 798441 1100790 1677495 587507 556605 386408 206250 2343638 216400 955784 371107 1426383 679080 145006 201232 119361 633862 467564 408589 232826 251112 1174023 168801
is_linear=0
shrinkage=0.05


Tree=3
num_leaves=31
num_cat=0
split_feature=2 2 2 2 2 2 2 1 1 1 3 1 2 3 1 2 2 1 2 0 1 1 0 2 0 2 3 0 2 0
split_gain=287844 32696 30068.8 4223.2 3838.95 3482.68 3304.8 1193.84 1093.8 978.253 765.042 698.407 537.497 479.544 439.507 404.76 400.86 400.429 388.775 370.391 359.458 350.581 329.431 301.601 297.888 286.983 274.301 272.707 268.81 284.55
threshold=0.001689800830357366 0.0012170343215257833 0.0023124664581059555 0.00093461102726544751 0.0014458730015949174 0.0019358659812909512 0.0028203565279464643 67.060217285445674 67.796449296561036 66.666660444445142 -0.16574257199814993 67.060217285445674 0.00072527721215480834 -0.18024324905767583 24.70206425409253 0.0011008829046875222 0.0013155193167844795 72.727268099173799 0.0015846148163318448 0.0046518841248773821 30.443884629960944 37.142708572023004 0.0040000000000001154 0.0020647916901083033 0.0062329028088170544 0.0032153454972014273 -0.11186748087961441 0.0035893832416845632 0.0057201113382086268 0.0045104545940691807
decision_type=2 2 2 2 2 2 2 2 2 2 2 2 2 2 2 2 2 2 2 2 2 2 2 2 2 2 2 2 2 2
left_child=1 3 5 12 8 11 13 18 16 15 23 14 -1 -4 -2 -5 -3 20 -6 -10 -12 -8 -9 -7 -13 -23 -16 -11 -27 -30
right_child=2 4 6 9 7 10 21 22 19 27 17 24 -14 -15 26 -17 -18 -19 -20 -21 -22 25 -24 -25 -26 28 -28 -29 29 -31
leaf_value=-0.049100977985627813 0.045688565964824408 -0.021211850853155623 0.065636084592126803 -0.036246029638027713 -0.0014370641779482155 0.035164062504918193 0.1026862666978359 0.017930349085709521 -0.0011367040775158807 -0.021470165858310679 0.072328502536380984 0.03790165759863165 -0.042238671428178415 0.079149194153817951 0.018096577500672908 -0.028508190276675449 -0.012086543584849663 0.080590288563798143 0.008660637159839734 0.027705040843365489 0.050483162060029507 0.083950388233901233 0.041680443562734433 0.047327531733773527 0.069980730201641986 0.097193140530436081 0.028506336005714318 -0.0021229735712886516 0.094171068103260633 0.0650139492515487
leaf_weight=56478.781745545566 2056.5630774758756 22197.595518480986 16045.629184365273 42248.564387738705 23912.308032739908 8500.7529671341181 8845.5242026522756 4896.4173283204436 6694.7970573119819 10735.124622438103 2292.7125218361616 4255.7227517254651 57673.193832088262 11112.019574046135 18103.27718597278 28168.598979234695 26286.335545241833 1644.7556728795171 15850.863629680127 1335.1583974286914 10539.75671351701 9095.8060441166162 2080.4441665410995 12725.413982026279 871.96023365110159 17046.616778552532 9729.3014904931188 2193.55313141644 1980.3418780490756 1449.0669435113668
leaf_count=1169615 33850 428134 233183 848263 435723 137893 114843 83623 122017 206335 34042 69251 1174023 153963 309342 552908 494046 24258 277999 22594 161066 121930 34348 197556 13445 216565 161147 40306 26578 19602
internal_value=-0.000149867 -0.0274661 0.0601267 -0.0393864 -0.00466577 0.0375123 0.0845155 0.00593546 -0.0134336 -0.0308296 0.0485008 0.0263083 -0.0456339 0.0711652 0.0233836 -0.0331507 -0.0162644 0.0573632 0.0025882 0.00365888 0.0543862 0.093953 0.0250124 0.0424562 0.0433567 0.0913407 0.0217355 -0.0181876 0.0946236 0.081851
internal_weight=437047 300752 136295 197498 103254 70720.2 65575 46740 56513.9 83345.8 35703.4 35016.8 114152 27157.6 29889.1 70417.2 48483.9 14477.2 39763.2 8029.96 12832.5 38417.4 6976.86 21226.2 5127.68 29571.8 27832.6 12928.7 20476 3429.41
internal_count=7918448 5889934 2028514 3991450 1898484 1141850 886664 831693 1066791 1647812 554815 587035 2343638 387146 504339 1401171 922180 219366 713722 144611 195108 499518 117971 335449 82696 384675 470489 246641 262745 46180
is_linear=0
shrinkage=0.05


Tree=4
num_leaves=31
num_cat=0
split_feature=2 2 2 2 2 2 2 1 1 1 1 1 2 2 1 3 3 2 3 3 2 2 1 2 1 1 3 1 2 2
split_gain=253203 27879.3 26674 3735.89 3318.38 3299.65 2680.06 1211.82 860.99 770.21 688.777 577.222 526.237 517.115 492.653 484.813 430.314 376.113 288.598 282.642 269.727 268.416 263.578 255.632 245.004 238.431 234.61 228.263 214.27 203.504
threshold=0.0016342774402660625 0.0022023474060942198 0.0011765347683900306 0.0027109884573500221 0.0013701459277264232 0.00092931340634241108 0.0018868576908021024 72.727268099173799 67.060217285445674 66.666660444445142 71.999998319999946 72.727268099173799 0.00071933084529802245 0.0015029884625211009 24.70206425409253 0.010702377114995946 -0.21384722154471295 0.0031162212855166721 -0.18751378312635711 0.18163559380574301 0.0057201113382086268 0.0024471818079855796 66.666660444445142 0.0010544005659881902 80.612243746355958 26.315724838570549 -0.15821507511999638 56.249993408204027 0.0017994544727803388 0.0012826989688880495
decision_type=2 2 2 2 2 2 2 2 2 2 2 2 2 2 2 2 2 2 2 2 2 2 2 2 2 2 2 2 2 2
left_child=2 6 5 15 8 12 10 13 29 23 16 14 -1 -6 -8 21 28 -5 -9 -16 -19 -3 -14 -7 -10 -18 -15 -27 -2 -4
right_child=1 3 4 17 7 9 11 18 24 -11 -12 -13 22 26 19 -17 25 20 -20 -21 -22 -23 -24 -25 -26 27 -28 -29 -30 -31
leaf_value=-0.048897141679083683 0.010383524624364253 0.050348428667527062 -0.02316447620435395 0.074846611718335829 -0.0064866720770572874 -0.036904480830021548 0.061468621534978819 0.01126210877717463 -0.0062183890270789289 -0.019482193435475748 0.041654149467652925 0.061201221041347988 -0.043416159502674009 -0.00026565870139362758 0.033272375450374779 0.068088587472901516 0.042457830919651607 0.086459587618725256 0.036403717864863246 0.044584274343053287 0.073489690291400053 0.061401425496418041 -0.033974656176524974 -0.030392894282332564 0.016564194214852685 0.018170904709197987 0.010084324954244751 0.032194497295148478 0.021388526546442872 -0.01615178218866031
leaf_weight=52727.545830577612 14235.030891854316 12517.392956078053 23973.072377599776 14821.024101920426 26800.664224725217 30852.529319189489 2045.7941990867257 2083.1313224025071 6072.6885669529438 11267.620361570269 3525.6807229183614 2859.8672511950135 46538.518870916218 14224.927305839956 22127.417324461043 10839.772420667112 1716.8247974701226 26676.47607024014 2524.9212635308504 7358.5218622609973 4717.4721738025546 9787.6230722144246 8787.9412616342306 29468.671018209308 1464.6938193179667 9062.6108667589724 8901.5590899772942 4268.4167881272733 6416.8745778612792 18198.843762211502
leaf_count=1141299 244213 179686 475867 187950 498037 641534 30023 35871 112016 219078 54736 41620 987936 254422 343763 143208 27328 314115 41435 108924 58975 132843 182597 599987 26417 150170 157382 69487 106410 351119
internal_value=-0.000189155 0.0516659 -0.028132 0.0722242 -0.00801242 -0.0398072 0.0295039 0.000504575 -0.0173563 -0.0314819 0.020571 0.0396924 -0.0453229 -0.00175976 0.0377416 0.0594142 0.0184888 0.0814114 0.0250381 0.0360954 0.0845106 0.0551986 -0.0419165 -0.0337234 -0.00179119 0.0249197 0.00371813 0.0226611 0.013803 -0.0201382
internal_weight=436864 152977 283887 79359.8 104245 179643 73617 54535.2 49709.3 71588.8 39225.4 34391.6 108054 49927.2 31531.7 33144.8 35699.8 46215 4608.05 29485.9 31393.9 22305 55326.5 60321.2 7537.38 15047.9 23126.5 13331 20651.9 42171.9
internal_count=7918448 2193451 5724997 1016777 1952566 3772431 1176674 987147 965419 1460599 652344 524330 2311832 909841 482710 455737 597608 561040 77306 452687 373090 312529 1170533 1241521 138433 246985 411804 219657 350623 826986
is_linear=0
shrinkage=0.05


Tree=5
num_leaves=31
num_cat=0
split_feature=2 2 2 2 2 2 2 1 1 1 1 2 2 0 3 0 1 3 2 2 1 3 0 2 2 3 1 1 0 0
split_gain=223750 25088.4 23477.3 3302.82 3034.64 3002.84 2486.54 1030.66 914.795 716.006 681.905 542.965 460.57 432.453 417.45 380.638 377.755 358.735 284.195 279.774 269.236 268.97 266.11 254.357 230.338 228.148 218.46 201.445 191.16 189.29
threshold=0.0016238201762932339 0.0011765347683900306 0.0022023474060942198 0.00092931340634241108 0.0013847808138527766 0.0027109884573500221 0.0019186695203406098 62.809904637664609 68.421027423833053 66.666660444445142 71.999998319999946 0.00071259138969483027 0.0017733196569188778 0.0053868799847019986 -0.068174609941506162 -0.0040017632290676444 24.137445511544282 0.19544487803765373 0.0031162212855166721 0.0012826989688880495 66.666660444445142 -0.11992932026595086 -0.0026357406431207204 0.0010387356591869746 0.0015118576593461917 -0.20762136023563063 72.727268099173799 26.666664177779122 0.0035893832416845632 0.004990934720859209
decision_type=2 2 2 2 2 2 2 2 2 2 2 2 2 2 2 2 2 2 2 2 2 2 2 2 2 2 2 2 2 2
left_child=1 3 6 11 8 17 10 16 19 23 12 -1 25 15 -9 27 -6 22 -7 -3 -13 -10 -4 -5 -18 -2 -24 -8 -11 -16
right_child=2 4 5 9 7 18 13 14 21 28 -12 20 -14 -15 29 -17 24 -19 -20 -21 -22 -23 26 -25 -26 -27 -28 -29 -30 -31
leaf_value=-0.048739469650708973 0.0082804557953361155 -0.022701704182403474 0.058985451695602355 -0.036719780254715478 0.014649402432843441 0.06714402953132155 0.06561125760014766 0.0062950966217142556 -0.0087138338645451185 -0.022066763367943582 0.038358872503297954 -0.043024114968920717 0.02305507296876938 0.055760359855926138 0.020117579141510484 0.032895340076674065 -0.0078899649706960593 0.061854230644464006 0.075289206930401698 -0.014816146424175211 -0.033455091545845042 0.010620099153306483 0.045703144361733838 -0.03008770883475332 0.00022681819692845387 0.018376191000799829 0.064918391306287279 0.042333066191551597 -0.0042448414999906748 0.043551797875809123
leaf_weight=49017.294089175761 13372.385219939053 23929.114726040512 6683.0006680116057 26074.478535499424 2832.4969552718103 15731.232708223164 1236.8284492865205 6412.1175893619657 3927.0423209369183 9271.303890388459 4212.0232016779482 45930.327207006514 18806.179232630879 2920.581010825932 3345.7502622902393 23482.132796540856 19900.12020701915 9394.633659876883 33545.451355949044 21225.462732776999 8751.4821988455951 3319.4492829106748 17114.19141369313 32448.7039289698 15586.421489004046 9623.1046255454421 1619.1130853071809 3738.9553075879812 1796.1089836843312 1160.6557490602136
leaf_count=1109001 228413 484516 88629 561069 51109 187603 16911 112723 72403 185208 62976 1014650 300394 40847 56968 346397 372190 117174 372393 413614 187761 59930 228193 680524 278973 158149 21435 54744 33778 18270
internal_value=-0.000257737 -0.0276959 0.0464572 -0.0392634 -0.00797372 0.0647473 0.0265847 0.000939128 -0.0163485 -0.030837 0.0191837 -0.0449181 0.0172515 0.0374376 0.0144911 0.0355572 -0.00292235 0.0535056 0.0726889 -0.018995 -0.0414927 0.000142591 0.0504197 -0.0330426 -0.00432491 0.0125053 0.0473639 0.0481193 -0.0191745 0.0261532
internal_weight=436408 274928 161480 173290 101639 84087.6 77392.2 49237.6 52401.1 69590.6 46013.7 103699 41801.7 31378.5 10918.5 28457.9 38319 34810.9 49276.7 45154.6 54681.8 7246.49 25416.3 58523.2 35486.5 22995.5 18733.3 4975.78 11067.4 4506.41
internal_count=7916945 5692687 2224258 3771991 1920696 1015427 1208831 890233 1030463 1460579 749932 2311412 686956 458899 187961 418052 702272 455431 559996 898130 1202411 132333 338257 1241593 651163 386562 249628 71655 218986 75238
is_linear=0
shrinkage=0.05


Tree=6
num_leaves=31
num_cat=0
split_feature=2 2 2 2 2 2 2 1 1 1 1 1 1 0 3 3 2 1 2 2 2 1 0 2 0 2 3 1 2 0
split_gain=199580 24215.3 18775.7 3068.99 2629.44 2616.87 2183.11 871.703 852.486 738.261 597.971 496.172 456.968 434.34 384.567 362.291 331.539 290.991 286.979 281.06 280.53 280.096 260.662 238.986 238.945 234.859 224.58 204.666 204.388 180.623
threshold=0.0015471854234328172 0.0021764116587745471 0.0011115767235600784 0.0018135339183023424 0.0026075206763538062 0.0013155193167844795 0.00084628483097822405 62.499994531250515 66.666614814855251 59.999966400018558 66.666660444445142 66.666660444445142 27.180863827301234 -0.006134624062655413 -0.049779469640433699 -0.20762136023563063 0.0031162212855166721 29.562452150061251 0.0019869151653465682 0.0006571051627826803 0.0014376954038270075 72.727268099173799 0.0040000000000001154 0.00099170640947601253 0.0048165947767371273 0.0016778919354693744 0.29266580442574724 76.547116838407774 0.0012285802524502796 -0.0034536349520570826
decision_type=2 2 2 2 2 2 2 2 2 2 2 2 2 2 2 2 2 2 2 2 2 2 2 2 2 2 2 2 2 2
left_child=2 3 6 9 17 8 19 20 28 12 23 13 29 -5 -9 -11 26 -3 -15 -1 -7 -19 -10 -8 -13 -14 -6 -17 -4 -2
right_child=1 4 5 11 16 7 10 14 22 15 -12 24 25 18 -16 27 -18 21 -20 -21 -22 -23 -24 -25 -26 -27 -28 -29 -30 -31
leaf_value=-0.049289994345664556 0.036352778814646713 0.059946219884322409 -0.026068775902931298 0.04844486927148637 0.056696797974054094 -0.011904845463238063 -0.038923158056790072 8.8448479735211674e-06 -0.010090997147469047 0.014550827926990962 -0.023615653411578522 0.036438886030573006 0.0021980432403707778 0.022862859035884787 0.018525576644413771 0.026201254499800038 0.067273059388464854 0.043433413928265441 0.031900529939802073 -0.043271826830859283 -0.0034095783664074733 0.060163273306056281 0.012579955848907608 -0.032608694592108627 0.056076858389651651 0.011076190246475937 0.068521002200634673 0.047409157606019894 -0.019157715348364399 0.014772100350654261
leaf_weight=36618.682482559234 1782.6705885864794 3655.3890893533826 26048.983544755727 2543.3741167038679 16984.855717152357 21753.255873963237 32565.044370144606 6972.24432310462 7014.9234363138676 6604.6552984528244 11586.23207033053 4620.9941850379109 15612.454026337713 18951.885459430516 4690.3702210523188 4606.5658255778253 35608.227724537253 26835.996634580195 16371.376737207174 41259.549612246454 17564.10342984274 2759.0821066871285 1547.5919796004891 27756.019883394241 2329.9984687790275 14246.401808641851 5259.1948199495673 1510.66449630633 18153.547507174313 2125.7536827102304
leaf_count=866035 28772 45567 549445 35571 195661 421890 737354 125419 136245 109811 240158 66114 273039 290197 80044 72258 372393 342835 231849 952136 323656 34102 27467 608555 30849 234381 58851 21750 369547 34994
internal_value=-0.000281097 0.0396036 -0.0289772 0.0214064 0.0578416 -0.0126278 -0.0403013 -0.00454888 -0.0204333 0.0124059 -0.0340193 0.0307425 0.00853843 0.0284885 0.00745575 0.0226712 0.0642814 0.046637 0.0270516 -0.0461016 -0.00810979 0.0449931 -0.00599344 -0.0360176 0.0430216 0.00643403 0.0594924 0.0314386 -0.0232305 0.0246153
internal_weight=435940 182410 253531 91306.8 91102.7 103745 149786 50980 52765 46489.2 71907.3 44817.6 33767.3 37866.6 11662.6 12721.9 57852.3 33250.5 35323.3 77878.2 39317.4 29595.1 8562.52 60321.1 6950.99 29858.9 22244.1 6117.23 44202.5 3908.42
internal_count=7916945 2478994 5437951 1429585 1049409 2033713 3404238 951009 1082704 775005 1586067 654580 571186 557617 205463 203819 626905 422504 522046 1818171 745546 376937 163712 1345909 96963 507420 254512 94008 918992 63766
is_linear=0
shrinkage=0.05


Tree=7
num_leaves=31
num_cat=0
split_feature=2 2 2 2 2 2 2 1 1 1 1 3 1 0 3 0 2 2 2 0 2 1 1 2 2 2 2 0 2 0
split_gain=178795 19838.2 18300.1 2617.17 2523.04 2218.16 2055.68 847.58 790.277 617.258 582.395 398.9 360.728 350.207 321.837 275.893 264.295 258.704 249.984 247.823 247.029 244.342 238.86 222.917 197.633 194.634 184.938 178.354 178.107 174.175
threshold=0.0015471854234328172 0.0021293937869845997 0.0011008829046875222 0.0013155193167844795 0.0026075206763538062 0.0017994544727803388 0.00083032235052802911 66.666614814855251 62.499994531250515 62.809904637664609 66.666660444445142 -0.18024324905767583 29.99790014698937 0.0045104545940691807 0.010702377114995946 0.0059297843865822051 0.0033259818361174196 0.0014376954038270075 0.00095517203713813904 0.0040000000000001154 0.0006571051627826803 28.205118080214358 76.547116838407774 0.0012226756685580927 0.0024125928226567191 0.0057201113382086268 0.0016556015779779184 0.0029988235386353428 0.0019869151653465682 -0.0030965385216489834
decision_type=2 2 2 2 2 2 2 2 2 2 2 2 2 2 2 2 2 2 2 2 2 2 2 2 2 2 2 2 2 2
left_child=2 5 6 7 14 9 20 23 17 12 18 28 29 -10 24 -11 21 -5 -8 -9 -1 -6 -13 -4 -3 -18 -14 -12 -7 -2
right_child=1 4 3 8 16 11 10 19 13 15 27 22 26 -15 -16 -17 25 -19 -20 -21 -22 -23 -24 -25 -26 -27 -28 -29 -30 -31
leaf_value=-0.049039380974974185 0.029895066956083072 0.035451931983848349 -0.025830546302247216 -0.011433454636700742 0.068497977445548766 0.019706984581062986 -0.039607545617902425 -0.0099793629581308822 0.0030519560095742626 0.019039399941471497 -0.0268579084004756 0.031101056184130577 0.0016697234414070957 0.025764147514081584 0.048144682433589027 0.044007252101095844 0.063037007847973989 -0.0032491453445946377 -0.033074426381177073 0.011562867938464595 -0.043133051989711992 0.053113898631472471 0.052318888363035491 -0.018748985132824709 0.04459583105554616 0.05275349056792366 0.0096113410247151369 -0.011399213250073209 0.028362170917714237 0.011587048630909777
leaf_weight=35006.318302750587 2464.8940536230803 17396.973877482116 26570.271041557193 21523.60284127295 2856.2035211697221 15364.944288432598 26536.498037587851 7350.440677460283 9681.059947066009 8804.3982517644763 9177.2981663160026 16771.605556190014 13512.620679225773 2058.0657519735396 13111.040646061301 1265.4401222504675 25595.547706395388 17511.185224752873 32667.793560288846 1631.3655421957374 35815.914671462029 26791.945225954056 1440.3338589370251 19102.15529403463 8949.0667167678475 5609.68903773278 16023.852106586099 2342.0110132955015 9693.9104058593512 2746.7507258467376
leaf_count=866035 39336 225978 575511 421890 30333 234032 627145 144467 172572 138191 197066 234343 236740 32891 153668 18189 249127 323656 742614 28722 861064 288521 17991 396066 108341 58924 263353 48252 136545 45382
internal_value=-0.000299401 0.0363869 -0.0282848 -0.0125144 0.0515912 0.019073 -0.0400311 -0.0201075 -0.00434111 0.0112769 -0.0340013 0.0271478 0.00811808 0.00703378 0.0417434 0.022177 0.0579765 -0.00776194 -0.0360027 -0.00606665 -0.0460525 0.0545959 0.0327791 -0.0228687 0.0385579 0.0611884 0.00597814 -0.023715 0.0230552 0.020246
internal_weight=435373 188399 246974 105428 100310 88088.8 141546 54654.2 50773.9 44818 70723.6 43270.8 34748.1 11739.1 39457.1 10069.8 60853.4 39034.8 59204.3 8981.81 70822.2 29648.1 18211.9 45672.4 26346 31205.2 29536.5 11519.3 25058.9 5211.64
internal_count=7916945 2478994 5437951 2095775 1114892 1364102 3342176 1144766 951009 741191 1615077 622911 584811 205463 487987 156380 626905 745546 1369759 173189 1727099 318854 252334 971577 334319 308051 500093 245318 370577 84718
is_linear=0
shrinkage=0.05


Tree=8
num_leaves=31
num_cat=0
split_feature=2 2 2 2 2 2 2 1 1 1 1 3 1 2 3 3 3 2 2 3 1 0 0 2 2 0 0 2 1 1
split_gain=160751 18542.4 15767 2573.47 2078.56 1928.99 1784.13 781.189 631.542 615.838 574.165 363.705 339.463 316.267 313.178 290.709 264.017 254.183 250.06 242.461 229.756 209.643 221.64 182.249 181.864 172.269 164.028 159.719 154.645 150.358
threshold=0.0015118576593461917 0.0020647916901083033 0.0011008829046875222 0.0025211129792134025 0.00083032235052802911 0.0013088442657055519 0.0017603537402239857 63.29112802435683 62.809904637664609 74.999912500102326 66.666660444445142 -0.16574257199814993 27.180863827301234 0.0031162212855166721 -0.085420288491412102 -0.020232799656141612 0.088940694977920287 0.0006571051627826803 0.00095517203713813904 0.077080970057381723 75.99999574400114 -0.0041055441701791087 0.0092370548734715969 0.0016556015779779184 0.0012226756685580927 0.0026455026455026735 0.0051856009156032732 0.0013920226325445568 69.677400474512964 80.612243746355958
decision_type=2 2 2 2 2 2 2 2 2 2 2 2 2 2 2 2 2 2 2 2 2 2 2 2 2 2 2 2 2 2
left_child=2 6 4 14 17 7 8 24 12 15 18 -8 -2 21 -3 27 -9 -1 -6 -10 -13 -5 -23 -14 -4 -12 -11 -7 -19 -18
right_child=1 3 5 13 10 9 11 16 19 26 25 20 23 -15 -16 -17 29 28 -20 -21 -22 22 -24 -25 -26 -27 -28 -29 -30 -31
leaf_value=-0.048788346686081563 0.019252445463664031 0.0330052271805149 -0.025682051633138206 0.055862683101326666 -0.039049550370366316 -0.01434170842045763 0.018891852731998351 -0.013619030876212813 0.013594176845112183 0.0096778394152679092 -0.026705261219488054 0.026476733415638543 0.00062796706138775957 0.054901449446497323 0.041876571918995478 -0.0011045031877247194 -0.0023771985819502485 -0.043950022417735927 -0.032405267742747094 0.029366324401536179 0.046737509818563526 0.044585031895912113 0.064585928824872962 0.0083825873804103355 -0.018857399317200905 -0.01263733435907741 0.037108263918507627 -0.0067688147126614782 -0.033902526971252622 0.022594530954910805
leaf_weight=33466.086213160306 3951.4625859297812 26603.084302723408 24275.095879167318 6735.3250019550323 25593.934855479747 12197.510332953185 25244.443175844848 7581.3302185535431 6616.2278110049665 2434.7021958194673 8329.8318949341774 16386.934493113309 19068.561293244362 39290.643815904856 15890.890171952546 13485.00572476536 3171.1642564721406 30041.065691009164 31700.058441367 3857.2842296548188 1529.8786798492074 21890.532460927963 1478.689581207931 12572.288810446858 16327.496515735984 2945.6989403627813 702.17542200535536 16223.252832103521 4389.1954704336822 744.27257236838341
leaf_count=866035 63865 336221 538219 70422 627145 241894 375809 153304 106230 41515 183297 228682 337289 372393 184786 256840 62992 753630 742614 56365 18613 233074 15359 206658 344854 62021 10330 305477 107434 13578
internal_value=-0.000313401 0.0324554 -0.0285245 0.046013 -0.039484 -0.0131284 0.0154543 -0.0196797 0.0086106 -0.00555075 -0.0333436 0.0227586 0.00543483 0.0519468 0.0363227 -0.00715032 -0.00817381 -0.0456853 -0.0353734 0.0194029 0.0282068 0.0480906 0.0458506 0.00370922 -0.0229377 -0.0230301 0.015818 -0.0100189 -0.0426692 0.0023696
internal_weight=434724 201116 233608 111889 136466 97142 89227.1 52099.4 46065.8 45042.6 68569.5 43161.3 35592.3 69395.2 42494 41905.8 11496.8 67896.3 57294 10473.5 17916.8 30104.5 23369.2 31640.9 40602.6 11275.5 3136.88 28420.8 34430.3 3915.44
internal_count=7916945 2605766 5311179 1212255 3342176 1969003 1393511 1112947 770407 856056 1615077 623104 607812 691248 521007 804211 229874 1727099 1369759 162595 247295 318855 248433 543947 883073 245318 51845 547371 861064 76570
is_linear=0
shrinkage=0.05


Tree=9
num_leaves=31
num_cat=0
split_feature=2 2 2 2 2 2 2 1 1 1 1 3 3 2 1 1 2 0 0 1 2 2 1 0 1 0 0 1 1 0
split_gain=144918 15531.6 15381.7 2141.06 2113.03 1782.21 1549.68 747.403 682.662 588.363 522.448 339.769 320.432 312.643 308.255 344.393 257.63 255.073 316.225 248.11 210.803 198.84 187.443 185.279 181.19 167.26 164.499 161.424 157.766 157.356
threshold=0.0015118576593461917 0.0020647916901083033 0.0010753402419479863 0.0012826989688880495 0.0024848529113485414 0.00080911670461932862 0.0017733196569188778 74.999912500102326 60.703035715614654 71.999998319999946 62.809904637664609 -0.20762136023563063 -0.049779469640433699 0.0028843638410019764 60.416490451902874 29.213482686529591 0.0013847808138527766 -0.0039001560062402736 0.0053868799847019986 60.416490451902874 0.00058314243582880158 0.00095517203713813904 24.70206425409253 0.0051856009156032732 57.142819047644828 0.0092370548734715969 0.0029988235386353428 23.584903947134581 36.363631735537901 -0.0041055441701791087
decision_type=2 2 2 2 2 2 2 2 2 2 2 2 2 2 2 2 2 2 2 2 2 2 2 2 2 2 2 2 2 2
left_child=2 6 5 7 17 20 9 19 16 11 21 -2 -10 25 15 -8 -5 -3 -19 -4 -1 -7 -13 -16 -24 29 -12 -18 -15 -6
right_child=1 4 3 8 13 10 14 -9 12 -11 26 22 -14 28 23 -17 27 18 -20 -21 -22 -23 24 -25 -26 -27 -28 -29 -30 -31
leaf_value=-0.049663437899663647 0.0028528435116104665 0.041142996136863799 -0.024203037334310406 -0.014169140249071897 0.049194041356269307 -0.039269450427630768 0.031817448372051312 0.0014998691932234299 -0.0028382152861736254 0.025162456261747103 -0.027984110345959431 0.027058902343545844 0.012808890952799586 0.05465440152312695 0.025182359834179626 0.016762969560345242 0.010086220240218467 0.029129927447157752 0.043142556010524011 -0.015498343703958393 -0.043529329200066934 -0.03293961410017756 0.0067023229770738968 0.040617037471187688 0.018118223008699221 0.06190787175799696 -0.013916131356226939 -0.0071055696834381723 0.047889144060781472 0.039343077492230941
leaf_weight=22061.865117587149 25424.531555555761 7814.1084096059203 37431.939363438636 17325.185804579407 5236.6828688159585 26385.823217533529 4442.5821033194661 3542.8416518494487 8275.8967829197645 4728.8986109904945 12482.62863701582 1808.1252833493054 5411.4251595586538 11010.185915410519 8670.1494067013264 26221.332005687058 1474.3378372527659 28576.599865868688 4686.5023336037993 10477.464508157223 38356.784384228289 23418.099294118583 11655.871949091554 2506.4216401949525 4952.6976293735206 1056.825445741415 2492.9832509420812 18481.717541243881 39655.836006455123 17947.157446682453
leaf_count=597165 434183 91251 843517 354948 53889 671563 60248 69026 153353 67959 292171 27885 93526 100481 120695 377890 27426 346076 53734 223380 1010047 566506 195450 31281 77920 10685 54528 354023 366208 189931
internal_value=-0.000323891 0.0300174 -0.027836 -0.0134655 0.0421273 -0.0395921 0.0144822 -0.0206606 -0.00620206 0.00840649 -0.0338309 0.00659912 0.00334803 0.047125 0.0215351 0.0189441 -0.00970825 0.0330139 0.0311042 -0.0222994 -0.0457692 -0.0362931 0.0117709 0.0286437 0.0101066 0.0424549 -0.0256422 -0.00583545 0.0493593 0.0415682
internal_weight=434014 206395 227619 102421 115984 125198 90410.6 51452.2 50968.6 48570.1 64779.5 43841.2 13687.3 74906.7 41840.5 30663.9 37281.2 41077.2 33263.1 47909.4 60418.6 49803.9 18416.7 11176.6 16608.6 24240.7 14975.6 19956.1 50666 23183.8
internal_count=7916945 2605766 5311179 2119199 1212255 3191980 1393511 1135923 983276 803397 1584768 735438 246879 721194 590114 438138 736397 491061 399810 1066897 1607212 1238069 301255 151976 273370 254505 346699 381449 466689 243820
is_linear=0
shrinkage=0.05


Tree=10
num_leaves=31
num_cat=0
split_feature=2 2 2 2 2 2 2 1 0 1 1 3 2 1 1 3 0 2 2 1 1 1 2 2 1 1 3 2 2 0
split_gain=130777 14384.5 13619.4 1768.6 1754.36 1599 1537.64 701.734 624.512 522.697 516.425 398.8 262.858 251.969 240.915 237.856 229.951 225.822 214.262 188.005 183.281 178.171 159.457 157.557 156.26 180.562 152.518 150.061 146.786 143.611
threshold=0.001478132878174838 0.0020444891163497836 0.0010544005659881902 0.0012638968189172676 0.0025211129792134025 0.0017004591883954352 0.00077401642955110051 75.409835892502542 0.0032753645991911999 68.749939843802679 62.499994531250515 -0.18024324905767583 0.0033259818361174196 24.137445511544282 59.999999180000486 0.58017965369500024 0.0082838569406014102 0.00092931340634241108 0.0013701459277264232 77.777656790311809 28.205118080214358 74.096382105168189 0.00057372659661561714 0.0011765347683900306 28.571371428685826 72.727268099173799 0.088940694977920287 0.0071044464181596071 0.0018135339183023424 0.0051856009156032732
decision_type=2 2 2 2 2 2 2 2 2 2 2 2 2 2 2 2 2 2 2 2 2 2 2 2 2 2 2 2 2 2
left_child=2 5 6 7 15 10 22 14 18 17 13 28 20 -2 23 24 -13 -8 -5 -12 -6 -10 -1 -4 -3 -26 -16 -14 -7 -9
right_child=1 4 3 8 12 11 9 29 21 -11 19 16 27 -15 26 -17 -18 -19 -20 -21 -22 -23 -24 -25 25 -27 -28 -29 -30 -31
leaf_value=-0.049681276819538184 0.017283314681994549 0.039561773355024976 -0.027089436369985443 -0.013048595668638857 0.050607099005172788 0.0099603788980842257 -0.039437438691850485 -0.002641044305166762 0.002347366209628084 -0.023574204357161704 0.011682008247955797 0.022380502029506519 0.047174027247452746 0.0010208158982801187 -0.019787625638201533 0.038051021375166638 0.04994185508416981 -0.033051681765120099 -0.0059438506254769555 0.028418276522404945 0.039135669653995002 0.021876583446897028 -0.04394619895895123 -0.020455359714366947 0.027040223210209099 0.040305725886861987 -0.0068695200310245411 0.035403682269220978 0.017189348084741898 0.0293472075779675
leaf_weight=20025.115473754704 2583.4302437677979 3241.7192951887846 21873.175566509366 21924.999562889338 3858.848001010716 11068.403512194753 29278.901910264045 2980.9838001877069 3887.718851659447 9239.2566275596619 8113.8544495813549 21632.039929132909 32406.513295441866 30523.289040341973 7614.9936005398631 9089.3593880161643 784.22384871914983 26263.356746967882 20565.654222581536 2115.4985667094588 35649.206806764007 1669.4154328666627 30702.8196083121 15148.00145194307 32418.194855287671 2785.6017331406474 3264.345337100327 2954.7874429523945 19209.193905234337 397.67675044760108
leaf_count=567515 41542 37229 520399 453528 36413 174462 776222 59796 74535 215668 128117 296009 280300 535804 167557 98943 8803 658883 395076 30212 346929 26362 848141 341569 386340 31678 70252 27888 273128 6953
internal_value=-0.000318136 0.0269245 -0.028017 -0.014441 0.0382893 0.0124384 -0.039691 -0.0208993 -0.00754837 -0.0345861 0.00532383 0.0182894 0.043059 0.00228983 -0.0224527 0.030777 0.0233447 -0.0364179 -0.00960987 0.0151432 0.0402561 0.00821413 -0.0462102 -0.024375 0.0290572 0.0280899 -0.0159115 0.0461905 0.0145467 0.00112405
internal_weight=433271 218434 214836 99327 122404 96029.9 115509 51279.2 48047.8 64781.5 43336.1 52693.9 74869.4 33106.7 47900.5 47534.9 22416.3 55542.3 42490.7 10229.4 39508.1 5557.13 50727.9 37021.2 38445.5 35203.8 10879.3 35361.3 30277.6 3378.66
internal_count=7916253 2733797 5182456 2116027 1245720 1488077 3066429 1166526 949501 1650773 735675 752402 691530 577346 1099777 554190 304812 1435105 848604 158329 383342 100897 1415656 861968 455247 418018 237809 308188 447590 66749
is_linear=0
shrinkage=0.05


Tree=11
num_leaves=31
num_cat=0
split_feature=2 2 2 2 2 2 2 1 1 1 1 3 3 2 1 3 1 1 0 0 1 2 2 0 1 2 1 0 2 0
split_gain=118475 12943.6 12626.4 1740.9 1710.6 1400.86 1258.44 726.971 583.445 477.834 471.481 328.965 281.966 274.544 252.936 241.149 238.471 220.673 299.766 195.685 189.566 181.942 180.706 177.765 165.078 164.709 162.861 177.483 154.609 149.616
threshold=0.0014698932236572842 0.0010387356591869746 0.002005899623933763 0.0012638968189172676 0.0024471818079855796 0.00076829233591053112 0.0017004591883954352 74.999912500102326 63.636360936639193 59.999966400018558 66.666660444445142 -0.11186748087961441 -0.0099654831205852178 0.0029574003655564438 29.99790014698937 0.088940694977920287 59.999720001306393 66.666660444445142 -0.0026357406431207204 0.0059297843865822051 18.048685275091092 0.00092931340634241108 0.001149130036717666 -0.004776879908847286 29.213482686529591 0.0013701459277264232 29.562452150061251 0.010762332184836356 0.00057372659661561714 -0.0073753508258257985
decision_type=2 2 2 2 2 2 2 2 2 2 2 2 2 2 2 2 2 2 2 2 2 2 2 2 2 2 2 2 2 2
left_child=1 5 6 7 17 28 9 16 20 14 21 -8 -10 26 29 -11 22 18 24 -13 23 -7 -3 -5 -4 -22 -6 -28 -1 -2
right_child=2 3 4 8 13 10 11 -9 12 15 -12 19 -14 -15 -16 -17 -18 -19 -20 -21 25 -23 -24 -25 -26 -27 27 -29 -30 -31
leaf_value=-0.049484349277592779 0.044917991658371514 -0.027668505814236483 0.041844567780473949 0.045094394234433108 0.045519604773526956 -0.039146367323278815 0.013098047475809045 0.00016128819987433867 -0.0036122820083626613 0.0079365392805624286 -0.024678337394270319 0.019858631086189835 0.013523283259381312 0.041475729340225892 -0.0003886764034709239 0.022290763852900297 -0.016093087327952563 0.035209292958005081 0.022947793905166502 0.036857091020120893 -0.014311162880349823 -0.033054389993011406 -0.020808513973429345 -0.0016857304455515565 0.028847985650901378 -0.0074333869831131189 0.033651610750146568 0.057154499094417534 -0.04366787935885072 0.0094154531752587336
leaf_weight=19122.384754028171 315.33094552159309 19068.695032902062 3297.9399345740676 273.80527931079268 3662.5225236937404 28353.888944737613 29405.146397046745 3879.4549431093037 6030.2679573148489 8341.9855032712221 10121.179035544395 17110.420456372201 3988.6156037934124 50723.373307026923 27049.805716872215 4506.6476920992136 11819.625771686435 7481.9315234348178 27743.777616165578 1879.0084075778723 18443.409029107541 21587.686324246228 19332.593058738858 786.17514761537313 9427.8347410783172 16485.651356585324 27991.499053694308 826.99027685075998 28382.73712932691 5037.8622298203409
leaf_count=567515 4945 470430 35821 5502 34893 781397 432653 77340 112431 135519 243805 232129 68221 433814 477420 65820 264836 83881 328410 22253 391972 561627 448252 15948 109375 323771 277197 7696 817753 83627
internal_value=-0.000323746 -0.0275513 0.0248296 -0.014612 0.0348425 -0.0395933 0.010806 -0.0206925 -0.00746204 0.00481192 -0.0345188 0.0164108 0.00320955 0.0391774 0.00157653 0.0129713 -0.0223034 0.0273207 0.0258622 0.0215406 -0.0104329 -0.0365131 -0.0242149 0.0103981 0.0322161 -0.011065 0.0355882 0.0343261 -0.0460092 0.0115067
internal_weight=432478 207676 224802 100108 131156 107568 93646.2 54100.4 46007.9 45251.6 60062.8 48394.6 10018.9 83204.4 32403 12848.6 50220.9 47951.5 40469.6 18989.4 35989 49941.6 38401.3 1059.98 12725.8 34929.1 32481 28818.5 47505.1 5353.19
internal_count=7916253 5150800 2765453 2178703 1311087 2972097 1454366 1260858 917845 767331 1586829 687035 180652 753600 565992 201339 1183518 557487 473606 254382 737193 1343024 918682 21450 145196 715743 319786 284893 1385268 88572
is_linear=0
shrinkage=0.05


Tree=12
num_leaves=31
num_cat=0
split_feature=2 2 2 2 2 2 1 2 1 1 1 1 1 2 0 3 1 0 0 0 1 2 0 3 0 2 1 0 1 3
split_gain=107599 13410.2 10043.5 1658.59 1490.95 1419.56 1074.54 950.398 535.006 466.441 346.594 343.849 238.939 237.59 233.856 220.233 200.515 199.882 199.64 194.097 183.453 182.341 172.262 169.849 165.273 159.506 144.393 139.418 138.374 128.107
threshold=0.0014071002020213492 0.0019694447348847515 0.0010387356591869746 0.0024471818079855796 0.0016556015779779184 0.00076829233591053112 75.409835892502542 0.0012285802524502796 63.636360936639193 66.666660444445142 57.142819047644828 32.499994312501101 18.048685275091092 0.0033259818361174196 0.0051856009156032732 -0.20762136023563063 60.416490451902874 0.0066079353985779585 0.0032753645991911999 0.0040000000000001154 31.578945041551297 0.00092931340634241108 -0.0046273683158681292 -0.16574257199814993 -0.0068736173761698707 0.00057372659661561714 18.048685275091092 0.0075920622299761051 72.727268099173799 0.088940694977920287
decision_type=2 2 2 2 2 2 2 2 2 2 2 2 2 2 2 2 2 2 2 2 2 2 2 2 2 2 2 2 2 2
left_child=2 4 5 15 8 25 7 16 12 21 11 24 22 20 -8 -3 -4 -12 26 -10 -5 -7 -2 -14 -6 -1 -9 -17 -22 -18
right_child=1 3 6 13 10 9 14 18 19 -11 17 -13 23 -15 -16 27 29 -19 -20 -21 28 -23 -24 -25 -26 -27 -28 -29 -30 -31
leaf_value=-0.049287329198313017 0.045926476863098052 0.022121497784579697 -0.024483313312594623 0.041402328209695943 0.040578756091662435 -0.038598165349004121 0.00054477977400902691 0.0064461737419683231 0.0075822645055260516 -0.023993276038001155 0.017900038278765518 0.0083401323502415425 -0.0041454353480575934 0.039099847653955827 0.028448904429374883 0.027420516590662938 -0.02004038939306536 0.035930821740130764 0.00028370662750541682 0.022493470852406904 0.031583149311307443 -0.032398169601442317 0.0067922897470379315 0.0027111827166909999 0.01766569277657681 -0.043248372520598211 -0.013317050695595439 0.041537455540849109 0.041340644681464922 -0.0073937490827304265
leaf_weight=18260.666587743908 441.07984537631273 30334.302112072706 32375.257657665759 6800.6027106940746 888.60434047877789 27344.498621609062 4980.7088292092085 950.41668818518519 8137.3114522472024 9895.4761765040457 15947.296310279518 26793.588262025267 23661.9086625278 37680.404834598303 884.13094666600227 21849.729002296925 6632.7874728962779 1700.9816274531186 3199.8722163513303 2982.2109645269811 37139.335934385657 20940.283645994961 775.78853872045875 14608.039537735283 6883.0734209753573 27253.819954663515 33518.978212889284 1901.1193708255887 4027.4583550319076 2868.4583636298776
leaf_count=567515 7105 362491 800302 61199 11582 781397 96172 20084 131883 243805 223940 398552 434070 308188 13886 241508 152790 20181 63444 42757 347299 561627 13107 262449 97807 817753 713565 18850 36914 64031
internal_value=-0.000327289 0.0217148 -0.0285992 0.0317997 0.00800927 -0.039057 -0.0159027 -0.0174255 0.00189348 -0.0338826 0.0139368 0.0110259 -0.000834639 0.0361286 0.00475136 0.0249447 -0.022609 0.0196379 -0.0116631 0.0115814 0.0337945 -0.0359093 0.0209773 -0.00152819 0.0202855 -0.0456712 -0.0127721 0.0285505 0.0325378 -0.0162223
internal_weight=431658 242553 189105 139733 102820 103695 85410.6 79545.8 50606.3 58180.3 52213.5 34565.3 39486.8 85647.8 5864.84 54085.2 41876.5 17648.3 37669.3 11119.5 47967.4 48284.8 1216.87 38269.9 7771.68 45514.5 34469.4 23750.8 41166.8 9501.25
internal_count=7916253 3019882 4896371 1376449 1643433 2972097 1924274 1814216 891371 1586829 752062 507941 716731 753600 110058 622849 1017123 244121 797093 174640 445412 1343024 20212 696519 109389 1385268 733649 260358 384213 216821
is_linear=0
shrinkage=0.05


Tree=13
num_leaves=31
num_cat=0
split_feature=2 2 2 2 2 2 1 2 1 1 3 2 1 1 3 1 3 0 2 1 2 0 1 1 0 1 1 0 3 0
split_gain=97962.5 11580.9 9821.04 1599.02 1437 1138.15 995.784 903.576 462.253 446.705 299.92 239.37 229.746 261.841 221.273 213.385 211.377 204.739 200.999 182.329 164.499 158.365 156.483 145.611 143.364 131.856 128.978 127.005 126.717 123.139
threshold=0.0014071002020213492 0.0019358659812909512 0.0010387356591869746 0.0024125928226567191 0.00076829233591053112 0.0016342774402660625 75.409835892502542 0.0012051835298897738 71.518228660364912 59.999966400018558 0.1261813185629416 0.0028843638410019764 66.666660444445142 27.450972856595865 -0.068174609941506162 28.205118080214358 -0.2377650933075777 0.0051856009156032732 0.00092931340634241108 58.333265277857414 0.00057372659661561714 0.0059297843865822051 59.999966400018558 57.272484298551596 -0.004776879908847286 23.584903947134581 77.142854057143225 -0.010316269257207964 0.22553255354856017 0.010762332184836356
decision_type=2 2 2 2 2 2 2 2 2 2 2 2 2 2 2 2 2 2 2 2 2 2 2 2 2 2 2 2 2 2
left_child=2 5 4 12 20 9 7 19 18 15 23 29 13 -3 -9 24 -11 -8 -6 -4 -1 27 25 -7 -2 -16 -18 -12 -21 -5
right_child=1 3 6 11 8 10 17 14 -10 16 21 -13 -14 -15 22 -17 26 -19 -20 28 -22 -23 -24 -25 -26 -27 -28 -29 -30 -31
leaf_value=-0.049089733643879668 0.024157484829059713 0.031944066339746217 -0.024816138400952113 0.02939195316228926 -0.037599898128772506 0.0074248973836211658 0.00051728338907955395 -0.014487718238388106 -0.020280111226083371 0.0026606261416526021 0.067048735055905903 0.035183558513946896 0.029865940133169608 0.019913399054833025 0.0057908963287582604 -0.0033820296106922146 0.011310150556405978 0.026356341193898177 -0.031222328637467635 -0.020170850745672615 -0.042821276044904814 0.033028221551828912 0.0021083932771002313 0.014206238393402083 0.003323825221199696 -0.01179106526429532 0.027352619926523367 0.015771728582757681 -0.0071968740302471917 0.049173702778994133
leaf_weight=17438.250620979816 1080.7885900661349 5053.8967471420765 26219.801341820508 32719.246543109417 28367.774854850024 24659.097697753459 4983.122395504266 27644.510814979672 6131.2425998710096 6605.7603722400963 121.82117667421699 57486.981386348605 9039.8571034744382 43029.86243069917 1197.6677932702005 28683.215116128325 5140.5048482529819 906.02151991054416 21886.018665086478 7336.4582587182522 26176.729333225638 1557.6424180492759 3638.6631378605962 11658.545171465725 3499.3433931916952 9726.4003889933228 1656.6616360805929 13835.243265081197 2531.4222972132266 806.07280648499727
leaf_count=567515 17811 54518 667194 311006 834087 373820 96172 602559 153673 112827 1521 466881 98717 502617 25886 530792 81466 13886 599069 175039 817753 18199 71231 167499 61188 214084 22622 191327 58223 7071
internal_value=-0.000329026 0.020275 -0.0279191 0.0291098 -0.0385126 0.00698789 -0.0153355 -0.0168269 -0.0332411 0.00132349 0.0120877 0.0332254 0.0225528 0.0211779 -0.0118601 -0.00178176 0.00903007 0.00449252 -0.0348224 -0.0226358 -0.0453275 0.0179069 -0.00687215 0.00960182 0.00824001 -0.00986345 0.0152202 0.0162193 -0.0168426 0.0298676
internal_weight=430819 246635 184184 148136 100000 98498.6 84184.1 78294.9 56385 46666.3 51832.3 91012.3 57123.6 48083.8 42207.2 33263.3 13402.9 5889.14 50253.8 36087.7 43615 15514.7 14562.7 36317.6 4580.13 10924.1 6797.17 13957.1 9867.88 33525.3
internal_count=7916253 3019882 4896371 1440810 2972097 1579072 1924274 1814216 1586829 826706 752366 784958 655852 557135 913760 609791 216915 110058 1433156 900456 1385268 211047 311201 541319 78999 239970 104088 192848 233262 318077
is_linear=0
shrinkage=0.05


Tree=14
num_leaves=31
num_cat=0
split_feature=2 2 2 2 2 2 1 2 0 1 3 3 3 3 2 1 1 2 1 2 0 1 0 2 2 1 1 0 1 0
split_gain=89305.5 11379.3 8256.81 1455.45 1237.2 1223.75 933.024 679.98 405.346 390.586 379.772 355.169 220.344 206.25 204.587 200.994 184.509 169.576 163.446 149.361 141.11 138.459 136.271 132.928 131.005 117.632 109.835 128.988 109.598 109.408
threshold=0.0013701459277264232 0.0019186695203406098 0.0010127154575622257 0.0024125928226567191 0.00076829233591053112 0.0015752352241083492 62.499994531250515 0.0011765347683900306 0.0040000000000001154 59.999966400018558 0.088940694977920287 -0.11186748087961441 0.46515050108462069 0.020646982362076079 0.0028843638410019764 59.999966400018558 80.612243746355958 0.00057372659661561714 22.448979110785498 0.0017122353325809529 0.0025910269130421386 19.999720003919119 -0.0080346701311198015 0.0021764116587745471 0.0011710032661082857 77.142854057143225 29.562452150061251 0.0082838569406014102 66.666355557007563 -0.0039001560062402736
decision_type=2 2 2 2 2 2 2 2 2 2 2 2 2 2 2 2 2 2 2 2 2 2 2 2 2 2 2 2 2 2
left_child=2 5 4 12 17 8 7 -4 13 -6 24 19 23 -2 26 18 -12 -1 -13 -7 -11 29 -15 -3 -8 -10 -5 -28 -19 -9
right_child=1 3 6 14 9 11 10 21 25 20 16 15 -14 22 -16 -17 -18 28 -20 -21 -22 -23 -24 -25 -26 -27 27 -29 -30 -31
leaf_value=-0.048891112308494911 -0.0048825219059273357 0.017051144478867752 -0.025430228025446085 0.03562735625387032 -0.036095797665030314 0.0033344886593521614 -0.017832005820169215 0.020989835573455289 0.0091198109881905961 -0.028607072917478528 -0.001730798476691554 0.026458986185365786 0.026597129640214892 0.053781468944923319 0.032581374802659872 0.0213976068254998 0.019046568035089334 -0.043878621964301354 0.0099375251986796743 0.0097288074313839727 -0.015694535039847763 -0.015518888432994241 0.0024253013080757506 0.022410337648405446 -0.0076832219902053609 0.028642671743377496 0.025836062016345057 0.038839452834483229 -0.035086051487167723 -0.0091499377270660605
leaf_weight=16653.478296687827 27284.952773872763 27920.965612776577 28176.631266001612 3896.4937047287822 34903.849906060845 16044.232071306556 5829.3949054628611 448.26057371497154 2853.4488984830678 11426.762784466147 5544.5345383286476 1666.860857129097 13083.423409044743 130.59094778075814 58935.368229232728 7747.9630263410509 1323.5735089704394 20880.556785875931 14688.751667387784 21199.03538094461 2596.596556738019 31474.859741769731 11862.887484978884 19758.893241390586 6995.9593616239727 1057.5337365046144 28349.643508531153 2044.6616669595242 4268.6940426081419 917.16199762001634
leaf_count=567515 515221 340501 746466 34607 1044175 264046 136903 9893 48509 318054 115128 21690 137383 2204 466881 98424 23674 680380 216062 308527 67592 724428 216163 212199 143833 14151 265508 17962 137373 20801
internal_value=-0.00032919 0.0182273 -0.0283117 0.0268703 -0.038661 0.00549561 -0.0166777 -0.0197318 -0.000951887 -0.0332641 -0.007215 0.0100348 0.0208493 -0.00248037 0.0307947 0.0147638 0.00227327 -0.0449777 0.0116213 0.00697416 -0.0262162 -0.0148427 0.00298449 0.019272 -0.0122961 0.0143988 0.027724 0.0267108 -0.0423862 0.000744781
internal_weight=429966 258526 171440 153989 90729.9 104536 80710.4 61016.9 43189.4 48927.2 19693.5 61346.8 60763.3 39278.4 93226.2 24103.6 6868.11 41802.7 16355.6 37243.3 14023.4 32840.3 11993.5 47679.9 12825.4 3910.98 34290.8 30394.3 25149.3 1365.42
internal_count=7916253 3180038 4736215 1475041 2815089 1704997 1921126 1501588 796248 1429821 419538 908749 690083 733588 784958 336176 138802 1385268 237752 572573 385646 755122 218367 552700 280736 62660 318077 283470 817753 30694
is_linear=0
shrinkage=0.05


Tree=15
num_leaves=31
num_cat=0
split_feature=2 2 2 2 2 2 2 1 1 1 1 1 1 3 1 1 0 0 1 2 2 1 3 3 1 1 0 0 2 2
split_gain=81515 9729.19 8094.62 1305.22 1095.2 1082.9 957.57 456.173 450.882 390.378 371.34 331.353 291.378 206.037 204.425 195.658 268.476 189.471 185.871 169.647 168.782 164.552 161.705 136.969 135.727 133.45 132.609 127.201 109.45 101.957
threshold=0.0013701459277264232 0.0019186695203406098 0.00099170640947601253 0.0023781585588270922 0.0015846148163318448 0.00076829233591053112 0.0011710032661082857 63.29112802435683 73.260471113312761 68.421027423833053 61.764648659223326 57.142819047644828 32.499994312501101 -0.11992932026595086 23.076840236983717 66.666660444445142 -0.0028479161917363545 0.0053868799847019986 33.332555573702706 0.0031162212855166721 0.00058314243582880158 53.846148047338652 0.18163559380574301 -0.020232799656141612 23.076840236983717 32.499994312501101 -0.0032356714051681164 -0.0027891795909904533 0.0012638968189172676 0.0017476522588374059
decision_type=2 2 2 2 2 2 2 2 2 2 2 2 2 2 2 2 2 2 2 2 2 2 2 2 2 2 2 2 2 2
left_child=2 4 5 15 10 20 8 24 21 -7 14 12 26 -9 27 16 25 -13 -5 23 -1 -4 -12 -20 -8 -3 -6 -2 -26 -14
right_child=1 3 6 18 11 9 7 13 -10 -11 22 17 29 -15 -16 -17 -18 -19 19 -21 -22 -23 -24 -25 28 -27 -28 -29 -30 -31
leaf_value=-0.048492183274330913 0.021132809053942058 0.030086067841857102 -0.026609972695371492 0.033311450560040194 0.021517385619591545 -0.035273750639529797 -0.0025777313848984896 -0.0088418137208152673 -0.0058970765651067255 -0.022060935379033766 0.0028646963643593685 0.012766223877112176 0.0017923575883242024 0.0053471632638790343 -0.0044406778635153916 0.025601465469631324 0.015348569414590108 0.026169281586564921 0.023242599482150732 0.029719129124533113 -0.041916350082514167 -0.019566621954454411 0.015390837805360068 0.029418153328233405 -0.018455939040137474 0.019929603041747124 0.0093606998497312421 -0.0021289040597884164 -0.01255951508271274 0.0075884122330666355
leaf_weight=16772.673266492784 1318.951932311058 4991.0413858294487 23147.220005698502 16051.276059292257 4077.0399903729558 36368.741046631709 2234.0652055256069 5716.2732471004128 3762.2337478622794 6605.6685574911535 7768.9533568248153 17389.463972248137 15588.501293573529 4631.3957449421287 31016.469102941453 9322.2657335624099 34984.706373766065 3108.0706051401794 28547.364818625152 40878.535246044397 23332.651535091922 12921.633753024042 3854.9479619525373 13098.316407337785 14845.690956983715 9188.4725676998496 4987.5361276194453 1059.9984679184854 16749.339805170894 14782.539149038494
leaf_count=597620 22622 52032 635287 129866 55731 1126778 51038 118506 82195 176406 132970 245418 255070 86845 594927 98765 403153 37672 261640 313072 788713 335918 57863 112760 365036 103532 73366 19060 374355 209353
internal_value=-0.000401198 0.0170016 -0.0276909 0.0248776 0.00521506 -0.0387574 -0.0167467 -0.0116779 -0.0223686 -0.0332428 -0.000678177 0.00964181 0.00696148 -0.00249113 -0.00335728 0.0189601 0.0177009 0.0147985 0.0283885 0.027431 -0.0446665 -0.0240867 0.00701886 0.0251849 -0.0144879 0.0235046 0.0148285 0.010768 -0.0153301 0.00461348
internal_weight=429102 262014 167088 157062 104952 83079.7 84007.9 44176.8 39831.1 42974.4 45019.3 59933.2 39435.6 10347.7 33395.4 58486.5 49164.2 20497.5 98575.5 82524.2 40105.3 36068.9 11623.9 41645.7 33829.1 14179.5 9064.58 2378.95 31595 30371
internal_count=7917569 3178872 4738697 1474820 1704052 2689517 2049180 995780 1053400 1303184 827442 876610 593520 205351 636609 657482 558717 283090 817338 687472 1386333 971205 190833 374400 790429 155564 129097 41682 739391 464423
is_linear=0
shrinkage=0.05


Tree=16
num_leaves=31
num_cat=0
split_feature=2 2 2 2 2 2 2 1 1 3 1 3 1 3 3 2 1 1 1 1 2 1 1 2 1 2 0 1 3 3
split_gain=74477.5 8478.97 7919.08 1095.38 1058.1 1040.94 909.158 443.583 411.35 387.514 384.631 264.221 246.538 196.042 192.691 173.786 141.848 141.182 133.105 132.769 124.32 123.518 145.98 122.546 120.463 119.122 105.445 104.678 103.207 102.778
threshold=0.0013701459277264232 0.0019358659812909512 0.00099170640947601253 0.00076829233591053112 0.0024471818079855796 0.00161408111848282 0.0011597223698659577 63.29112802435683 66.666660444445142 -0.16574257199814993 68.421027423833053 0.088940694977920287 74.999912500102326 -0.20762136023563063 0.088940694977920287 0.00058314243582880158 31.578945041551297 59.999999180000486 21.249999628124247 33.332555573702706 0.0012638968189172676 23.076840236983717 51.724134809750488 0.0033259818361174196 59.999999180000486 0.0017994544727803388 0.0075920622299761051 71.999998319999946 0.065094215589388021 0.10134718024869115
decision_type=2 2 2 2 2 2 2 2 2 2 2 2 2 2 2 2 2 2 2 2 2 2 2 2 2 2 2 2 2 2
left_child=2 5 3 15 13 9 8 18 -4 24 -5 25 21 -3 -9 -1 -6 19 -8 -13 -20 -11 -23 29 -2 -7 -15 -17 -10 -18
right_child=1 4 6 10 16 11 7 14 28 12 -12 17 -14 26 -16 27 23 -19 20 -21 -22 22 -24 -25 -26 -27 -28 -29 -30 -31
leaf_value=-0.048281479581321368 -0.0055851403522219328 0.015881112372881236 -0.024520831743445985 -0.03466244843689846 0.031513910413681984 0.0052686674021880228 -0.0011151011730815552 -0.0077058419162733373 -0.015501764212506994 0.016837048287444249 -0.021400205086021917 0.019663868675130567 0.02088443205839146 0.020579874628006627 0.006118037298139721 -0.042616633271518559 0.022735066729272873 0.021197908880026511 -0.018008428883449838 0.0082887195999642223 -0.011912346948892294 -0.0020611461318773821 0.0071804660300009773 0.028113785015314426 0.0016671816634483321 0.01091207954581154 0.03192459234308144 -0.031346127727036044 -0.0024575722547807519 0.028117240261928397
leaf_weight=16022.546711120754 22118.888407398015 35375.454643175006 30056.41724492982 35189.774814788252 13235.161270089447 23808.375329885632 1835.4772378690541 6940.2713613770902 4063.2799119651318 1544.5967088192701 6472.577924311161 3680.0606397762895 2226.5998682938516 25753.248716317117 3958.6838972568512 20136.0320502799 32781.950064763427 5834.3411151841283 16637.857545629144 8467.6611294969916 16816.351929493248 9537.5181271918118 7741.4117464609444 35754.400372803211 7725.8266806975007 15398.71281632036 2225.2118007168174 2294.9992198292166 2419.2688800245523 12160.330387160182
leaf_count=597620 422496 399896 842034 1126778 103112 366450 42150 144693 95127 25618 176406 47948 29835 267243 73502 709564 283755 70032 418639 120262 380072 178691 132384 266283 134233 210233 20215 79149 52963 100186
internal_value=-0.000395411 0.0159393 -0.0270145 -0.0382189 0.0233482 0.00515781 -0.0161638 -0.0115018 -0.0220571 -4.36251e-05 -0.0326021 0.00978676 0.00515134 0.0183547 -0.00268478 -0.0443044 0.0267162 0.0148051 -0.0142249 0.0117347 -0.0149441 0.00329031 0.00207934 0.0259293 -0.00370775 0.00748514 0.0214822 -0.0414635 -0.0106337 0.0241914
internal_weight=428213 265370 162844 80115.9 157286 108084 82727.6 46188.6 36539 50894.8 41662.4 57189.2 21050.1 63353.9 10899 38453.6 93931.8 17982.1 35289.7 12147.7 33454.2 18823.5 17278.9 80696.7 29844.7 39207.1 27978.5 22431 6482.55 44942.3
internal_count=7917569 3178872 4738697 2689517 1440690 1738182 2049180 1059056 990124 923257 1303184 814925 366528 687354 218195 1386333 753336 238242 840861 168210 798711 336693 311075 650224 556729 576683 287458 788713 148090 383941
is_linear=0
shrinkage=0.05


Tree=17
num_leaves=31
num_cat=0
split_feature=2 2 2 2 2 2 2 0 1 1 3 1 1 2 3 3 3 1 1 0 2 2 1 0 1 3 1 1 0 0
split_gain=68071.3 7743.4 7410.29 1142.5 997.289 885.119 843.622 459.45 453.255 346.18 326.646 274.768 196.264 186.362 166.304 160.698 156.052 154.373 151.824 201.452 125.18 112.904 112.118 109.057 138.251 107.009 105.852 105.78 105.472 102.884
threshold=0.0013701459277264232 0.00095517203713813904 0.0019186695203406098 0.0011434862358408072 0.0023124664581059555 0.0015471854234328172 0.00071933084529802245 0.0023923845794808778 62.499994531250515 71.518228660364912 -0.23215420320617097 74.999912500102326 78.43136070742348 0.0028203565279464643 -0.17326870204150202 -0.22034769272758631 -0.15110237827220271 74.765861129642559 69.999902000137425 -0.0028479161917363545 0.0017004591883954352 0.00055381307162425894 12.499978125038803 -0.006134624062655413 55.555555555555706 -0.10333412344350927 19.999720003919119 32.203389728621893 -0.00088852219808321909 -0.0068736173761698707
decision_type=2 2 2 2 2 2 2 2 2 2 2 2 2 2 2 2 2 2 2 2 2 2 2 2 2 2 2 2 2 2
left_child=1 6 5 8 18 11 21 16 -3 -8 20 14 23 25 -2 -10 -5 -9 19 27 -7 -1 29 -12 -25 28 -16 -4 -6 -18
right_child=2 3 4 7 13 10 9 17 15 -11 12 -13 -14 -15 26 -17 22 -19 -20 -21 -22 -23 -24 24 -26 -27 -28 -29 -30 -31
leaf_value=-0.048626025930625108 -0.0055988582230839246 -0.0259451792403213 0.026570104517583459 -0.016048541489940601 0.023561892463619734 0.0015607668689517993 -0.035675403527676793 -0.004868702412276338 -0.01977800357944166 -0.020957398573678787 0.022086119268655779 0.01343045365854207 0.026653859835928329 0.026046484148802396 0.019991984984636269 -0.0070242719423616031 0.11481039248194298 0.010494805367498625 0.023298674413318704 0.013039933170682744 0.0074350963505323067 -0.042434976704515869 -0.010200745698002616 0.0071469096875729542 0.014442410859454698 0.025011697574703007 0.00044251527963234396 0.017084355234117169 0.017180322671182909 0.012277287479039415
leaf_weight=12965.046708326787 20626.373596303165 29698.627031158656 4488.8776266425848 25508.258033469319 11170.677044585347 16246.452752776444 35496.866833571345 6330.3614768795669 5087.0664403140545 4501.9490351323038 1972.2677246928215 2840.9454103037715 2070.0020924881101 66531.750528335571 730.57130369544029 4800.7318547479808 27.475953955203295 2204.4125102125108 6360.745017029345 33941.206926345825 20528.029547542334 17046.552959106863 14907.80164893344 17111.75645660609 10465.2763197124 16271.022862233222 13259.010244298726 8512.3068439736962 15402.226679705083 223.313173327595
leaf_count=506918 399611 872373 45479 612573 103533 271110 1196882 142784 130438 130740 26049 41896 22996 498638 12433 116416 590 37993 64671 384792 293905 634183 351698 251799 138783 138678 245470 94443 144586 5109
internal_value=-0.000388775 -0.0263392 0.0149573 -0.0165349 0.0216573 0.00466036 -0.0387731 -0.0114474 -0.0228581 -0.0340189 0.00804398 -0.00151791 0.0117704 0.0243903 -0.00274472 -0.0135858 -0.0136609 -0.000900524 0.0160494 0.0150672 0.0048399 -0.0451095 -0.00964301 0.0107278 0.0099155 0.0218183 0.00146344 0.0203595 0.019863 0.0235106
internal_weight=427328 158798 268529 88788 162679 105851 70010.4 49201.6 39586.4 39998.8 68393.8 37456.9 31619.3 109376 34616 9887.8 40666.8 8534.77 53303.1 46942.4 36774.5 30011.6 15158.6 29549.3 27577 42843.9 13989.6 13001.2 26572.9 250.789
internal_count=7917569 4738697 3178872 2269974 1474820 1704052 2468723 1150747 1119227 1327622 1004642 699410 439627 885435 657514 246854 969970 180777 589385 524714 565015 1141101 357397 416631 390582 386797 257903 139922 248119 5699
is_linear=0
shrinkage=0.05


Tree=18
num_leaves=31
num_cat=0
split_feature=2 2 2 2 2 2 2 1 1 1 1 1 1 0 1 2 1 3 1 3 3 3 2 3 0 0 2 1 0 1
split_gain=62306.9 7206.46 6863.17 1086.32 896.537 854.923 778.309 422.801 413.052 341.202 310.826 245.089 204.366 178.997 190.213 162.318 151.2 149.407 146.549 145.993 125.829 125.287 116.439 113.383 110.347 108.108 105.341 101.79 92.4617 122.692
threshold=0.0013423010801281179 0.0018573029148956693 0.00095517203713813904 0.0023124664581059555 0.0011383974180397096 0.00071933084529802245 0.0015471854234328172 62.499994531250515 68.156659861076832 71.518228660364912 60.703035715614654 59.999999180000486 32.499994312501101 0.0053868799847019986 32.203389728621893 0.0028203565279464643 57.142819047644828 -0.14340857345423572 20.512813149246963 -0.14340857345423572 0.11394363572196188 0.65614120007854637 0.00055381307162425894 -0.11992932026595086 -0.0040017632290676444 -0.0023961661341853065 0.00083032235052802911 12.499978125038803 -0.0026844577831895973 67.060217285445674
decision_type=2 2 2 2 2 2 2 2 2 2 2 2 2 2 2 2 2 2 2 2 2 2 2 2 2 2 2 2 2 2
left_child=2 6 5 13 7 22 10 -4 17 26 18 12 25 14 -3 28 -16 -6 24 -9 -12 -13 -1 -10 -2 -8 -7 -19 -5 -30
right_child=1 3 4 15 8 9 11 19 23 -11 20 21 -14 -15 16 -17 -18 27 -20 -21 -22 -23 -24 -25 -26 -27 -28 -29 29 -31
leaf_value=-0.048433470517413341 0.026430698523981416 0.02023873456058381 -0.025422777033082707 0.023923857561817894 -0.016440184462221449 -0.038278052932190942 0.016335251001254821 -0.018750468628378748 -0.0068874235011446433 -0.020311186578667248 0.0010037806933371771 0.0096314290774997813 0.00295530561619091 0.022558348351288639 0.010404264339914194 0.024299545308219074 0.016275506909873526 0.023158538719320991 -0.0054766973079004178 -0.0062645484840144917 0.011647506656332888 0.020065656850439834 -0.042007852104836402 0.0057611705858704818 -0.00040844671261963667 0.0053524965402663039 -0.032680463594732249 -0.010422604828988352 0.017282679573254533 0.02514474898268973
leaf_weight=12380.539247974753 625.61850199848413 9359.2298106327653 28190.20223897323 12970.153762802482 22964.172361861914 14700.451681738719 5016.7050374820828 5286.0432435385883 3676.3871455900371 4415.1671640146524 7883.4221159182489 13038.529148537666 33040.577377263457 6352.3341962397099 31462.291470989585 67717.365812137723 16832.089142099023 229.45837757736444 29467.241672229022 4202.3588361255825 4286.5701110996306 3691.412577599287 16375.926590260118 3419.9250923097134 987.39554501697421 4049.1896529458463 19626.139738064259 13632.91437677294 24338.045703701675 6233.2101984247565
leaf_count=506918 10600 99993 849837 112561 574824 527801 69724 138035 76521 130740 140852 181860 518049 64410 365174 498638 189341 5217 589054 102420 65975 44463 634183 62683 18282 61013 669081 335084 220164 54072
internal_value=-0.000381506 0.0136314 -0.0264479 0.0197825 -0.0166914 -0.0382428 0.003071 -0.0223499 -0.0118373 -0.0333948 -0.00202103 0.00681411 0.00477996 0.0145925 0.0137149 0.0227681 0.0124506 -0.0139658 -0.00467341 -0.0132205 0.00475276 0.0119337 -0.0447743 -0.000791688 0.0100013 0.0114299 -0.0350776 -0.00986675 0.0203865 0.0188857
internal_weight=426451 277351 149100 175265 81601.5 67498.2 102087 37678.6 43922.9 38741.8 43250.2 58836.4 42106.5 64005.9 57653.6 111259 48294.4 36826.5 31080.3 9488.4 12170 16729.9 28756.5 7096.31 1613.01 9065.89 34326.6 13862.4 43541.4 30571.3
internal_count=7917569 3304225 4613344 1604353 2144621 2468723 1699872 1090292 1054329 1327622 824763 875109 648786 718918 654508 885435 554515 915125 617936 240455 206827 226323 1141101 139204 28882 130737 1196882 340301 386797 274236
is_linear=0
shrinkage=0.05


Tree=19
num_leaves=31
num_cat=0
split_feature=2 2 2 2 2 2 2 0 1 1 0 3 1 0 1 3 1 2 1 1 0 1 2 1 1 1 2 1 3 0
split_gain=57090.5 6678.09 6373.27 1108.11 945.524 708.62 639.991 458.23 385.187 284.756 279.265 250.003 176.414 194.204 175.384 154.002 143.643 149.139 141.04 130.89 127.867 120.683 120.016 109.203 106.58 101.732 99.6627 98.7637 96.4354 93.5408
threshold=0.0013282933085138413 0.0018135339183023424 0.00092931340634241108 0.0023124664581059555 0.0011115767235600784 0.00071933084529802245 0.0015206384274002232 0.0032069645614616342 72.727268099173799 65.217351606828089 0.0041153225640383493 0.10134718024869115 75.409835892502542 -0.0030965385216489834 57.272484298551596 0.020646982362076079 24.999956250076739 0.0028843638410019764 53.846148047338652 15.789472520775663 0.0059297843865822051 57.142819047644828 0.00055381307162425894 27.450972856595865 57.142819047644828 77.777656790311809 0.0012051835298897738 64.282500160706306 -0.26578797003319937 0.002746242308494629
decision_type=2 2 2 2 2 2 2 2 2 2 2 2 2 2 2 2 2 2 2 2 2 2 2 2 2 2 2 2 2 2
left_child=2 6 5 12 8 22 10 14 18 -7 15 24 13 23 19 -2 -5 27 -4 -6 -13 -15 -1 -3 -8 -9 -21 -18 -16 -11
right_child=1 3 4 16 7 9 11 25 -10 29 -12 20 -14 21 28 -17 17 -19 -20 26 -22 -23 -24 -25 -26 -27 -28 -29 -30 -31
leaf_value=-0.048238318758088233 -0.0061414364576366362 0.024765119514902973 -0.027397591517447847 0.028063465670278079 0.0042004164201574932 -0.035928901903154599 0.0013903364006625652 -0.0017888323354271808 -0.0078850113338866691 -0.026983760890015574 0.011144824344870326 0.0090894633524368062 0.022727525582177961 0.0094447255694510637 -0.01307402767817531 0.00079371415908543455 0.017416401570787995 0.022430470789983455 -0.020502542027042228 -0.020170132621596532 0.024302815650420591 0.014505806169356209 -0.041571707844897193 0.015170440428008289 0.0069297076467148434 0.015265565208609999 -0.014160021795481518 0.023141445077604485 -0.0042518044574824457 -0.010960676486189872
leaf_weight=11823.186275668442 25792.54329482466 3923.8105529993773 20791.601951694116 7303.342942327261 765.76405574008822 26053.207287427038 26183.693037454039 3515.9220719374716 3689.3613917008042 5673.8757473323494 3318.7748507931828 16190.758490823209 4701.6759812310338 33573.711057208478 6894.3421015143394 11607.266287807375 35458.749450519681 60703.181988924742 11529.278336437419 12123.913840126246 1509.9901163987815 18144.494062677026 15736.597829276696 12143.994264177978 12992.243934318423 1163.9006745256484 16001.751303657889 9565.3691640123725 5624.6828553900123 1085.0411921516061
leaf_count=506918 520221 39178 659429 54846 18643 954995 425768 79065 90348 183227 53390 233225 46297 393571 165678 221339 311130 437666 342800 337918 17318 203424 634183 136551 193700 19544 395249 81793 127315 32840
internal_value=-0.000373719 0.0126173 -0.0261888 0.0181871 -0.0171204 -0.038521 0.00202977 -0.0123775 -0.0231909 -0.0335565 -0.00275558 0.00545564 0.0133617 0.012712 -0.0140535 -0.00398907 0.0212816 0.0208132 -0.024938 -0.0161954 0.0103873 0.0112203 -0.0444317 0.0175135 0.0032274 0.0024527 -0.0167508 0.0186327 -0.00911028 -0.0244115
internal_weight=425586 283114 142472 185518 82100.5 60371.9 97595.3 46090.3 36010.2 32812.1 40718.6 56876.7 72487.7 67786 41410.5 37399.8 113031 105727 32320.9 28891.4 17700.7 51718.2 27559.8 16067.8 39175.9 4679.82 28125.7 45024.1 12519 6758.92
internal_count=7917569 3369417 4548152 1704456 2235989 2312163 1664961 1143412 1092577 1171062 794950 870011 819021 772724 1044803 741560 885435 830589 1002229 751810 250543 596995 1141101 175729 619468 98609 733167 392923 292993 216067
is_linear=0
shrinkage=0.05


Tree=20
num_leaves=31
num_cat=0
split_feature=2 2 2 2 0 2 2 2 1 1 0 0 0 0 1 2 3 0 3 1 1 1 0 2 0 1 3 1 1 1
split_gain=52186.3 6777.79 5624.22 884.28 802.07 800.302 651.87 599.149 347.925 302.237 210.111 207.826 180.421 166.977 160.012 160.005 155.781 153.803 129.53 117.807 139.882 113.165 104.741 96.1591 93.2373 124.993 90.8594 89.446 85.1466 82.1155
threshold=0.0013022827329385118 0.0018423523920169385 0.00091931230274588667 0.0022575557534203834 0.0022642381334355703 0.0015206384274002232 0.0006571051627826803 0.0011115767235600784 71.518228660364912 66.666660444445142 0.0045104545940691807 0.004990934720859209 0.0075920622299761051 -0.0068736173761698707 59.999966400018558 0.0027643177581004193 -0.30693237773683257 -0.006134624062655413 -0.12778663368906842 57.142819047644828 32.499994312501101 66.666614814855251 -0.0073753508258257985 0.00080318158379343745 -0.006134624062655413 64.282500160706306 -0.11186748087961441 32.203389728621893 57.272484298551596 9.8039215013447052
decision_type=2 2 2 2 2 2 2 2 2 2 2 2 2 2 2 2 2 2 2 2 2 2 2 2 2 2 2 2 2 2
left_child=2 5 6 12 7 8 -1 14 16 23 -6 13 17 -7 -4 24 -2 -3 -9 20 -15 27 29 -8 -5 -26 -11 -19 -24 -18
right_child=1 3 4 15 10 11 9 18 -10 26 -12 -13 -14 19 -16 -17 22 21 -20 -21 -22 -23 28 -25 25 -27 -28 -29 -30 -31
leaf_value=-0.045490838202725918 -0.0079028048261448082 0.021481431848559746 -0.026516096124703389 0.02413893201421187 -0.008735089706330159 0.022197624064223025 -0.039191494214168905 -0.017251644206428003 0.0088180132962519947 -0.029567875265124745 0.0083644280692389706 0.01565053956903022 0.026086121323995643 0.0081594970458511839 -0.018246873124405347 0.021386617198903033 0.12090011876667939 0.015573110727308163 -0.01071269665135388 0.0074735067734200012 0.00094839115867792554 0.016615327516188088 -0.0041011766453206604 -0.033551595609573444 0.015467501855076364 0.022005291599856806 -0.017602271855968962 0.0094475338759238518 0.0032585199384958397 0.021993210930995304
leaf_weight=19776.473037591204 20797.645674087107 4010.3708377555013 24108.895656587556 4979.4049664214253 10143.378364294767 1311.0962347574532 14893.994070345536 20847.999009352177 5238.6364327073097 3691.7147116679698 2183.1231424193829 4554.8896129839122 2373.4226129055023 8692.8744254559278 7724.4447636660188 73611.114974059165 23.481926273554564 7014.6902433559299 11894.386124588549 18102.166656073183 29708.759679585695 8586.3332856670022 14555.928084265441 15343.343260398135 33183.536596171558 9376.5865561813116 2782.0993585642427 39615.657828427851 5383.4223452992737 197.36267556622624
leaf_count=866882 434240 40889 788558 41564 262802 17482 594901 548609 82707 124300 44578 57826 21775 128247 221449 528704 369 76283 304677 258115 475429 90495 298780 571722 297236 80796 92735 459968 100247 3526
internal_value=-0.000291882 0.011568 -0.0261934 0.0174463 -0.0173941 0.00167309 -0.0381727 -0.0196251 -0.00331498 -0.0342304 -0.00570663 0.00536769 0.0125687 0.00455756 -0.0245095 0.0199264 -0.00486682 0.012027 -0.0148762 0.00414825 0.00258075 0.0113403 -0.00173485 -0.0363296 0.0176653 0.0169079 -0.0244257 0.010369 -0.00211413 0.0325098
internal_weight=424707 291317 133390 182751 76902.2 108566 56487.6 64575.7 46196.5 36711.2 12326.5 62369.8 61600.5 57814.9 31833.3 121151 40957.8 59227.1 32742.4 56503.8 38401.6 55216.7 20160.2 30237.3 47539.5 42560.1 6473.81 46630.3 19939.4 220.845
internal_count=7915891 3494678 4421213 1637710 2170673 1856968 2250540 1863293 919869 1383658 307380 937099 689410 879273 1010007 948300 837162 667635 853286 861791 603676 626746 402922 1166623 419596 378032 217035 536251 399027 3895
is_linear=0
shrinkage=0.05


Tree=21
num_leaves=31
num_cat=0
split_feature=2 2 2 2 0 2 2 2 1 1 0 0 2 1 3 1 1 3 1 1 1 1 0 1 2 3 0 1 0 3
split_gain=47853.8 6122.32 5373.73 870.292 733.935 677.67 661.057 569.89 299.422 272.828 248.328 174.31 169.937 161.091 147.492 146.264 134.961 126.963 116.948 109.39 134.14 107.771 96.8433 127.836 96.631 95.0073 90.6131 126.576 100.812 87.8662
threshold=0.0012959580656668587 0.0018135339183023424 0.00091931230274588667 0.0022023474060942198 0.0026970909959486149 0.001478132878174838 0.0006571051627826803 0.0011008829046875222 66.666660444445142 71.518228660364912 0.0045104545940691807 -0.0068736173761698707 0.0027643177581004193 59.999966400018558 -0.26075334076875784 77.777656790311809 57.272484298551596 -0.30192467046462712 56.249993408204027 57.272484298551596 32.499994312501101 32.499994312501101 -0.0053285968028418665 64.282500160706306 0.00080318158379343745 -0.26578797003319937 -0.004776879908847286 9.8039215013447052 -0.0068736173761698707 -0.11186748087961441
decision_type=2 2 2 2 2 2 2 2 2 2 2 2 2 2 2 2 2 2 2 2 2 2 2 2 2 2 2 2 2 2
left_child=2 5 6 14 7 9 -1 13 24 17 11 -7 22 -4 -3 -6 26 -2 21 20 -13 -16 -5 -24 -8 -18 27 28 -9 -10
right_child=1 3 4 12 15 10 8 16 29 -11 -12 19 -14 -15 18 -17 25 -19 -20 -21 -22 -23 23 -25 -26 -27 -28 -29 -30 -31
leaf_value=-0.045184437946399307 -0.0086527947334866014 0.0088428797848737004 -0.025903722349018811 0.021670952478591032 -0.0070002642581252234 0.02139206108907106 -0.038680887285501536 0.18602196503198071 -0.028900974592959618 0.0075266596474628973 0.013922213397686102 0.0066526627187941433 0.020024580233166223 -0.017617160748400744 0.017152637592428101 0.0082516423605518419 -0.013885670513179816 -0.0025528913628502948 0.017846293691324591 0.0060197084642385395 -0.00019312409438769542 0.0087437015367110224 0.014128547732877243 0.020305653442654337 -0.032928747250827547 -0.0041613918910679126 -0.017007762160884735 -0.0054104581161885743 0.031468774439365375 -0.017007791793677
leaf_weight=18936.341815128922 17462.224584918469 31531.915184043348 22781.769765647128 7433.8574538305402 6892.3229183368385 1290.8365509808064 14349.934012809768 14.666640065610407 3590.6532603222877 4421.8200930505991 5951.2060764171183 9273.2236847020686 74659.157492429018 7898.2608166132122 5476.2517403513193 2036.3327528499067 5671.9040062613785 16677.491355482489 10995.965618781745 18372.968932900578 31336.749953463674 12525.151384189725 36788.636534504592 10844.846575699747 14864.15189136751 4508.2407527305186 23712.034311261028 820.90352284535766 37.601396251469851 2736.5573606882244
leaf_count=866882 376908 375579 767419 62264 177407 17504 594901 318 124300 71291 78602 141733 528704 230956 56007 40175 143151 343566 113915 269937 521144 142957 331674 93164 571722 106386 651949 21732 909 92735
internal_value=-0.000286857 0.0108152 -0.0257081 0.0161604 -0.0169691 0.00111003 -0.0376388 -0.0188037 -0.0336184 -0.00415936 0.00417829 0.00321621 0.0184704 -0.0237704 0.0112098 -0.00352181 -0.0144206 -0.00567295 0.0137835 0.00281844 0.0013701 0.0113018 0.0163632 0.0155349 -0.0357542 -0.00957931 -0.0164253 -0.000606842 0.0748371 -0.0237571
internal_weight=423894 295042 128852 190256 74374 104787 54477.6 65445.4 35541.3 38561.5 66225 60273.8 129726 30680 60529.3 8928.66 34765.4 34139.7 28997.4 58982.9 40610 18001.4 55067.3 47633.5 29214.1 10180.1 24585.2 873.172 52.268 6327.21
internal_count=7915891 3524949 4390942 1704264 2140402 1820685 2250540 1922820 1383658 791765 1028920 950318 1015806 998375 688458 217582 924445 720474 312879 932814 662877 198964 487102 424838 1166623 249537 674908 22959 1227 217035
is_linear=0
shrinkage=0.05


Tree=22
num_leaves=31
num_cat=0
split_feature=2 2 2 2 2 1 2 2 1 1 1 0 3 0 0 3 3 2 1 3 0 2 2 0 1 0 1 0 0 0
split_gain=43947 5797.06 4855.31 766.806 702.709 657.234 624.984 526.069 300.182 278.356 220.358 204.75 155.786 155.12 148.096 139.809 128.444 123.598 119.832 117.427 115.817 114.255 89.3047 88.4714 85.5898 85.1563 83.2157 77.6977 77.2999 77.1832
threshold=0.0012758774157903725 0.0018135339183023424 0.00090894980117739714 0.0022575557534203834 0.001478132878174838 66.666660444445142 0.0006571051627826803 0.0010699686988598015 60.416490451902874 59.999720001306393 77.777656790311809 0.0045104545940691807 0.46515050108462069 0.0053868799847019986 -0.006134624062655413 -0.23215420320617097 0.053404649104507818 0.0029574003655564438 23.076840236983717 0.18163559380574301 0.0025368508061631716 0.00161408111848282 0.0050126485382810202 -0.0089154857697981132 23.076840236983717 -0.0080346701311198015 66.666660444445142 0.0036835695805037543 -0.0051249199231261913 0.0066079353985779585
decision_type=2 2 2 2 2 2 2 2 2 2 2 2 2 2 2 2 2 2 2 2 2 2 2 2 2 2 2 2 2 2
left_child=2 4 6 13 8 7 -1 -4 18 -8 12 19 21 14 -3 -10 -9 24 25 -7 -11 -6 -19 -14 -5 -2 -26 -17 -23 -24
right_child=1 3 5 17 10 11 9 16 15 20 -12 -13 23 -15 -16 27 -18 22 -20 -21 -22 28 29 -25 26 -27 -28 -29 -30 -31
leaf_value=-0.044870768994829863 0.058934552707370608 0.019013510531137374 -0.025206273292462434 0.024011376183261594 -0.00080529057104374946 -0.012615360685661679 -0.036290975202840227 -0.017476801863122258 -0.0031660408020549925 -0.02846916406104515 0.016172833520697129 0.010773837191746946 0.039207773667441131 0.01823740859176394 0.0094517964476396044 0.0034110998324428906 -0.010732557085921361 0.020011482039376707 -0.0078457747118880119 -0.0017742651960553522 -0.013057539236395863 0.015582605449938964 0.017778473978647936 0.0075668025735647227 0.014626160119882537 0.0024685461848741722 0.01969466440759841 0.015017856199025716 0.0034618889517662836 0.0091982889761531676
leaf_weight=18135.577538374811 68.908279728144407 4358.2496550381184 23613.679824527353 3092.3044882267714 21029.051575630903 8069.6510506998748 23080.841626852751 23960.656505433843 6015.4671447575092 8277.9992438182235 3496.0373745784163 1431.6421549096704 224.75175739824772 6523.5473950654268 57184.020925723016 4116.0435003042221 10008.633220471442 50264.451061472297 27991.131893455982 3617.5708857160062 1429.5557340700179 1381.8634484261274 9262.1524958461523 12972.867848597467 48382.733724929392 2151.955886207521 9726.0688966214657 2219.305033326149 27354.447512280196 3655.4353206753731
leaf_count=866882 1144 43619 824065 24134 368796 203751 956951 685737 119374 314949 41895 26614 2712 63897 648448 74864 279462 343471 617955 84503 49508 19552 64356 188800 411149 43743 79157 33205 407165 26033
internal_value=-0.000281401 0.009954 -0.0256516 0.0151726 0.000742035 -0.0171733 -0.0374228 -0.0194743 -0.00427403 -0.0333033 0.00395451 -0.00707346 0.00327608 0.0109061 0.0101289 0.00229331 -0.0154897 0.0175073 -0.00695879 -0.00925969 -0.0261996 0.0019953 0.0190585 0.00810564 0.0159059 0.00422056 0.0154745 0.00747701 0.00404475 0.0153504
internal_weight=423097 301471 121626 192449 109022 70701.8 50924 57583 42562.8 32788.4 66459 13118.9 62963 68065.8 61542.3 12350.8 33969.3 124383 30212 11687.2 9707.55 49765.4 63182 13197.6 61201.1 2220.86 58108.8 6335.35 28736.3 12917.6
internal_count=7915891 3623469 4292422 1704264 1919205 2104132 2188290 1789264 890285 1321408 1028920 314868 987025 755964 692067 227443 965199 948300 662842 288254 364457 795513 433860 191512 514440 44887 490306 108069 426717 90389
is_linear=0
shrinkage=0.05


Tree=23
num_leaves=31
num_cat=0
split_feature=2 2 2 2 2 2 1 2 1 1 0 3 0 2 1 1 3 1 3 0 1 1 1 0 2 0 0 0 2 0
split_gain=40345 5235.94 4638.04 678.001 659.757 632.663 618.87 481.02 276.19 275.27 211.103 192.379 141.883 133.52 130.823 165.575 130.452 118.8 115.274 113.379 94.8379 118.275 93.9731 85.6658 83.2571 78.579 77.8522 77.7977 76.1232 75.6169
threshold=0.0012701643652193368 0.0018135339183023424 0.00090894980117739714 0.0022023474060942198 0.001478132878174838 0.0006571051627826803 66.666614814855251 0.0010492570190457305 59.963904980549003 60.416490451902874 0.0045104545940691807 0.18163559380574301 -0.0068736173761698707 0.0027109884573500221 57.142819047644828 33.332555573702706 -0.23215420320617097 24.137445511544282 0.053404649104507818 0.0025368508061631716 57.272484298551596 32.499994312501101 82.666658179557331 0.0051856009156032732 0.0010853547635556553 -0.0055666004953991424 -0.0080346701311198015 -0.0020301164155303027 0.00080318158379343745 -0.0053285968028418665
decision_type=2 2 2 2 2 2 2 2 2 2 2 2 2 2 2 2 2 2 2 2 2 2 2 2 2 2 2 2 2 2
left_child=2 4 5 14 9 -1 7 -4 28 17 12 24 -6 29 15 -3 -11 26 -9 -10 21 27 -13 25 -8 -16 -2 -14 -7 -5
right_child=1 3 6 13 10 8 11 18 19 16 -12 22 20 -15 23 -17 -18 -19 -20 -21 -22 -23 -24 -25 -26 -27 -28 -29 -30 -31
leaf_value=-0.044549440631871134 0.052878255456837046 0.013909931509911738 -0.025311080086757105 0.019139029912124267 0.019007389454684234 -0.038612275899197683 -0.016618401479326101 -0.017424565019295547 -0.027874795758271721 -0.0031954183012336858 0.012646039871390506 -0.0022039716689240562 0.010145951458068261 0.017542700839149123 0.03978968486483566 0.0064657908570025305 0.0069376369560602627 -0.0076636955190581071 -0.011181616601088185 -0.012577647958673369 0.0054578910575952362 -0.00032591573883458295 0.015930858309243102 0.019084047470163883 -0.0067538816101199647 0.010985903137939665 0.0019746096797563467 0.00096718409254441565 -0.032743766483653923 0.013552532744377666
leaf_weight=17372.415580855682 77.407459676265717 9857.2255118116736 19765.793954374269 6991.558648340404 1329.6447604447603 11372.764344036579 4029.1712633501738 25024.687296843156 8226.1768908221275 6168.5792393088341 6054.3297036141157 3649.0460673235357 5209.9504623226821 80595.345549464226 240.3449372202158 30840.721445120871 6547.5386124961078 28237.05031105876 10495.357715321705 1420.4594299457967 18532.251366108656 31408.605788458139 888.24834876134992 4693.1309868842363 4559.5589994154871 15969.792321026325 2533.6632752679288 4145.3630201593041 10748.379534151405 45330.548392795026
leaf_count=866882 1237 104511 714879 57426 17504 506631 112765 739596 322203 123277 78602 83964 76538 560041 2570 359587 111473 630698 301528 49862 269937 521144 18022 44383 104846 177407 52132 65195 442712 398339
internal_value=-0.000275566 0.00932243 -0.0251591 0.0142563 0.000617041 -0.0368776 -0.0167418 -0.019059 -0.0326822 -0.00416834 0.00374348 -0.00698193 0.00285444 0.0162659 0.00992014 0.0082688 0.0020221 -0.00672015 -0.0155799 -0.0256223 0.00249223 0.00114397 0.00134621 0.0131353 -0.0113816 0.011413 0.00348369 0.00607882 -0.0357608 0.014299
internal_weight=422315 304763 117552 194519 110244 49140.2 68411.9 55285.8 31767.8 43564.2 66680.1 13126 60625.8 132917 61601.2 40697.9 12716.1 30848.1 35520 9646.64 59296.2 40763.9 4537.29 20903.3 8588.73 16210.1 2611.07 9355.31 22121.1 52322.1
internal_count=7915891 3652001 4263890 1704264 1947737 2188290 2075600 1756003 1321408 918817 1028920 319597 950318 1015806 688458 464098 234750 684067 1041124 372065 932814 662877 101986 224360 217611 179977 53369 141733 949343 455765
is_linear=0
shrinkage=0.05


Tree=24
num_leaves=31
num_cat=0
split_feature=2 2 2 2 2 2 2 1 0 1 1 0 1 1 2 0 1 3 1 3 1 3 0 0 0 0 3 1 1 2
split_gain=37033.5 5051.37 4123.81 788.71 612.804 566.027 514.552 374.516 266.896 251.641 244.132 232.662 154.959 137.56 128.121 124.155 143.147 116.828 114.341 107.84 106.168 95.0648 91.7455 91.1614 110.917 80.6411 78.9643 74.8883 80.6841 74.0027
threshold=0.0012459193536739144 0.0017476522588374059 0.0008776167816251934 0.0021764116587745471 0.0010387356591869746 0.0014300088504135041 0.0006571051627826803 75.409835892502542 0.0032753645991911999 62.499994531250515 67.441860373625147 0.0040000000000001154 51.724134809750488 27.180863827301234 0.0027643177581004193 -0.0080346701311198015 57.142819047644828 0.77356825235378046 33.332555573702706 -0.30693237773683257 57.272484298551596 -0.13548874492066029 -0.0027891795909904533 0.0075920622299761051 -0.0026357406431207204 -0.0080346701311198015 -0.29670317949145436 56.476683528148449 23.076840236983717 0.00054335758917851268
decision_type=2 2 2 2 2 2 2 2 2 2 2 2 2 2 2 2 2 2 2 2 2 2 2 2 2 2 2 2 2 2
left_child=2 5 6 15 9 8 29 12 19 -4 -8 13 -6 22 23 -3 18 -14 -17 -2 -15 -11 -7 24 -5 -21 -18 28 -27 -1
right_child=1 3 4 14 7 11 10 -9 -10 21 -12 -13 17 20 -16 16 26 -19 -20 25 -22 -23 -24 -25 -26 27 -28 -29 -30 -31
leaf_value=-0.047315748602856665 -0.0096742981426853458 0.022934154549286795 -0.026250388517695719 0.016227722840715983 -0.017830173784473363 0.014258433925046554 -0.035183218097287493 0.0027513118025358435 0.0058461039329934352 -0.020348999575354805 -0.022410042313799186 0.010820457579840998 -0.013111940192301094 -0.0011624472003286975 0.016553021064485328 0.011374935765521808 0.0084053121576577513 -0.0011752708059763288 0.0053782708503791543 0.049076571827282284 0.0036442022569308516 -0.0085461044307939271 0.0016254455640678429 0.020934935835675142 0.011468640141758841 0.0053964219753214115 0.014139443148909936 0.00077884622237037204 -0.008034996760779298 -0.0406296625144138
leaf_weight=8938.4214855395257 17207.955492567271 1502.7369470074773 19737.188958184794 17913.714156225324 21198.948073672131 3185.9541801996529 21633.894801622257 3219.4027689658105 4670.8235702514648 3891.8379759863019 4522.8977727107704 7158.2782893255353 13639.193278187886 34427.718481436372 77429.61421328783 10296.375786624849 11082.116601489484 2412.4145419560373 34871.056412048638 71.233417388051748 17241.391571938992 3037.5395469833165 2618.298714607954 3841.1942274644971 38676.927005387843 1259.6776346936822 13102.373552337289 5108.2861561924219 9948.9669102095068 7706.7402943186462
leaf_count=476849 401509 14722 755532 149790 651324 45583 964034 67103 86060 124588 170030 98840 387316 603445 528704 114476 130402 63026 423346 1244 265639 91017 42027 30417 340890 26558 135728 103153 232506 390033
internal_value=-0.000269443 0.00853308 -0.0252197 0.0130029 -0.0174876 -0.000533412 -0.0373478 -0.01361 -0.00535283 -0.0233725 -0.0329745 0.00232006 -0.015024 0.00126134 0.0152064 0.00871558 0.00840749 -0.011318 0.00674527 -0.0069098 0.000441477 -0.0151751 0.00855969 0.0134811 0.0129751 -0.00400702 0.0115119 -0.00423876 -0.00652551 -0.0442201
internal_weight=421553 311615 109938 208716 67136.5 102899 42802 40470 38266.9 26666.6 26156.8 64631.6 37250.6 57473.4 137861 70854.7 69351.9 16051.6 45167.4 33596.1 51669.1 6929.38 5804.25 60431.8 56590.6 16388.2 24184.5 16316.9 11208.6 16645.2
internal_count=7915891 3775039 4140852 1868475 2139906 1906564 2000946 1168769 851030 971137 1134064 1055534 1101666 956694 1049801 818674 803952 450342 537822 764970 869084 215605 87610 521097 490680 363461 266130 362217 259064 866882
is_linear=0
shrinkage=0.05


Tree=25
num_leaves=31
num_cat=0
split_feature=2 2 2 2 2 2 2 1 1 0 1 1 0 1 3 1 3 3 3 0 2 3 2 1 1 0 0 2 1 1
split_gain=33978.7 4399.98 4024.33 684.923 645.206 496.751 466.739 318.657 311.224 262.413 225.682 197.691 155.633 170.55 128.338 118.844 113.234 102.76 100.803 96.7583 96.298 106.787 100.819 90.6604 86.6984 84.6737 71.7055 69.239 67.3186 67.109
threshold=0.0012459193536739144 0.0017351839964376092 0.00086739817880251632 0.0022852645474752474 0.0010544005659881902 0.0006571051627826803 0.001461987340254817 66.666660444445142 62.499994531250515 0.0032753645991911999 68.421027423833053 71.999998319999946 -0.0080346701311198015 72.727268099173799 0.4857731413289284 20.512813149246963 0.25927037138506925 0.40478517951410747 0.053404649104507818 -0.0027343453307762107 0.0033259818361174196 0.25927037138506925 0.0071044464181596071 77.777656790311809 57.954494744392314 0.0059297843865822051 -0.0064754241663620418 0.00054335758917851268 9.8039215013447052 9.8039215013447052
decision_type=2 2 2 2 2 2 2 2 2 2 2 2 2 2 2 2 2 2 2 2 2 2 2 2 2 2 2 2 2 2
left_child=2 6 5 12 8 27 9 18 -4 16 -7 14 -3 19 -8 -5 -2 -10 -6 -14 21 -17 -22 -9 -24 -21 28 -1 -18 -20
right_child=1 3 4 15 7 10 11 23 17 -11 -12 -13 13 -15 -16 20 26 -19 29 25 22 -23 24 -25 -26 -27 -28 -29 -30 -31
leaf_value=-0.047104053892691865 -0.0073927665779643069 0.022225048702939683 -0.025573340014512537 0.022574552904097246 -0.016863658906583041 -0.034777376809335563 9.8802275476777274e-05 -0.0070603530476578335 -0.017434585047714425 0.0056486358288755601 -0.02159794755076741 0.010949330830135025 0.010708718055815735 0.015270766714587374 0.0064366209282417366 0.011968488607604834 0.097086492609307448 -0.0044835570279365541 0.032060448968077797 0.0061106219704937046 0.016662847845690072 0.016349961393533018 0.013714256494530253 0.0050937556565286406 -0.0020951494804896027 0.013708554550553025 -0.0018529384506397165 -0.040498489731317359 0.015590903623032129 -0.010964212450666311
leaf_weight=8535.8535488694906 29851.694582618773 2068.3901940882206 22454.743021069095 4323.5313310399652 21131.404217869043 20040.984237322584 39630.076439257711 4798.1518284641206 5891.379225904122 5634.4127307496965 3876.5067344065756 6050.2444173842669 19208.997108012438 8056.787830337882 10003.954130385071 56871.45796302706 28.123056914657354 2069.7283659484237 91.57438225671649 54704.510630585253 41741.737344428897 18407.669342033565 2469.2622607052326 2255.5662802532315 1336.6218136996031 3930.3415542989969 9010.6409597657621 7411.7167161591351 256.06360406428576 8815.7326825726777
leaf_count=476594 679472 19409 876924 30018 650503 925194 664370 113699 188505 101582 149289 76091 211412 77320 153118 451939 416 61023 2530 638320 271215 136554 17288 45752 9650 39578 193575 390036 5048 262201
internal_value=-0.00032596 0.00798642 -0.0246023 0.0120529 -0.0171638 -0.0371988 -0.000639824 -0.0127374 -0.0225618 -0.00444013 -0.0326413 0.00241636 0.00867197 0.00834563 0.00137622 0.0144293 -0.00589223 -0.0140676 -0.0149831 0.00762888 0.0141378 0.0130399 0.0159525 -0.00317384 0.00816201 0.00661992 -0.00107302 -0.0440341 0.0236557 -0.0105219
internal_weight=420958 313585 107373 213119 67508.3 39865.1 100465 37092.4 30415.9 44780.9 23917.5 55684.3 87969 85900.6 49634 125150 39146.5 7961.11 30038.7 77843.8 120827 75279.1 45547.6 7053.72 3805.88 58634.9 9294.83 15947.6 284.187 8907.31
internal_count=7918625 3776375 4142250 1902703 2201137 1941113 1873672 1074685 1126452 980093 1074483 893579 986039 966630 817488 916664 878511 249528 915234 889310 886646 588493 298153 159451 26938 677898 199039 866630 5464 264731
is_linear=0
shrinkage=0.05


Tree=26
num_leaves=31
num_cat=0
split_feature=2 2 2 2 1 2 1 2 2 1 0 3 3 3 2 3 1 0 3 1 1 1 0 1 2 1 3 0 1 1
split_gain=31217 4378.89 3516.66 710.827 553.577 462.366 442.791 430.245 416.032 215.255 179.405 142.814 136.659 134.004 121.934 98.6411 96.7497 94.9205 77.5152 77.4708 77.3356 89.073 75.0082 74.3579 71.2446 70.2115 68.5875 65.7512 73.7672 65.5531
threshold=0.0012170343215257833 0.001689800830357366 0.00085670553919798447 0.0021764116587745471 64.423072370100428 0.0006571051627826803 75.409835892502542 0.0010387356591869746 0.0014300088504135041 59.115564851984296 0.0041153225640383493 0.4857731413289284 -0.23215420320617097 0.25927037138506925 0.0026075206763538062 -0.22034769272758631 24.70206425409253 0.0025368508061631716 0.088940694977920287 21.249999628124247 18.048685275091092 49.999996534313972 0.0082838569406014102 49.999996534313972 0.00055381307162425894 56.249993408204027 -0.14340857345423572 -0.0064754241663620418 49.999996534313972 49.996659314633753
decision_type=2 2 2 2 2 2 2 2 2 2 2 2 2 2 2 2 2 2 2 2 2 2 2 2 2 2 2 2 2 2
left_child=2 6 5 11 7 24 8 -4 13 -7 15 16 -10 25 -5 -6 -3 -11 -9 -16 -14 -22 -13 29 -1 -2 -8 -15 -29 -18
right_child=1 3 4 14 10 9 26 18 12 17 -12 22 20 27 19 -17 23 -19 -20 -21 21 -23 -24 -25 -26 -27 -28 28 -30 -31
leaf_value=-0.046670722224769229 -0.0096594727592832757 0.014518282124504232 -0.025346983370871452 0.01125088903724737 -0.015126030795587093 -0.035735461008591894 0.0044674961911666568 -0.017531845966236553 -0.0018835418019204427 -0.027335914642339601 0.0067763784514498207 0.010558128294531356 0.017541442669774927 0.024104969374537419 0.021575947902139174 -0.0063816324016492069 0.0047327286177745011 -0.010024940963788975 -0.011457811638596958 0.014054242558744096 -0.00021509682651289216 0.0062544810591580267 0.023986568552707976 0.0075880831884574847 -0.039779748316143546 -0.0044941473387642818 0.01424064473949232 -0.0059414655455673482 0.0027943490901761047 -0.0047452336144359246
leaf_weight=8680.5194183178246 20572.936317391694 3438.2243402823806 21791.503698570654 48680.880977593362 6796.970554554835 14844.320267384872 3079.4795742146671 18531.04149607569 27204.305855199695 5983.1185743287206 1598.9565326496959 16914.102968491614 926.04052305221558 247.78258519247174 3561.2202100902796 6136.9613967575133 28068.907367676497 912.66902794130147 7330.3447502572089 88396.428158834577 11481.242021434009 9914.576637480408 1108.0388187617064 31733.108579099178 6604.7892498020083 9671.7656022198498 4304.6464065350592 5324.6235040165484 4424.6649036295712 1951.1446715891361
leaf_count=506805 505488 37762 884352 422784 200810 715870 50165 597546 483324 261144 33877 182800 12790 4909 23284 167261 348240 35450 228786 604231 196342 153386 8971 375719 359825 218157 56488 125516 91795 24748
internal_value=-0.000316372 0.00725988 -0.0248298 0.0111071 -0.0175661 -0.0370296 -0.00160456 -0.0201713 -0.00257269 -0.0323445 -0.00902366 0.00744415 0.000495588 -0.00634886 0.0132743 -0.0109769 0.00635505 -0.0250448 -0.0158102 0.0143455 0.0033951 0.00278283 0.0113837 0.00590055 -0.0436931 -0.00800769 0.0101648 -0.00133031 -0.00197676 0.00411671
internal_weight=420215 321004 99211.2 223852 62185.8 37025.4 97152.1 47652.9 89767.9 21740.1 14532.9 83213.5 49526.2 40241.8 140639 12933.9 65191.4 6895.79 25861.4 91957.6 22321.9 21395.8 18022.1 61753.2 15285.3 30244.7 7384.13 9997.07 9749.29 30020.1
internal_count=7918625 3926899 3991726 2028539 2112632 1879094 1898360 1710684 1791707 1012464 401948 978240 845842 945865 1050299 368071 786469 296594 826332 627515 362518 349728 191771 748707 866630 723645 106653 222220 217311 372988
is_linear=0
shrinkage=0.05


Tree=27
num_leaves=31
num_cat=0
split_feature=2 2 2 2 0 2 2 2 1 1 1 0 1 1 3 3 2 1 1 3 1 0 0 1 1 0 3 2 1 0
split_gain=28754.5 4410.47 2963.89 629.702 536.267 478.128 379.999 366.556 264.678 211.04 202.264 158.178 147.646 138.058 126.374 121.634 108.159 99.0977 95.9041 85.7243 85.4293 83.7504 75.1505 67.7781 66.138 65.5436 63.5196 62.5652 78.0982 62.259
threshold=0.0011822883015614298 0.001689800830357366 0.00083032235052802911 0.0021764116587745471 0.0023069260274185548 0.0014071002020213492 0.00059193863929758912 0.001028290911916875 57.272484298551596 72.727268099173799 66.666355557007563 0.001567398119122321 24.137445511544282 62.809904637664609 0.4857731413289284 0.21058077037892894 0.0026075206763538062 85.104988720794466 49.999996534313972 0.60491610031425336 24.70206425409253 -0.0037095100373579766 0.0025368508061631716 21.249999628124247 49.999996534313972 0.0082838569406014102 0.22553255354856017 0.0071044464181596071 54.764382527550758 -0.0068736173761698707
decision_type=2 2 2 2 2 2 2 2 2 2 2 2 2 2 2 2 2 2 2 2 2 2 2 2 2 2 2 2 2 2
left_child=2 5 6 14 7 8 -1 13 12 15 -8 -10 21 -4 20 -7 -5 26 -9 -13 -3 -2 -12 -18 -22 -16 -6 -25 29 -29
right_child=1 3 4 16 17 9 10 18 11 -11 22 19 -14 -15 25 -17 23 -19 -20 -21 24 -23 -24 27 -26 -27 -28 28 -30 -31
