tree
version=v4
num_class=1
num_tree_per_iteration=1
label_index=0
max_feature_idx=10
objective=binary sigmoid:1
feature_names=ret_5m ret_1h ret_4h ret_24h vol_spike volatility_1h volatility_4h hl_spread bar_return sma_distance rsi14
feature_infos=[-0.068986202759448223:0.046620986161494127] [-0.16648764769065527:0.31188118811881194] [-0.19999999999999996:0.74616695059625182] [-0.25420470927438732:0.70600696020577991] [0:18.458500674025718] [1.3920034740544897e-05:0.0329593794276253] [5.4018382885326983e-05:0.024172860002641759] [-0.027856225930680378:0.036726804123711432] [-0.068986202759448223:0.046620986161494127] [-0.092776617954066887:0.16163391383071879] [0:99.999995751716583]
tree_sizes=6957 7090 7094 7102 7179 7129 7127 7117 7130 7156 7132 7148 7163 7125 7135 7161 7171 7202 7208 7151 7160 7170 7196 7149 7177 7184 7152 7226 7187 7203 7169 7163 7213 7170 7191 7170 7174 7191 7164 7176 7212 7188 7147 7158 7171 7190 7115 7161 7148 7144 7136 7141 7188 7209 7176 7146 7149 7208 7110 7191 7187 7226 7249 7181 7156 7090 7139 7155 7151 7056 7118 7100 7091 7201 7172 7113 7110 7071 7073 7086 7057 7076 7133 7097 7088 7121 7190 7105 7089 7146 7089 7114 7070 7028 7014 7075 7048 6971 7035 7016 7045 7058 6970 7080 7068 7172 7077 6970 6963 7049 7124 7151 7000 6970 7074 7004 6970 7067 7110 7067 7090 7091 7055 7063 7080 7009 6972 6985 6976 7044 7218 7093 6998 7199 7156 7068 7044 7139 7130 7084 7027 7182 7054 7124 7114 7081 6998 7143 7030 6983 7015 7061 6992 6994 7016 6969 6986 6984 7017 6998 6976 7004 7021 7044 7102 6976 7127 6968 7091 6993 7062 7033 6974 7022 7155 7065 7000 7125 6996 7068 6991 7015 7048 6958 6983 7081 6983 7050 7097 7143 7008

Tree=0
num_leaves=63
num_cat=0
split_feature=6 6 6 5 5 3 6 6 5 6 5 5 5 3 6 1 3 9 9 1 6 5 3 5 6 9 6 6 6 1 6 1 1 5 5 5 1 9 1 3 6 3 9 1 3 6 1 9 1 3 6 6 6 3 1 1 3 3 3 4 5 1
split_gain=72449 13561.5 11758 4836.23 1463.13 1316 1275.47 1180.24 1169.11 657.398 419.436 414.431 402.901 380.28 324.096 311.965 293.417 279.797 253.387 232.013 198.905 188.118 160.535 155.667 154.61 151.835 133.532 133.013 129.859 128.748 120.669 120.492 119.021 109.132 107.687 105.79 99.0213 96.8048 94.9058 84.629 84.2641 103.153 82.106 83.4497 78.5758 78.0357 78.545 76.9584 81.95 75.0435 74.4194 99.7489 73.2408 72.6017 70.8144 70.17 88.7834 65.3775 87.9183 64.0007 59.1486 59.0434
threshold=0.0010438405367446202 0.0014330468895685389 0.00071716862059195631 0.0024721879338960493 0.0015780062332616893 -0.10234541577825161 0.0008681213696224093 0.00050166028651702052 0.0011762567047738047 0.0022469286499116896 0.0010118567664398328 0.0012421815636481589 0.00088664882855381841 -0.05032299807267137 0.0022469286499116896 -0.0070832778898269879 -0.0010438663051545725 -0.0055036403686345428 -0.0094525784683437957 -0.011192077956912403 0.00060782773474881151 0.0031017621339891367 -0.059829507098982708 0.0033980624062112234 0.0012686773940096081 0.0028619460274308399 0.0012249707367818451 0.0028947544825834799 0.0011919539350114961 -0.0070832778898269879 0.0016085437347551281 -0.0078068687147118667 -0.0047580073147016613 0.00060803642433514976 0.00073328307860195203 0.00081915609951109926 -0.00062249058543295533 -0.0038420104530253458 -0.0068768643481922345 0.007904206613208899 0.00076008055567934065 0.0029309268627323308 0.0035510235933582384 -0.0040226213316104644 -0.028721007294640884 0.0019083057336314183 0.0029529839155519881 0.0036788179136997283 -0.0051917428421088809 -0.059829507098982708 0.0044598032555124246 0.0027494698002997996 0.00098007749333319113 1.0000000180025095e-35 0.021179892641137402 -0.0058636008368338479 -0.024910587365588262 -0.014790779797959673 0.034729438444447099 0.31469653028245709 0.00064398877670802576 0.0075791477518456505
decision_type=2 2 2 2 2 2 2 2 2 2 2 2 2 2 2 2 2 2 2 2 2 2 2 2 2 2 2 2 2 2 2 2 2 2 2 2 2 2 2 2 2 2 2 2 2 2 2 2 2 2 2 2 2 2 2 2 2 2 2 2 2 2
left_child=2 8 7 4 11 23 25 -1 12 22 34 35 55 17 30 16 24 -6 27 -13 -9 57 -7 50 -10 29 42 -11 -17 -4 -15 -12 -29 -22 -8 -3 -16 -28 39 -32 -31 -42 43 -14 -30 -19 -47 48 -36 -21 51 -5 -33 -50 -25 56 -2 -20 -59 -23 -57 -40
right_child=1 3 6 5 13 9 10 20 15 18 31 19 26 14 36 28 -18 45 21 49 33 59 -24 54 -26 -27 37 32 44 40 38 52 -34 -35 47 -37 -38 -39 61 -41 41 -43 -44 -45 -46 46 -48 -49 53 -51 -52 -53 -54 -55 -56 60 -58 58 -60 -61 -62 -63
leaf_value=-2.0629834767570285 -1.9398398531083314 -2.0192959198162819 -2.0042724178030595 -1.9173000797988007 -1.8849630620026092 -1.8954866459109345 -2.0253698372571258 -2.0524187627697792 -1.9695198613748981 -1.9002294661550412 -1.9798737481391122 -1.9222230591896912 -1.9919094997142077 -1.9635819206502856 -1.9236554764281351 -1.9921950165618945 -1.9925353282802565 -1.9219464207933123 -1.9112869656077398 -1.9427714205994289 -2.0489906568998819 -1.9217668103410401 -1.9483214242457985 -1.804157782729704 -1.9374809662066923 -2.0087919120312656 -1.9556071849190562 -1.8137002463307623 -1.9721225405160006 -2.0360124431609492 -1.9322082463225303 -2.0105315214369526 -1.9357951112036704 -2.0399087428030178 -2.0044388421971036 -1.9821992575318101 -1.9440449312903532 -1.9917408710308306 -1.9570931666019555 -1.9584830235351203 -2.0324758987709575 -2.0243798931736663 -1.9798911069147189 -2.0034849666788599 -1.9845098196033306 -1.9339924714156504 -1.9587250346284064 -1.9912989992434238 -2.0215147804165783 -1.9673521185753109 -1.939520907760121 -1.8295669650368145 -2.0012695151866877 -2.0140239507926498 -1.8797066825476623 -2.0335701892657427 -2.0037677067608346 -1.9445491028347857 -1.9122736571149344 -1.8947716716541765 -2.0130455721129121 -1.9455595955265208
leaf_weight=24553.097856581211 67.185715511441231 201.86963823437691 462.3835521787405 45.727952107787132 304.99189925193787 159.37076702713966 3942.0827961713076 11675.523225188255 754.77161952853203 118.95517382025719 456.86286547780037 309.57511085271835 1941.094276830554 3064.7102663218975 1079.8671514838934 5598.4971342533827 709.46032302081585 644.14955770969391 878.62249664962292 323.74140125513077 5519.540898039937 252.18080194294453 1468.7109902501106 293.22137854993343 751.4383747279644 844.66506524384022 192.39072333276272 141.87123182415962 1481.4189860522747 5957.5500976145267 997.47350656986237 4591.8572044819593 23.22854970395565 8254.7807486057281 1264.758074015379 4005.3102834820747 1327.4647418260574 5071.1153084635735 4928.8274210393429 442.38408337533474 9307.3569582849741 6815.4439781606197 474.15407288074493 7868.5410073399544 9424.9580014050007 880.49744684994221 505.19491508603096 307.38766895234585 6477.0154670029879 7592.7150000929832 31.353333905339241 111.14288131892681 3988.3315677791834 6461.5992098003626 34.686578705906868 381.76069356501102 283.42997194826603 490.82029688358307 370.09433676302433 1697.3507507890463 4359.5717074424028 1432.0452974438667
leaf_count=235716 645 1938 4439 439 2928 1530 37845 112088 7246 1142 4386 2972 18635 29422 10367 53747 6811 6184 8435 3108 52989 2421 14100 2815 7214 8109 1847 1362 14222 57194 9576 44083 223 79248 12142 38452 12744 48684 47318 4247 89353 65430 4552 75540 90482 8453 4850 2951 62181 72892 301 1067 38289 62033 333 3665 2721 4712 3553 16295 41853 13748
internal_value=-2.01043 -1.97268 -2.03794 -1.94963 -1.95842 -1.90935 -2.02102 -2.05516 -1.99269 -1.91639 -2.01372 -1.97121 -2.0009 -1.94822 -1.9515 -1.98364 -1.96602 -1.92962 -1.90543 -1.96469 -2.04762 -1.90893 -1.94315 -1.83295 -1.95354 -2.0296 -1.9969 -1.85992 -1.986 -2.03038 -1.95518 -2.00489 -1.83088 -2.04355 -2.01804 -1.98398 -1.9349 -1.99042 -1.95187 -1.94028 -2.03093 -2.02905 -2.00021 -2.00119 -1.98283 -1.93633 -1.94301 -2.01605 -2.01659 -1.96635 -1.8692 -1.85514 -2.00623 -2.01777 -1.81215 -2.0131 -1.99152 -1.92088 -1.93067 -1.89826 -2.0147 -1.9545
internal_weight=174398 73517.9 100880 34158.2 28040.8 6117.34 50877.3 50002.9 39359.8 5601.21 27489.9 12433.2 20639.2 15607.6 13272.8 18720.5 2215.67 2334.83 3973.12 8226.03 25449.8 3689.07 1628.08 516.132 1506.21 23387.4 15547.3 284.055 16504.9 22542.7 10865.4 9037.05 165.1 13774.3 18452.8 4207.18 2407.33 5263.51 7800.73 1439.86 22080.4 16122.8 10283.8 9809.64 10906.4 2029.84 1385.69 14510.8 14203.4 7916.46 188.224 156.871 8580.19 12938.6 327.908 5091.95 350.616 1739.54 860.915 1949.53 4741.33 6360.87
internal_count=1674267 705791 968476 327927 269199 58728 488435 480041 377864 53773 263910 119362 198142 149837 127422 179722 21271 22415 38143 78972 244325 35416 15630 4955 14460 224525 149258 2727 158451 216416 104311 86758 1585 132237 177152 40390 23111 50531 74889 13823 211977 154783 98727 94175 104704 19487 13303 139307 136356 76000 1807 1506 82372 124214 3148 48884 3366 16700 8265 18716 45518 61066
is_linear=0
shrinkage=1


Tree=1
num_leaves=63
num_cat=0
split_feature=6 6 6 5 6 6 5 5 3 6 9 9 5 5 6 5 6 6 3 5 3 9 3 5 9 3 5 6 5 5 10 3 6 5 6 3 6 9 9 4 9 5 9 3 9 9 6 3 6 3 9 9 5 6 9 6 3 4 5 6 6 9
split_gain=64851 11330.1 11170.3 3733.23 1186.14 1184.41 1176.69 994.843 882.782 485.108 324.31 318.426 316.248 286.631 217.679 214.57 196.148 191.734 231.83 188.341 176.964 173.798 153.171 137.705 134.94 121.258 106.687 101.938 93.543 92.5219 92.451 87.9326 85.1763 85.1461 83.6395 81.8801 81.3018 81.2547 81.1005 75.0206 73.8203 72.9647 67.9286 66.8659 63.8805 59.2635 58.6754 57.6979 53.7994 53.4549 55.5034 53.2335 52.705 61.2378 52.6966 52.53 52.5222 61.504 52.204 50.2127 66.4487 50.0132
threshold=0.0010438405367446202 0.00071716862059195631 0.0014224054297063134 0.0024721879338960493 0.00090190866506503103 0.00050166028651702052 0.0015485520411783241 0.0010276314233844989 -0.10234541577825161 0.0022469286499116896 -0.0037007700641993875 -0.0055036403686345428 0.0012343079949750683 0.0010700844354089465 0.0012249707367818451 0.00082776904902424843 0.00060782773474881151 0.0018314195763910561 -0.048019235942964748 0.00084091849867772234 -0.059829507098982708 -0.0076498150860146432 -0.0033868978604073004 0.0028997905879451264 -0.0045678964757311915 -0.064253725587330043 0.00060803642433514976 0.0027494698002997996 0.0033980624062112234 0.00075151961117922645 26.097942484879344 0.0029309268627323308 0.0012686773940096081 0.00078736865293024772 0.0028947544825834799 -0.028721007294640884 0.001965814555819683 -0.0034537158332399449 0.003960344481657275 1.8691461357954493 0.0028619460274308399 0.0012114090611725504 -0.0026712879807765373 -0.0028758251086598015 -0.0034537158332399449 -0.0023734671368180189 0.00077396525396196858 -0.05032299807267137 0.0028947544825834799 0.0058615759964262279 -0.0018676260673154974 -0.0019901147429708384 0.0018361938881200201 0.0022469286499116896 0.0031198003327772565 0.00035899850860823102 -0.011058451816745583 0.15081144601914401 0.0011003095389903348 0.0044598032555124246 0.0026303568597597655 0.0033261193384356296
decision_type=2 2 2 2 2 2 2 2 2 2 2 2 2 2 2 2 2 2 2 2 2 2 2 2 2 2 2 2 2 2 2 2 2 2 2 2 2 2 2 2 2 2 2 2 2 2 2 2 2 2 2 2 2 2 2 2 2 2 2 2 2 2
left_child=1 5 7 6 15 55 12 19 28 25 22 20 29 33 41 31 -7 18 -13 -2 36 34 32 -23 -14 51 -18 43 59 -4 -31 -3 -9 -6 -11 -16 -8 -21 46 -36 45 -12 -35 -22 -15 -17 -33 -47 -32 50 -27 -10 -19 -54 -39 -1 57 -20 -50 60 -5 -44
right_child=2 4 3 8 13 16 11 10 9 21 14 17 24 44 35 40 26 52 56 37 27 23 -24 -25 -26 49 -28 -29 -30 30 48 38 -34 42 39 -37 -38 54 -40 -41 -42 -43 61 -45 -46 47 -48 -49 58 -51 -52 -53 53 -55 -56 -57 -58 -59 -60 -61 -62 -63
leaf_value=-0.054852467883342332 -0.0055342687549798314 -0.023593601406895565 -0.021417358730346708 0.073588153777453452 -0.010797640987656945 -0.041259407063659922 0.16110427881505637 0.039613233075518867 0.14286452155775775 0.09580067463164478 0.011488438147469653 0.076299404889731248 0.067489501561633067 0.027339057035076948 0.034508467186349555 -0.0021427441905527565 -0.037790342334834852 0.053216784035093591 0.013273531734734023 0.032441495732969131 0.076287975757839951 0.075653903901043651 0.023995330769618756 0.095458622601122312 0.03970994415573955 0.078207157911229605 -0.028689501398663719 0.13008533933543767 0.1618842867498731 0.050167871869792602 0.023111153600015144 -0.022974846677198305 0.065808582821917164 0.010617303696497124 0.12143747007752766 0.02294109804625185 0.098586883221498223 0.0062271150591032397 0.045802611339958658 0.17854151065276844 0.003720023946956386 0.019088550307655126 -0.0044413269102128779 0.04994083038541286 0.0066717907954116354 0.090125507740644248 -0.013456936782165987 -0.014126771126360233 0.17808838769599888 0.045041215981757941 0.05391294996878479 0.079065787318989778 0.057065273131751693 0.067692057981519491 0.023300941766702946 -0.050067923338699194 0.042241316894859965 0.052679436089750634 0.022981573583569944 0.063730837396295995 0.14732648577096127 0.012425926084502924
leaf_weight=9858.462892100215 3519.7267384678125 9707.6097828373313 106.47017756849527 39.331496715545654 4389.7745531499386 11304.736325144768 72.935821793973446 685.32679656893015 56.892820201814175 207.82508265972137 6320.1669435575604 665.19734194129705 463.4866570904851 401.70221551507711 1784.447654440999 1185.4664673283696 5358.4163951575756 2659.3948407098651 103.09544791281223 333.16177206486464 634.40874258428812 1372.0188153237104 852.15065056085587 2436.2158765271306 7693.2589238360524 399.69861144572496 8070.1035672426224 66.695550993084908 379.90567293018103 355.90250170230865 3887.3334688469768 2477.9884699210525 567.11248584836721 893.40277817845345 203.95813600718975 10722.593246132135 181.20725592970848 7586.572846531868 52.186324015259743 80.105251088738441 730.60393856465816 6311.8644498437643 10376.23929425329 388.14564301818609 5399.9550932571292 13.28994747251272 4672.4983457624912 9707.3613093495369 11.065038196742536 611.2572739943862 570.90232165902853 76.87912031263113 3047.3247268497944 2442.1078883633018 480.54465729743242 13721.419797644019 4606.6984717026353 2504.5392947122455 10.642310976982115 33.079865671694279 136.87102226912975 458.91354306042194
leaf_count=98550 33879 94711 1029 352 42517 112088 638 6425 501 1841 60128 6003 4254 3811 16660 11462 52989 24356 952 3143 5755 12312 8034 21561 71434 3654 79248 598 3148 3346 36564 24196 5213 8565 1756 100996 1584 72323 500 673 7004 59629 99964 3563 51611 129 45288 94302 104 5599 5222 677 27940 22197 4552 137166 42542 23099 100 301 1154 4375
internal_value=-6.14515e-05 -0.0267434 0.03477 0.0546681 -0.010175 -0.0440504 0.0471529 0.0162228 0.0886883 0.0829677 0.021494 0.0555764 0.0354729 -0.00142728 0.0199156 -0.0168919 -0.0364065 0.0536166 0.0480553 0.00417523 0.0789591 0.0919361 0.0403482 0.0883234 0.0412884 0.0604889 -0.032321 0.0701934 0.147097 0.0246214 0.0257707 -0.0204879 0.0514747 -0.00485755 0.119905 0.0245915 0.116529 0.00824352 -0.0163021 0.137541 -0.0116664 0.015286 -0.00263428 0.066287 0.00810278 -0.0126971 -0.0167554 -0.0139842 0.0235495 0.0566233 0.0639174 0.106199 0.058994 0.0617929 0.00724417 -0.0520683 0.0454511 0.0511215 0.102045 0.120255 0.130867 -0.00372693
internal_weight=174449 98780.1 75668.5 36504.9 50467 48313.1 29899.9 39163.7 6604.94 6015.75 27243.7 17371.8 12528.2 21920 25139.1 28547 24733.3 16028.4 7879.53 11920 1343.39 4300.12 2104.59 3808.23 8156.75 1715.63 13428.5 1089.25 589.188 4371.41 4264.94 16910.3 1252.44 16118.3 491.888 12507 254.143 8400.28 7202.67 284.063 11636.7 12632 11728.6 1022.55 5801.66 10906.1 7150.49 9720.65 3909.04 1581.86 970.601 133.772 8148.83 5489.43 8067.12 23579.9 7214.33 2607.63 21.7073 209.282 176.203 10835.2
internal_count=1674267 968476 705791 334809 488435 480041 276058 370982 58751 53796 257085 159227 116831 210843 237413 277592 244325 147089 72596 113897 12138 38143 19672 33873 75688 15653 132237 9916 4955 41143 40114 164695 11638 155421 4270 117656 2222 80018 69984 2429 112897 119757 112904 9318 55422 105893 69484 94431 36768 14475 8876 1178 74493 50137 76875 235716 66593 24051 204 1807 1506 104339
is_linear=0
shrinkage=0.05


Tree=2
num_leaves=63
num_cat=0
split_feature=5 5 5 5 5 5 5 3 3 9 5 1 9 1 9 1 5 3 4 5 5 3 3 4 3 3 5 3 1 5 1 4 5 10 5 5 3 3 3 3 9 3 9 9 1 1 3 3 3 10 1 1 3 3 5 5 3 3 3 7 1 1
split_gain=56748 10357.1 8775.33 2084.67 1383.07 1265.52 1019.89 597.485 408.205 336.281 221.161 216.91 209.202 207.955 158.845 152.2 136.162 126.995 125.882 124.703 121.323 117.749 114.947 114.635 110.465 100.084 99.762 98.9343 93.2214 100.621 92.0161 86.5946 80.3834 79.3303 77.408 70.5 67.669 77.1871 64.6023 64.4896 63.386 83.5483 61.8479 61.8307 57.3208 57.0822 55.1431 53.488 52.8993 52.3371 92.2972 51.5437 69.335 54.3089 50.4251 49.2857 48.5618 48.3288 47.2867 46.9708 46.4131 43.9531
threshold=0.0010221953311285042 0.00064398877670802576 0.001627608181375035 0.0028997905879451264 0.0012343079949750683 0.00081915609951109926 0.00048188379171305206 -0.053063330861639828 -0.10234541577825161 -0.0045678964757311915 0.0020407612374482424 -0.0057142857142856709 -0.002122872405814435 -0.0066930753564818915 0.0033261193384356296 0.0052448758970498064 0.00091395901377918992 -0.019248909955010437 0.53821944900839425 0.00039604115263795514 0.00071984335320191136 0.018295079904154358 -0.031796359848590521 0.23810972337377209 -0.0071819987303112778 -0.00087074029461436931 0.0014938823790157662 -0.030961487412905882 0.0060467112525949282 0.0011182456761213413 -0.009968401599223296 0.63825492079723656 0.0022094415925730825 19.072257210338204 0.00059778551208257869 0.0038479120921735914 0.0051122951833427752 -0.031796359848590521 -0.016016364553968928 0.012426428142228942 -0.0018676260673154974 0.033683168814279137 -0.0076498150860146432 0.0041296896356273214 0.0073564736343835211 -0.0045577707618173471 -0.085738995612644073 -0.024320980816914913 -0.10234541577825161 81.592346981751589 0.021179892641137402 -0.0058636008368338479 -0.035561912901110541 0.0029309268627323308 0.0033980624062112234 0.0023263739597946301 -0.037977847851913486 -0.0039005363237445963 0.010387229817960477 0.0011227019718631495 0.021179892641137402 0.01665481495518473
decision_type=2 2 2 2 2 2 2 2 2 2 2 2 2 2 2 2 2 2 2 2 2 2 2 2 2 2 2 2 2 2 2 2 2 2 2 2 2 2 2 2 2 2 2 2 2 2 2 2 2 2 2 2 2 2 2 2 2 2 2 2 2 2
left_child=1 6 4 7 11 15 19 12 49 17 18 30 42 47 16 20 36 -6 -9 -1 -3 34 -11 -10 45 -17 31 -13 29 -29 59 -24 -14 -25 -8 38 37 -15 61 46 57 -42 -4 -27 -33 -20 -37 -7 -34 50 54 52 -22 -53 -5 -43 -32 -12 -18 -2 -48 -35
right_child=2 5 3 8 9 13 21 10 23 22 40 27 32 14 -16 25 58 -19 24 -21 51 -23 26 33 -26 43 -28 28 -30 -31 56 44 48 35 -36 39 -38 -39 -40 -41 41 55 -44 -45 -46 -47 60 -49 -50 -51 -52 53 -54 -55 -56 -57 -58 -59 -60 -61 -62 -63
leaf_value=-0.052423397664301874 0.038693046881461246 -0.023804341761549028 0.11201399702906795 0.10188620866897734 0.069815427799619495 0.034521268492855715 -0.037904747641988062 0.035510051182079276 0.048390620470628615 0.035540723320894162 0.067189014104680395 0.021433411086274962 0.051275031775529736 0.0066209133504996302 0.013791965944375404 -0.02069093823011493 -0.003612284345244748 0.039282037503430692 0.062025783681622572 -0.045012592481355675 0.067306305758165971 -0.022734323881911558 0.019740613749128784 0.1355512457576169 0.041003416915867286 0.0026518991242137587 0.031705354959960214 0.0038111200413442924 0.018222569615353342 0.011515179355294681 0.044123053230076037 0.025457729512054567 0.10547884560165595 0.083933196975465849 -0.030679960247897393 0.1138516516687727 -0.0042669228512085535 -0.012869176511146434 0.068833403003123045 0.10835592704343631 0.046659745285581693 0.05159369076302095 0.081860678719528249 0.047069852516977706 0.037344636006204614 0.048204422673420934 0.082793233461782717 0.010364316743997978 0.067257957459800705 0.22175348907416056 0.05568211295727972 -0.020023480044167652 -0.0066251792830666822 -0.013541168369137491 0.1414820759168692 0.072443133424719683 0.018327141134408361 0.052955542564545433 0.0027415242671283099 0.086081350115594757 0.034609797673796849 0.12374113342120988
leaf_weight=15710.443003721535 421.23833249509335 10021.114721447229 206.18528167158365 102.0536043047905 590.87696981430054 287.71725381165743 12347.889686927199 4181.7587472498417 226.70609664171934 3367.9271446838975 1225.3233409449458 1697.0645321384072 1069.8981694504619 544.21427252143621 1154.3725792989135 515.18743208050728 9453.4299055188894 803.82403929531574 1193.4592797383666 8887.9960432872176 33.440780617296696 1932.2321518361568 7507.7052511870861 76.237964794039726 4153.6751290112734 856.16354481130838 5048.6482213512063 8724.2349356636405 2328.5150948688388 8242.600162319839 199.61404348909855 7126.0195122137666 104.35647809505463 959.13149642944336 5298.2563027143478 135.57127275317907 5177.7544064968824 7632.209239512682 967.18618532270193 451.55753723531961 3696.2689918801188 558.55987406522036 970.52323284745216 86.239670552313328 1182.4677631258965 1997.0790073350072 617.73305819183588 1125.6210901737213 683.23409140855074 14.954221010208128 41.867451354861259 7571.9597579017282 613.70412314683199 5636.168729647994 379.05329704284668 575.48163048177958 2121.2398887202144 1161.887681953609 4242.3692411631346 59.701983861625195 54.378292135894299 74.744717448949814
leaf_count=163340 3873 99827 1668 805 5196 2706 125738 37469 1923 30386 10587 15818 9291 5237 10896 5060 91114 7226 10486 91530 318 19400 69328 613 37179 8406 45958 82861 21884 77504 1840 65634 854 7951 53263 1104 50249 74479 8125 3704 32436 4914 8206 828 10892 17748 5037 10690 5851 115 325 74926 5984 55408 2790 4976 19842 10157 40701 547 447 617
internal_value=-8.63798e-05 -0.0249426 0.0326353 0.0562232 0.0202839 -0.0104517 -0.042968 0.0500649 0.0889247 0.0283436 0.0467327 0.0116033 0.0706489 -0.00343404 -0.00437191 -0.0186559 -0.00514707 0.0522178 0.0424348 -0.0497457 -0.0196135 -0.0344524 0.0269695 0.0827957 0.0463778 -0.00297063 0.025586 0.00985925 0.00884128 0.0075538 0.0246706 0.0236326 0.0601992 0.0851334 -0.0357355 0.0839544 -0.0087396 -0.0115719 0.0781218 0.093223 0.0535962 0.0503021 0.0871442 0.0067166 0.0271495 0.0533745 0.0847624 0.015282 0.0723223 0.129524 0.126886 -0.0165823 -0.00280482 -0.0172573 0.133083 0.062174 0.0205458 0.0602614 -0.00164415 0.0445756 0.0788949 0.0868111
internal_weight=174429 99128.5 75300.5 25878.9 49421.7 54951.7 44176.8 21777.7 4101.18 25627.5 18743.5 23794.2 3034.2 29617.7 28204.3 25334 27050 1394.7 11526 24598.4 23876.4 19578.4 24232.8 3563.25 7344.21 1457.59 20864.8 20992.4 19295.4 16966.8 2801.79 15816.2 1857.49 3336.54 17646.1 3260.3 13354.2 8176.42 2001.06 1259.24 7217.52 4830.31 1176.71 942.403 8308.49 3190.54 807.683 1413.34 787.591 537.929 522.974 13855.3 647.145 13208.1 481.107 1134.04 2320.85 2387.21 13695.8 480.94 672.111 1033.88
internal_count=1674267 990100 684167 225378 458789 536829 453271 191822 33556 234620 165952 224169 25870 286072 272676 250757 261780 12422 102882 254870 236463 198401 222198 29521 65413 14294 191812 198067 182249 160365 26102 145854 15996 27598 179001 26985 129965 79716 16693 10292 63070 42326 9874 9234 76526 28234 6588 13396 6705 4035 3920 136636 6302 130334 3595 9890 21682 20744 131815 4420 5484 8568
is_linear=0
shrinkage=0.05


Tree=3
num_leaves=63
num_cat=0
split_feature=6 6 6 5 5 6 5 6 3 2 2 6 2 6 5 5 1 2 2 2 6 2 6 10 9 10 9 2 3 3 1 2 5 9 3 6 6 2 9 3 2 2 3 6 6 6 5 2 3 10 2 9 2 5 3 5 1 6 5 1 2 3
split_gain=53451.5 10343.9 7871.17 2315.06 1038.86 1031.27 650.392 599.688 591.874 438.353 349.345 346.224 309.686 256.298 194.205 193.799 184.375 178.944 202.989 174.279 172.705 155.468 144.354 142.176 134.621 120.388 113.83 109.2 103.067 102.94 107.566 99.012 106.219 94.0276 91.4013 89.0336 88.3309 87.5725 89.8344 84.6771 84.4951 82.7186 81.85 82.2024 81.2114 80.5763 77.8323 75.0044 73.0973 87.1934 71.087 72.1712 70.3594 70.1467 69.4514 66.989 66.4303 65.4455 64.8789 63.822 63.7068 61.0021
threshold=0.00097556687114004918 0.0014120454731115385 0.00070252216186195452 0.0023263739597946301 0.0010276314233844989 0.00050166028651702052 0.0014938823790157662 0.0008681213696224093 -0.085738995612644073 -0.010818438381937854 -0.024483515049887047 0.0022469286499116896 -0.011074295896809859 0.0011919539350114961 0.0010538084726126617 0.00083209566837570161 -0.0043675436951491333 0.0083923687230105255 -0.010818438381937854 0.008206067931345153 0.0016085437347551281 -0.034944296311915139 0.0005840613000071389 30.027701070205556 -0.0076498150860146432 79.211609431481151 -0.0055036403686345428 -0.022729648436409729 -0.028721007294640884 1.0000000180025095e-35 -0.0041027733527168589 0.041085788081979609 0.0047986783046683754 0.0024052659383148049 -0.05608755899652023 0.0037640150842129486 0.0012050985613174835 0.041085788081979609 0.0024623940481091071 -0.036710186284336137 0.0098103320782231291 0.0011473517786200207 -0.042314576925459639 0.0020727916378220734 0.0028947544825834799 0.00075081409385928974 0.0031017621339891367 -0.024483515049887047 0.0037996327174100179 58.097815829979751 -0.0066141367131651299 0.0026520512850856108 0.010047831771814566 0.0012724327653292739 -0.05608755899652023 0.00070217560418336575 -0.0066930753564818915 0.0026303568597597655 0.001742539404908225 -0.0014694759596273197 -0.011074295896809859 -0.031796359848590521
decision_type=2 2 2 2 2 2 2 2 2 2 2 2 2 2 2 2 2 2 2 2 2 2 2 2 2 2 2 2 2 2 2 2 2 2 2 2 2 2 2 2 2 2 2 2 2 2 2 2 2 2 2 2 2 2 2 2 2 2 2 2 2 2
left_child=2 4 5 6 15 -1 14 17 21 16 42 34 39 19 41 -2 27 18 56 -11 48 46 -7 47 54 35 -22 -6 -15 30 -14 -26 -33 -19 60 37 50 57 -39 -9 55 -3 44 59 -8 -20 -5 -16 49 -12 -17 -52 -31 -25 -13 -24 -4 -23 -29 -44 -10 -32
right_child=1 3 7 8 9 22 10 12 11 13 20 24 29 28 23 36 -18 33 45 -21 26 25 40 53 31 -27 -28 58 -30 52 61 32 -34 -35 -36 -37 -38 38 -40 -41 -42 -43 43 -45 -46 -47 -48 -49 -50 -51 51 -53 -54 -55 -56 -57 -58 -59 -60 -61 -62 -63
leaf_value=-0.051113480234115487 -0.0060059272178711364 0.025466421275297097 0.026726859072634807 0.067912506142614362 0.065538925560375813 -0.040947937093083385 0.096245185941355907 0.079654408533720855 0.088499585565655514 0.006510318798231835 0.046099196005128629 0.12221212423837097 0.0023582824602489273 0.031639272234433323 0.096690802990893554 0.011740767081948981 0.019906168640562012 -0.010032736246194746 -0.025458394049250422 0.020073176000671076 0.064392263251537449 0.063524924669505684 -0.035532471750610736 0.024839556298674001 0.065249635149351712 0.17837160087386039 0.044981565482502116 0.032501630614903743 0.017796916524429912 -0.0055144870970077657 0.0043717929820734124 0.076134943104357408 0.13125312150859234 0.014528696358765657 0.045152276608723396 0.061622254806791815 0.01309486967059615 0.25831848678871211 0.095133715210577993 0.016401561759514672 -0.010979766093115521 0.0034423323823208115 0.056856103432304531 0.084237678143461753 0.040432411800076423 -0.018514642863623882 0.13233773332191925 0.045275625367397661 0.027860838673817914 0.026423179209683706 -0.00071880962686612536 0.015373331809845684 0.0077490041134907822 0.033949327145443901 0.082715795108735002 -0.027616218107440423 -0.0042180659487826245 0.10429066429726658 0.057937096733714867 0.0088240652374883353 0.038501219978852037 -0.015312238051212733
leaf_weight=21799.53932800889 5406.0930529981852 854.13112443685532 227.68966922163963 53.516718126833439 347.41357479989529 8151.4827165156603 396.05771666765213 55.648286409676075 219.9821401014924 10409.316959261894 1940.3467913269997 157.0117314979434 1169.6651802957058 1516.7900154590607 75.38615720719099 1885.5377033054829 2201.2667412534356 1818.2883755192161 5742.5502506047487 3066.2392150759697 804.96899775415659 148.39457563310862 9247.085799947381 3416.7908748984337 4065.8439159095287 34.628461964428425 12238.081243447959 2101.7953217104077 11855.456777602434 6866.3420154824853 419.96462713181973 369.56169530004263 114.48699143528938 495.94344800710678 2395.2946724891663 297.34755615144968 2832.265262208879 16.344527713954449 17.425258569419384 1075.6645177453756 440.55242746323347 851.1998118981719 424.2729025632143 246.2907581999898 78.014641083776951 15333.78452116251 378.0293432995677 1200.5940350592136 2027.8211684972048 793.23552864789963 6902.3811404034495 774.97823154181242 1170.2947388514876 5538.556467846036 382.33272326737642 3758.6773874163628 727.78562185168266 292.53953740000725 284.66052308678627 82.62777828425169 89.685570426285267 6270.0002262741327
leaf_count=235716 53146 7924 2182 411 3022 85905 3224 522 1735 96759 16719 1164 11267 13518 644 17992 20143 18153 58319 28446 6555 1170 96431 31027 32447 254 104335 18880 108039 66712 4087 2918 875 4793 20176 2165 26737 120 128 10315 4519 7907 3594 2059 642 153058 2650 10506 17749 6887 66204 7288 11264 48967 2901 38220 7270 2151 2479 712 723 61442
internal_value=-0.000105788 0.0268243 -0.0285652 0.0457404 0.0115642 -0.0434415 0.0392442 -0.0129612 0.0680132 0.0169805 0.0449827 0.0629117 -0.00576323 0.0144629 0.0300947 0.00189367 0.0306764 -0.0179954 -0.0193847 0.00959642 0.0432042 0.100125 -0.0356979 0.0326985 0.0705944 0.0871668 0.0461795 0.0393484 0.019367 -0.00756209 -0.0116307 0.0677946 0.0891715 -0.00476918 0.048457 0.083076 0.00533904 0.0965143 0.174115 0.0195129 -0.0325152 0.0144733 0.0707847 0.0605405 0.0870605 -0.0204066 0.124348 0.0483133 0.0350537 0.0403896 0.00304198 0.000905585 -0.00358306 0.0304736 0.0942138 -0.0332447 0.00315611 0.0905711 0.0355356 0.0490266 0.0740191 -0.0140766
internal_weight=174356 89585 84771 40000.8 49584.2 43397.3 30968.4 41373.6 9032.43 31782.9 19031.7 7794.2 17027.6 26847.8 11936.7 17801.3 4935.14 24346 22031.8 13475.6 17804.5 1238.23 21597.8 10231.3 5089.24 806.68 13043.1 2733.87 13372.2 15896.3 7859.63 4549.89 484.049 2314.23 2704.96 772.051 12395.2 474.704 33.7698 1131.31 13446.3 1705.33 1227.26 753.191 474.072 21076.3 431.546 1275.98 4761.4 2733.58 9562.9 7677.36 8036.64 8955.35 539.344 13005.8 955.475 440.934 2386.46 506.901 309.668 6689.96
internal_count=1674267 804092 870175 341439 462653 460791 269451 409384 71988 291286 162476 62939 165609 246762 106975 171367 44524 243775 220829 125205 152245 9049 225075 91144 40305 5988 110890 24381 121557 154772 76796 36240 3793 22946 22634 5734 118221 3569 248 10837 139170 15831 10231 6365 3866 211377 3061 11150 41355 23606 91484 73492 77976 79994 4065 134651 9452 3321 21359 4306 2458 65529
is_linear=0
shrinkage=0.05


Tree=4
num_leaves=63
num_cat=0
split_feature=2 2 3 7 7 2 3 1 1 1 9 9 7 1 3 2 2 9 7 3 7 7 9 3 3 0 0 3 1 3 1 3 1 1 2 10 9 9 7 1 3 9 9 10 2 7 9 10 1 9 3 3 10 3 0 9 7 9 3 1 9 3
split_gain=14935.2 9496.91 4450.79 3450.21 4168.92 2007.27 1953.89 1575.8 1791.68 883.68 798.369 831.085 539.969 518.536 514.775 461.626 465.567 393.927 375.192 368.016 325.902 351.068 317.108 317.053 277.121 271.791 252.876 248.142 234.931 223.463 193.126 189.395 187.194 167.077 166.511 165.132 164.919 146.333 145.429 136.359 130.173 129.033 124.596 111.399 111.15 111.1 105.815 105.322 104.505 102.141 101.402 100.401 99.8525 98.4529 95.8759 95.0274 89.5203 86.9083 86.236 85.1263 84.4085 83.7931
threshold=-0.010818438381937854 0.0098103320782231291 -0.026132909267082168 0.00059316958424116006 -0.00051287559112861414 -0.024483515049887047 0.018687206606843757 -0.0041027733527168589 0.0036269136424523789 0.0084182806400032745 -0.0015545922162189527 0.0013832459991199866 -0.00082960013527366694 -0.0078068687147118667 -0.048019235942964748 -0.0052770448548811735 0.0050251256281407261 -0.0041679008735063796 0.0010447449339180406 -0.037977847851913486 0.00030618493570100386 -0.00026816965489317996 0.002938611811892478 -0.10234541577825161 0.032719823517382902 0.00057360327673616773 -0.00063210138609476319 0.044507257128080353 0.0062171540314950322 -0.085738995612644073 -0.0061728395061726995 -0.045851087034158571 0.011212228322893149 -0.0078068687147118667 0.041085788081979609 40.02520336642084 -0.0024874654117766344 0.0022411712440653102 -0.0012299486087342657 -0.013058588485637566 -0.048019235942964748 0.0033261193384356296 -0.004366546963528061 31.267550309620628 -0.014204220035405666 0.0005010554163926707 -0.0024280611490780086 65.526255417409672 0.0062171540314950322 -0.0017177375489582645 0.10322979269987533 -0.0049599359940269419 60.026660993993836 -0.0125817206957734 0.0012097262006041112 0.0095484459796677541 0.0011227019718631495 0.0022411712440653102 -0.005668016194331881 0.0051230261608903324 -0.0016513504191800197 0.023234307641128441
decision_type=2 2 2 2 2 2 2 2 2 2 2 2 2 2 2 2 2 2 2 2 2 2 2 2 2 2 2 2 2 2 2 2 2 2 2 2 2 2 2 2 2 2 2 2 2 2 2 2 2 2 2 2 2 2 2 2 2 2 2 2 2 2
left_child=5 2 14 4 12 23 7 30 10 17 35 15 38 39 29 -12 20 -3 -5 -15 21 -17 27 -1 46 26 -23 31 47 55 -6 -19 44 -16 40 36 -9 52 -4 -7 -11 45 -31 -32 50 54 -8 -10 61 -25 -21 -51 -13 -28 60 -2 -33 -49 -34 -48 -35 -14
right_child=1 9 3 18 6 13 24 8 28 34 11 37 48 19 33 16 -18 22 -20 32 -22 25 -24 49 -26 -27 53 -29 -30 42 43 56 58 41 -36 -37 -38 -39 -40 -41 -42 -43 -44 -45 -46 -47 59 57 -50 51 -52 -53 -54 -55 -56 -57 -58 -59 -60 -61 -62 -63
leaf_value=0.10878377705754401 0.062679863082633375 0.055410211690076087 0.032407986405361931 0.0068499724850686538 0.010217660680934857 0.062315165698765919 0.012814718510241139 0.00018387796952309973 -0.0012188597447800511 0.07424233158449392 -0.019213565196141591 -0.0070469690619081281 -0.0030294767033116898 0.044285062594086488 0.037751063480590007 -0.025130848139533115 -0.020347919822373082 0.043492579398087379 0.027323413104251289 0.026766107410248475 -0.023387238437877839 -0.016616474152606153 0.033927360210850424 0.071655657109263179 0.0078135292615030497 -0.014163926015340424 -0.032121448829376668 0.03283313398840574 0.0096488594971081421 0.064273862144876723 -0.015171119781382834 0.010046904956768563 0.11078778544049295 0.015474837160967928 0.068989621480397986 0.0035579990713618774 -0.021762393672542173 -0.00038170458187358454 0.015043842312266971 0.041571959450945911 0.037496660108614834 0.031463489033910989 0.026939426924881184 0.00054323593724245063 0.016640746232847649 0.020294829640764026 -0.010898059632580876 -0.020427824300448635 0.017487443143337503 0.060156360390465902 0.15101841697376614 0.023114510888388548 -0.023049261589754733 -0.042037274656585417 0.020261848593377381 0.15865759768443924 0.031107554561081871 -0.0032285895469990836 0.027385491433090377 0.0074027480876973891 -0.00064452838922663585 0.010916117001128716
leaf_weight=463.36045374721289 407.1317298784852 713.37105172872543 1772.2834884077311 8740.2749440222979 2555.3453247770667 1080.1479755938053 587.11006926745176 1188.2446138039231 2514.2483939751983 254.99579695612192 6157.8215967714787 1493.3590185642242 7026.6558609604836 2363.961258880794 589.7680826857686 5095.6479816287756 5659.0032568797469 464.87837558984756 3007.8468725010753 4669.2824840024114 4778.0616752803326 1096.9152292087674 2488.8257329314947 2335.9475992843509 4491.7456321418285 1039.2173588350415 2771.2397717684507 1644.8715056627989 2395.7221885323524 244.98425135761499 2163.7634292691946 11526.847584225237 86.502721093595028 1015.2693570479751 534.021529071033 1523.8696952909231 3061.7680579349399 1761.0140715092421 3772.6420565918088 2972.6291684508324 4396.9691718220711 655.95992024242878 2545.127575032413 2355.5531897470355 5317.088170401752 1544.5931684523821 6911.4173113852739 2235.3698441982269 852.92822448164225 1351.6094013154507 16.47812632471323 211.56855861842632 2807.6048176884651 25889.754210792482 903.1505641490221 27.533946074545383 527.66381667554379 1093.9189844578505 48.299030430614948 699.7575321123004 4059.1586307287216 1272.1594401448965
leaf_count=3003 3147 5675 15386 82369 23566 8600 5372 11417 24106 2007 62410 14580 68028 19403 4968 53020 57984 3794 26502 41068 49330 11080 21846 17938 41818 10507 29006 14177 22160 1907 21827 106176 695 9330 4046 14529 31287 16772 34564 25201 37827 5606 21544 22615 48853 13857 68407 22839 7752 10599 135 1723 28867 282691 8036 188 4514 10666 389 6548 38226 11784
internal_value=-0.0001233 -0.00553036 -0.0106983 -0.0136295 -0.0164529 0.0395096 -0.0203901 -0.0232936 -0.0254898 0.0244346 -0.0283017 -0.030051 0.00828124 0.0315584 0.0183314 -0.0320754 -0.0337849 0.0190261 0.0120917 0.0265199 -0.0356546 -0.0372876 0.0174675 0.0696823 -0.0021687 -0.039299 -0.0401768 0.0145753 -0.00353722 0.0354126 -0.00076858 0.0121765 0.0223773 0.012049 0.0425464 -0.0105633 -0.0156265 -0.0125222 0.0205938 0.0471004 0.0395109 0.0101955 0.0302176 -0.0069805 0.0215886 0.00834089 -0.00763785 -0.00894323 0.000821208 0.0650356 0.0272031 0.0551429 -0.017493 -0.0410785 0.00525202 0.0687596 0.0109688 -0.0147766 0.080905 -0.00921552 0.00258056 -0.000891699
internal_weight=174234 153317 130765 118772 107024 20916.9 92327.5 79637.4 72562.8 22552.4 64323.5 58549.6 14696.7 16554.4 11992.7 52487.7 46329.8 17366.5 11748.1 12501.6 40670.8 35892.8 16653.1 4362.49 12690 30797.1 29757.9 14164.3 8239.26 3224.78 7074.66 12519.4 10137.7 8767.9 5185.99 5773.88 4250.01 6061.98 5544.93 4052.78 4651.96 8178.13 2790.11 4519.32 10002.8 7522.17 8198.28 5843.54 9151.74 3899.13 4685.76 1563.18 4300.96 28661 5977.58 434.666 12054.5 3329.29 134.802 7611.17 5074.43 8298.82
internal_count=1674267 1496660 1296598 1189789 1080918 177607 943404 821259 753251 200062 673480 616247 137514 144344 106809 556028 493618 156182 108871 110543 435634 386304 150507 33263 122145 333284 322777 128661 79771 26786 68008 114484 91140 80023 43880 57233 42704 60219 49950 33801 39834 75055 23451 44442 90056 69449 80327 57611 87564 30260 41203 12322 43447 311697 55592 3335 110690 33505 1084 74955 47556 79812
is_linear=0
shrinkage=0.05


Tree=5
num_leaves=63
num_cat=0
split_feature=6 6 6 6 5 6 6 5 5 3 2 5 2 2 6 6 1 3 5 2 1 2 2 5 2 9 5 5 4 3 3 3 9 3 9 2 9 9 1 1 3 5 6 2 3 2 5 6 2 6 2 2 6 3 9 2 9 6 3 1 3 3
split_gain=45466.5 9425.13 5783.7 1633.23 1008.8 623.617 605.98 505.585 467.875 332.73 317.787 266.772 227.146 201.807 178.73 175.941 147.728 147.589 145.933 133.274 118.539 104.537 102.408 99.8674 96.6814 96.0685 89.3407 79.3369 77.5495 76.6109 74.6683 74.332 74.3186 70.6268 69.4895 69.2837 68.075 67.5878 71.31 66.8075 62.148 60.4073 58.2801 67.258 58.0997 61.4875 55.4682 54.1954 53.383 53.2626 53.2409 52.3494 59.1254 101.014 54.7267 51.2018 50.0821 50.0819 71.7498 49.5385 48.9113 48.7233
threshold=0.00092338501124866041 0.0014120454731115385 0.00064910164474889047 0.0022988982030469475 0.0011303631623636224 0.00050166028651702052 0.00076008055567934065 0.0028997905879451264 0.0013160087233041991 -0.05608755899652023 -0.010818438381937854 0.0009047732046474395 -0.011347200182663495 0.0085931899188785871 0.0010438405367446202 0.0011919539350114961 -0.009968401599223296 -0.10234541577825161 0.0015204217957437061 -0.026754643702677213 -0.0042764023931240449 0.0066276324627492231 0.010282776349614388 0.00067818434031584308 0.008206067931345153 -0.0059682837660717239 0.00062880534182840713 0.00072886438892123904 0.78823438548886082 0.0015456216041307427 -0.0010438663051545725 -0.001537642428317054 -0.005135462541018653 -0.031796359848590521 -0.0035764436092963199 -0.0094398506133256382 0.0065378977152188442 0.0035510235933582384 -0.003859474502475146 -0.014502744511206587 -0.028721007294640884 0.0028997905879451264 0.0018314195763910561 -0.0059687991475802496 0.031836181751996324 0.020239227813916408 0.00073328307860195203 0.0012183303145572742 -0.029932558025083985 0.00035899850860823102 0.0022274956695259589 0.041085788081979609 0.0030939575339039476 0.063716746990435072 -0.0094525784683437957 0.0025957818561035411 -0.00082322725578826128 0.0033585105864960929 -0.018462028183498898 -0.0066930753564818915 -0.05032299807267137 0.041084717046513737
decision_type=2 2 2 2 2 2 2 2 2 2 2 2 2 2 2 2 2 2 2 2 2 2 2 2 2 2 2 2 2 2 2 2 2 2 2 2 2 2 2 2 2 2 2 2 2 2 2 2 2 2 2 2 2 2 2 2 2 2 2 2 2 2
left_child=2 4 5 8 11 49 26 18 21 19 20 27 59 23 35 24 50 -9 -5 39 31 34 55 -14 -12 -21 -4 -2 42 33 -15 -6 -20 -25 -3 -13 -23 38 -16 -10 -17 -30 43 -18 48 -46 -36 -29 57 -1 -11 54 53 -53 -19 -7 -35 58 60 -8 -34 -57
right_child=1 3 6 7 10 22 12 17 9 16 15 14 13 30 37 40 28 51 32 25 -22 36 -24 29 -26 -27 -28 47 41 -31 -32 -33 44 56 46 -37 -38 -39 -40 -41 -42 -43 -44 -45 45 -47 -48 -49 -50 -51 -52 52 -54 -55 -56 61 -58 -59 -60 -61 -62 -63
leaf_value=-0.053445008526802396 -0.0097012370021443833 0.04638831211211536 -0.030712727761370164 0.019442546875826774 0.039359390308916754 -0.039208538365386375 0.027013991160825507 0.092677577649616719 0.056821036617914315 0.050215116576500553 0.006015217853011583 0.013171599341706107 -0.021599375139651416 -0.015404066863873619 0.01689050012945293 0.028310612990414263 0.035718221335608716 0.084215031410467031 0.065436298909756829 0.087529509904460318 0.018594011384744352 0.01268973874651938 -0.0021160752525444955 0.0034202603197207165 0.017458440241524775 0.047865311647905445 -0.02219800863648827 -0.0018028549539527037 0.037293826085921016 -0.0091934810372631473 0.0045658173767585868 0.018619903773029956 0.06898292968045143 -0.011862247326800635 -0.020938822954872767 -0.0013516571144791679 0.10189874992835282 0.026595101873444445 0.0074096306662976702 0.10700715976577187 0.016599117628421898 0.068291251788579921 0.036525950358620982 0.025853487199753035 0.068747099768946204 0.043883828929525297 0.025710784783051211 0.0098398664974806392 0.043245289543959974 -0.04824478589415572 0.026494264513746674 0.09946375125159862 0.093330038013896305 -0.0051865748950173018 0.062260563175114927 -0.032960433341380595 -0.019611941673633042 0.035309747231685888 0.028488161146156179 0.0034985186986811628 0.12571458572108871 0.042967917139172529
leaf_weight=8407.5116010159254 3044.9277076199651 417.18730340898037 4675.7772250846028 412.72380091995001 2094.7275148406625 10225.940117098391 312.63137220591307 661.60415537655354 106.74802152812481 2097.9882117733359 7551.307517208159 939.80177116394043 4174.0286007076502 607.68510862439871 2527.1706562936306 1278.1684839725494 2595.2839088588953 317.30722656846046 704.1912372931838 166.8130748718977 1857.3355170413852 2132.5260254591703 209.55171682685614 449.23692370206118 2442.9519466161728 1799.2188603132963 9030.6469190195203 8683.1644728407264 8882.8777757957578 7516.0380892604589 2037.6020066291094 544.29633086174726 78.08954344689846 3215.8761239424348 64.721648894250393 6506.53443505615 21.601680345833302 604.39227416366339 9216.2545461282134 175.0646311044693 9958.0629596710205 160.00428479909897 4088.8496012315154 5169.8269056603312 604.38435620814562 422.4861394315958 4124.8399616330862 1129.5469943284988 3347.1669379398227 11884.211140699685 266.61163312196732 46.919884130358696 328.65281163156033 45.343197196722031 2692.3031729161739 4021.1218653544784 5927.0885217636824 94.990747831761837 51.878133527934551 789.65618353337049 73.99103145301342 21.240100152790546
leaf_count=98272 30647 3482 50539 3488 17479 112619 2825 4021 735 16378 69551 8736 43368 6063 22992 10929 21541 2093 5110 1163 16372 18858 2181 4384 21971 13998 93957 84790 73281 75024 19736 4703 575 32288 638 62472 185 5398 86085 1258 88667 1250 33308 43523 4717 3254 36486 10809 26018 136905 2157 330 2277 320 19348 44096 60200 713 395 7626 554 225
internal_value=-5.23909e-05 0.0218004 -0.0299395 0.0398173 0.00879129 -0.0447432 -0.0166517 0.0576026 0.034371 0.0374704 0.016196 0.00295704 -0.0120239 -0.0130463 0.00659953 0.0136386 0.0356953 0.0710552 0.0480947 0.0558401 0.0282712 0.0226764 -0.0368157 -0.0146652 0.00881235 0.0512307 -0.0251027 -0.00265052 0.0343549 -0.0129734 -2.17381e-05 0.0350819 0.0502939 -0.0159351 0.0269279 0.000481322 0.0135843 0.0102891 0.0094499 0.0879971 0.0179313 0.0378423 0.0316946 0.0291505 0.0480121 0.0585176 0.0249901 -0.000462654 0.0450534 -0.0503994 0.0475406 0.0668851 0.0834011 0.0480328 0.0645753 -0.0373254 -0.0168861 0.0652974 0.0792636 0.010168 0.0965843 -0.0325615
internal_weight=174037 100531 73505.8 42152.2 58378.6 34769.6 38736.3 9882.03 32270.2 25509.3 25726.9 32651.8 25029.8 23927.6 19794.2 21230.5 23261.4 4092.13 5789.9 2247.84 4496.36 6760.88 14477.9 21282.3 9994.26 1966.03 13706.4 12857.6 20896.8 17108.2 2645.29 2639.02 5377.18 9592.2 4606.75 7446.34 2154.13 12347.8 11743.4 281.813 11236.2 9042.88 11854 7765.11 4672.99 1026.87 4189.56 9812.71 3646.12 20291.7 2364.6 3430.53 420.916 92.2631 3009.61 14268.3 9142.96 298.949 203.959 1102.29 152.081 4042.36
internal_count=1673363 883055 790308 341454 541601 394298 396010 73213 268241 208592 229672 311929 251514 241063 185683 191118 191438 28389 44824 17154 38554 59649 159121 215264 91522 15161 144496 126246 172903 171896 25799 22182 41336 96872 40606 71208 19043 114475 109077 1993 99596 74531 98372 65064 36226 7971 37124 95599 28255 235177 18535 24368 2927 650 21441 156940 92488 2237 1524 10451 1129 44321
is_linear=0
shrinkage=0.05


Tree=6
num_leaves=63
num_cat=0
split_feature=6 6 6 6 5 6 6 5 5 2 2 5 2 2 6 6 1 5 2 5 1 2 4 2 5 2 1 9 6 6 9 2 5 2 9 9 9 2 6 1 6 2 5 9 1 2 9 2 6 5 2 9 1 5 1 5 2 2 6 2 6 10
split_gain=41360.4 8086.52 5634.7 1353.76 891.172 629.793 572.326 414.959 401.052 274.583 249.241 240.95 213.795 189.049 171.631 153.992 139.804 138.129 108.9 103.623 100.712 98.4051 89.0133 85.1079 79.389 70.5358 68.1034 76.3596 64.3938 63.9411 71.1077 100.14 61.6612 60.9232 97.8103 59.5035 58.6568 58.3615 54.7258 53.1552 51.7675 51.5995 56.6613 55.8124 49.7362 49.6774 48.112 46.7545 44.0529 63.1401 42.6448 42.5535 41.2135 41.1802 40.6632 58.9305 40.413 40.222 60.3491 39.6265 38.8766 38.706
threshold=0.00092338501124866041 0.0014120454731115385 0.00064910164474889047 0.0022988982030469475 0.0011303631623636224 0.00050166028651702052 0.00075081409385928974 0.0031017621339891367 0.0012421815636481589 -0.010818438381937854 -0.024483515049887047 0.00086410204414174489 -0.010818438381937854 0.0073686491912486893 0.0010438405367446202 0.0011919539350114961 -0.011192077956912403 0.001742539404908225 0.002159053119643151 0.00067818434031584308 -0.0042764023931240449 0.010282776349614388 0.80663323417077859 0.008206067931345153 0.00061313977518656821 -0.0094398506133256382 -0.0044604276469668571 0.0035510235933582384 0.00084710827440294086 0.0030939575339039476 -0.0033393823787417616 -0.029932558025083985 0.0015341240408345859 0.01234324250189456 0.0038114740035190002 -0.0055036403686345428 -0.0055036403686345428 -0.0041470508485275661 0.00035899850860823102 -0.0063448588418231191 0.0005840613000071389 0.041085788081979609 0.0047986783046683754 0.0095484459796677541 -0.0055710306406684942 -0.022729648436409729 0.0041296896356273214 -0.00045941807313754074 0.0014897179202645213 0.0023263739597946301 -0.034944296311915139 0.0024052659383148049 0.012029895093297884 0.00082776904902424843 -0.0065086006508600627 0.0033980624062112234 0.0043002330977002243 -0.024483515049887047 0.0033585105864960929 0.0025957818561035411 0.0037640150842129486 70.607068011177432
decision_type=2 2 2 2 2 2 2 2 2 2 2 2 2 2 2 2 2 2 2 2 2 2 2 2 2 2 2 2 2 2 2 2 2 2 2 2 2 2 2 2 2 2 2 2 2 2 2 2 2 2 2 2 2 2 2 2 2 2 2 2 2 2
left_child=2 4 5 8 11 38 24 17 18 20 -10 37 39 19 25 23 36 -5 44 -14 45 40 32 47 -4 -13 -16 -28 56 33 31 -31 -18 34 -9 50 -12 -2 -1 -8 -7 42 43 -32 -3 -6 -39 -11 49 -34 -19 -15 -44 -20 -36 -56 -21 58 -37 -42 -60 -43
right_child=1 3 6 7 9 21 12 29 10 15 16 14 13 51 26 -17 22 35 53 28 -22 -23 -24 -25 -26 -27 27 -29 -30 30 41 -33 48 -35 54 57 -38 46 -40 -41 59 61 52 -45 -46 -47 -48 -49 -50 -51 -52 -53 -54 -55 55 -57 -58 -59 60 -61 -62 -63
leaf_value=-0.053094546236480446 0.0026920094272553131 0.039827817993461731 -0.031023160875995295 0.027754373881793273 0.049666386367227373 -0.039401501653642236 0.022698853000963436 0.054942262617472148 0.051912827351847525 0.0091369101265328795 0.059032888975976028 0.012088089061608241 -0.021680042325935921 -0.0051950168849240067 0.016819291816460375 0.016804781696989634 0.024542911881025118 0.035444432938512231 -0.018134009071110676 -0.017383449255546021 0.017417658674598994 -0.0020137002824816962 0.035477187934602403 0.016366137119857887 -0.022285607622234194 -0.0014750695919866239 0.006502169667231242 0.023985305372508169 -0.0097643059989026403 0.10003733869214922 0.063550120040460539 0.064675094284560197 0.019368884843665519 0.037243208646561311 0.041141519527732422 0.067057474436162612 0.039264526986820737 -0.0064486174177542516 -0.0477121587607739 0.0010389995902718629 -0.035822297601793639 0.09697996635116031 0.056859107778247923 0.10221855825933278 0.022374090913028829 0.029806370366068282 0.035645649050995945 0.0012201628021078423 0.032798239820610163 0.088327332555663884 0.066932030404598372 0.0080875801755365684 0.025245759287346042 0.012364200363052986 0.066849498614095934 0.12700723405849057 -0.0077300230653836385 0.044426058053812299 0.0035630050083647218 -0.027213505627164965 0.053134416504716481 0.057530286416713129
leaf_weight=8048.9300894662738 2592.8462292551994 501.61518855392933 3764.7075043618679 972.38652254641056 363.77289319038391 7438.7228368222713 402.27971275150776 761.24887396395206 1848.0452546700835 4280.9149762019515 644.01961771398783 1092.6082502529025 4286.3222327828407 2902.5652113929391 2356.6662444770336 11385.865313649178 4459.2374340742826 130.57076600193977 116.57250219583511 7386.2111208066344 1882.9544440060854 209.20407066494226 10547.80513805151 2474.8491201326251 8400.7365761399269 7814.376061193645 10965.551272973418 662.26638646423817 8101.4908461049199 417.94170816242695 717.97300954163074 384.28100474178791 968.93750946968794 296.89196069538593 30.750545501708984 467.76799380779266 899.14661787450314 7170.9963198974729 11427.632594160736 957.32494920492172 4509.4679563641548 191.4491481333971 329.33295410871506 107.25669474899769 2190.9313987195492 2342.5643119513988 68.529630810022354 3304.5960584506392 8666.7321949005127 34.372385151684284 609.34329779446125 761.1038456633687 150.07529948651791 2190.6727772653103 66.660120457410812 104.57239744067192 1270.6877122297883 4272.330262362957 70.034269914031029 1899.9060701876879 90.870823457837105 92.08339986205101
leaf_count=98272 25534 4208 41870 7777 2809 85205 3611 5131 13541 39207 4764 10097 45395 28985 21165 99596 37286 865 1116 76039 16372 2181 84537 21971 89266 75337 102113 5811 81384 2527 4799 2492 7985 2042 207 3324 6912 71236 136905 9281 50610 1243 2141 688 19295 19373 636 30344 68992 275 4206 7170 1004 19330 461 716 13009 31842 507 21125 648 593
internal_value=-6.87455e-05 0.0203784 -0.0291555 0.0367651 0.00829412 -0.0441152 -0.0160346 0.0526282 0.0318415 0.0151975 0.0341655 0.0028017 -0.0118556 -0.0129178 0.00561357 0.0128222 0.0329146 0.0451588 0.0187948 -0.0147426 0.0262976 -0.0360496 0.0320016 0.00831483 -0.0249895 0.000188706 0.00906876 0.00749793 -0.0129682 0.0661598 0.0709644 0.0830981 0.029407 0.0570458 0.0631494 0.0481589 0.0475146 -0.0037448 -0.0499365 0.00744772 -0.0365638 0.0648353 0.0606339 0.0685759 0.0256257 0.0324759 -0.00605015 0.00568801 0.03165 0.0217313 0.0613755 -0.00243564 0.0469628 0.0108233 0.094081 0.103588 -0.0159665 0.0461636 0.0579717 -0.0332704 0.0315584 0.0841678
internal_weight=173859 102091 71767.3 43331.9 58759.4 33533.9 38233.4 10263.8 33068.1 26035.5 28068.3 32723.8 26068 24708.4 22891.5 21446.2 26220.3 6613.3 4999.79 21044.7 4589.29 14057.3 24677.1 10060.4 12165.4 8906.98 13984.5 11627.8 16758.4 3650.52 2390.39 802.223 14129.3 1260.12 963.232 5640.92 1543.17 9832.37 19476.6 1359.6 13848.1 1588.17 1304.64 825.23 2692.55 2706.34 7239.53 7585.51 9670.04 1003.31 739.914 3663.67 479.408 2307.25 201.983 171.233 8656.9 4901 628.673 6409.37 160.905 283.533
internal_count=1673363 883055 790308 341454 541601 394298 396010 73213 268241 229672 224292 311929 264874 251982 214523 191118 210751 49169 43949 215827 38554 159121 199075 91522 131136 85434 129089 107924 170432 24044 15487 5019 114538 8557 6515 41392 11676 97406 235177 12892 156940 10468 8632 5487 23503 22182 71872 69551 77252 8260 5071 36155 3145 20446 1384 1177 89048 36321 4479 71735 1155 1836
is_linear=0
shrinkage=0.05


Tree=7
num_leaves=63
num_cat=0
split_feature=6 6 6 6 5 6 6 5 5 2 3 6 6 2 2 5 2 5 5 10 2 2 2 1 5 3 3 1 10 6 9 1 5 3 3 2 9 3 1 9 2 3 1 2 3 6 2 3 6 2 2 3 10 1 10 9 9 9 2 10 6 3
split_gain=37702.1 7413.96 4987.78 1191.97 828.944 635.868 458.375 363.896 344.993 265.43 221.796 206.143 163.589 156.387 174.753 141.439 139.4 127.755 125.487 104.819 96.4461 94.8944 94.4819 89.6826 88.3646 88.1701 86.4881 144.059 94.6442 85.6656 80.1978 79.1338 76.5355 75.3881 70.6364 70.4058 73.5459 67.8245 61.262 73.0337 60.5901 59.922 77.4135 58.0485 57.7394 56.266 56.0545 52.8334 51.2561 50.565 50.3452 80.2801 61.8565 49.9645 47.5691 46.0226 45.8241 45.4765 45.177 49.1133 43.5938 42.1687
threshold=0.00090618950613229922 0.0013919294821752631 0.00064910164474889047 0.0022988982030469475 0.0011003095389903348 0.00050166028651702052 0.00075081409385928974 0.0015204217957437061 0.0033980624062112234 -0.010567894840858126 -0.05032299807267137 0.0010438405367446202 0.00098875484870329503 0.0085931899188785871 -0.010567894840858126 0.0010538084726126617 -0.024483515049887047 0.001742539404908225 0.00079204673949007456 30.027701070205556 0.010796326902858368 -0.0086606881886769332 0.010282776349614388 -0.0043675436951491333 0.00067818434031584308 -0.10234541577825161 0.0083393670161466833 0.0028907023695116112 58.097815829979751 0.0012183303145572742 -0.0076498150860146432 0.021179892641137402 0.00061313977518656821 0.042658359221429583 -0.0012134332582426353 0.0091797150787965593 0.0059261928616600743 0.0024144522216509316 -0.0044604276469668571 0.0035510235933582384 0.0020911537239276527 -0.0010438663051545725 -0.0042764023931240449 0.0066276324627492231 0.080284614462722961 0.00035899850860823102 -0.017648634822255146 0.00071469332534235275 0.0005840613000071389 -0.0023640661938533199 -0.014204220035405666 -0.011789547058467796 30.357669216999259 0.0069300425572249589 21.414234417193367 0.0031198003327772565 0.0076041434100643244 0.0036788179136997283 0.033065627995863441 19.072257210338204 0.0015138836815877302 -0.032629828497074957
decision_type=2 2 2 2 2 2 2 2 2 2 2 2 2 2 2 2 2 2 2 2 2 2 2 2 2 2 2 2 2 2 2 2 2 2 2 2 2 2 2 2 2 2 2 2 2 2 2 2 2 2 2 2 2 2 2 2 2 2 2 2 2 2
left_child=2 4 5 7 11 45 32 15 17 23 16 21 -11 14 46 40 -9 -5 50 49 29 -2 48 34 -16 -10 28 -28 -12 -14 -18 35 -4 -22 -6 -21 -37 -26 -20 -40 -3 42 61 -29 -35 -1 -8 -15 -7 -17 51 52 -13 -31 -19 -43 -30 -39 59 -27 -45 -23
right_child=1 3 6 8 9 22 13 10 25 12 26 18 20 47 24 19 30 54 38 31 33 41 -24 -25 37 58 27 43 56 53 -32 -33 -34 44 -36 36 -38 57 39 -41 -42 55 -44 60 -46 -47 -48 -49 -50 -51 -52 -53 -54 -55 -56 -57 -58 -59 -60 -61 -62 -63
leaf_value=-0.052755991475400846 0.0077524093500896136 0.018613511574872812 -0.030234892563645865 0.025844328014591713 0.03351174765593673 -0.038677456200234633 0.044930100243209738 0.070092151675702249 0.0799915131523357 -0.0024642485673912846 0.037024486449928284 0.19949893564563081 0.0074026270763823303 -0.012694306855409503 -0.021181010753816384 0.044205184772333823 0.093669754207394582 0.066714790808081209 0.014712915020083487 0.025540655488350585 0.016475613125269285 0.042804306027906733 -0.001916121223175575 0.015911286041636028 -0.015832226516001205 0.10392421371838295 0.020702189306235866 0.023789894133193074 0.02508729010155393 0.015873631461644128 0.039480297659922892 0.15062299699449733 -0.021558035964249236 0.040489988076121669 0.013927521104573536 0.01473337245617066 0.056251325152045742 -0.009653705293661833 0.0048273838940809206 0.022808424368812197 0.0010340752653216852 -0.0019439530385133965 -0.009484514730163783 0.023655240492350141 -0.026124087826095599 -0.047182985948218459 0.0017294750094429122 0.0042122552312852555 -0.032487164791629344 0.0258026921235751 -0.007002300697252696 -0.016445997617781209 0.036813114527302238 0.0017166189427962873 0.044260596376135032 0.014210135644304279 0.047892899166635965 0.022207617314054476 0.072608466313784065 0.0538855578260111 0.042087878818312011 0.0035198033145258652
leaf_weight=7704.2735100984573 1975.2764173671603 1079.061240747571 3672.0987460762262 991.5259221047163 2265.3742387369275 7205.0520181357861 80.192358508706093 516.41372820734978 583.07320360839367 2061.5621249303222 8029.420706987381 10.722292430698873 9306.9911315217614 622.011688105762 4176.6246573328972 964.88830285519361 70.542789787054062 244.98598888516426 2275.0743577480316 7951.5002217963338 3617.0133440569043 75.717275902628899 208.87361522018909 2102.2405743822455 8805.8006342276931 50.299314051866531 3941.5215293765068 847.64720277488232 2920.0539465472102 6824.7150438278913 2125.4871660247445 12.184708990156649 8253.8478428795934 517.81516764312983 577.86975713074207 2721.6107065007091 111.01714815199375 6368.7177847698331 11077.06287561357 595.05701702088118 898.11227432638407 7222.2489938288927 5726.674730360508 383.74195617437363 34.710222445428371 10989.147270999849 1179.6845698580146 1797.4750881418586 6240.1167421042919 608.80852545052767 2082.939105540514 26.11432608217001 12.839422322809694 685.88036659359932 6337.6325647234917 469.57256434857845 238.23879738897085 113.9999620616436 453.96940404176712 1954.7523359060287 1954.615813434124 698.31660702079535
leaf_count=98272 18647 9480 41870 7777 18109 85205 723 3413 3182 19290 61666 100 84204 6298 45000 7489 447 1594 20404 66149 31335 711 2181 18156 91430 296 31059 6705 22949 59223 15544 97 89266 4434 4839 22666 888 64990 103667 5156 8132 70977 57087 3112 297 136905 11289 17439 71735 4934 20775 252 124 5895 44739 4353 1825 1090 2874 12751 15099 6768
internal_value=-8.24744e-05 0.0184773 -0.0293278 0.0335947 0.00693602 -0.0434886 -0.0162665 0.0291851 0.0482883 0.0132311 0.033374 0.0014713 0.0109758 -0.0121632 -0.0135675 0.0230457 0.0467177 0.042576 0.00547988 0.0250305 0.012296 -0.00251547 -0.035286 0.0237417 -0.0147356 0.0625106 0.0313978 0.0270931 0.0341403 0.0106083 0.041221 0.0232732 -0.0242297 0.0191033 0.0295314 0.0231294 0.0163606 -0.0129748 0.00720708 0.00574408 0.0106282 -0.00394453 -0.00747853 0.0349995 0.0363052 -0.0494798 0.00447924 -0.000134154 -0.0358044 0.0370859 -0.00581591 0.04393 0.110847 0.0145808 0.0450963 -0.000957774 0.0268076 -0.00909342 0.0583656 0.0551408 0.0390629 0.00736268
internal_weight=173651 106233 67417.9 45991.1 60241.8 32347.5 35070.5 35374.9 10616.2 27994.2 21027.7 32247.6 23048.7 23144.5 20725 14347.2 2712.44 7574.14 16079.8 12370 20987.1 16167.8 13654 4945.48 19465.1 3042.09 18315.2 7127.53 11187.7 16817.6 2196.03 10796.3 11925.9 4169.54 2843.24 10784.1 2832.63 15288.5 13947.2 11672.1 1977.17 14192.5 6500.71 3186 552.525 18693.4 1259.88 2419.49 13445.2 1573.7 2132.62 49.676 23.5617 7510.6 6582.62 7691.82 3158.29 6482.72 2459.02 2005.05 2338.36 774.034
internal_count=1673363 909670 763693 354867 554803 394298 369395 281654 73213 245782 161819 309021 204678 238259 214522 119835 19404 54110 150478 102223 185388 158543 159121 41104 202510 19103 142415 55975 86440 149322 15991 89800 131136 36066 22948 89703 23554 157510 129227 108823 17612 139896 64566 24916 4731 235177 12012 23737 156940 12423 21251 476 224 65118 46333 75330 24774 66080 15921 13047 18211 7479
is_linear=0
shrinkage=0.05


Tree=8
num_leaves=63
num_cat=0
split_feature=6 6 6 5 5 6 6 5 6 3 6 1 1 9 5 1 6 5 3 6 9 3 5 1 1 5 6 3 3 9 5 3 3 6 1 6 3 5 3 1 3 9 9 4 3 6 1 3 3 6 6 5 3 9 1 3 9 3 5 1 3 1
split_gain=34397.4 6522.6 4738.74 1017.65 777.95 641.789 413.584 348.37 298.48 253.586 134.179 131.504 127.756 117.229 115.141 110.723 109.199 99.9354 98.8001 88.1137 81.8665 80.2262 73.6833 72.9116 72.0436 71.8101 71.438 110.306 65.7691 92.5973 64.1692 61.1904 59.6323 57.8786 54.6225 54.3839 52.2928 51.3925 48.1107 53.8012 56.9464 45.4939 44.3503 42.7696 41.9226 56.0045 42.4233 111.722 83.6033 41.8085 40.3943 39.2436 38.6955 38.2666 37.8399 37.3832 37.2575 36.6934 59.3413 40.3148 36.4659 45.3084
threshold=0.00090190866506503103 0.0013919294821752631 0.00064910164474889047 0.0023263739597946301 0.00097137124902230045 0.00050166028651702052 0.00075081409385928974 0.0015204217957437061 0.0011094922286075837 -0.085738995612644073 0.0022469286499116896 -0.009102336283409283 -0.011999572984129235 -0.0038420104530253458 0.00066361633092471342 -0.0043675436951491333 0.0014897179202645213 0.0010276314233844989 0.0022388140887706913 0.00098430349582548349 0.0036788179136997283 0.041084717046513737 0.00061313977518656821 0.0034143845865676208 0.021179892641137402 0.0011971003177287407 0.0044598032555124246 -0.06981015708333925 0.0024144522216509316 -0.0013189904067727463 0.00081030858324236319 -0.034465563620592825 -0.0044234739255469826 0.00035899850860823102 -0.0070832778898269879 0.0005840613000071389 -0.085738995612644073 0.00076476268637375091 0.055023743283903588 -0.00075585789871496212 0.0037996327174100179 -0.0076498150860146432 -0.0030525237610900531 2.1392057319504629 -0.011058451816745583 0.0022988982030469475 0.0028907023695116112 0.007904206613208899 -0.00255818629824428 0.0027494698002997996 0.0010680052421220276 0.0028997905879451264 -0.05608755899652023 0.0038114740035190002 1.0000000180025095e-35 0.041084717046513737 0.0095484459796677541 -0.05032299807267137 0.0047986783046683754 -0.011192077956912403 -0.030961487412905882 -0.0035643197780396703
decision_type=2 2 2 2 2 2 2 2 2 2 2 2 2 2 2 2 2 2 2 2 2 2 2 2 2 2 2 2 2 2 2 2 2 2 2 2 2 2 2 2 2 2 2 2 2 2 2 2 2 2 2 2 2 2 2 2 2 2 2 2 2 2
left_child=2 4 5 7 15 33 22 12 19 56 52 36 -3 32 -8 31 38 37 30 42 28 35 -4 -20 43 -15 41 -28 29 34 54 -2 -10 -1 -16 -7 -9 -14 39 40 -13 -12 -6 -19 -18 46 47 -46 -48 -39 -33 55 -11 -24 -17 -43 -5 58 -29 -59 61 -31
right_child=1 3 6 9 8 21 14 11 13 10 26 16 17 25 20 18 44 24 23 -21 -22 -23 53 -25 -26 -27 27 57 -30 60 -32 50 -34 -35 -36 -37 -38 49 -40 -41 -42 51 -44 -45 45 -47 48 -49 -50 -51 -52 -53 -54 -55 -56 -57 -58 59 -60 -61 -62 -63
leaf_value=-0.052428143944261422 0.035445288391295113 0.051439306229568542 -0.029452441247128966 0.060892418676370574 0.015248116780360744 -0.037764778086747497 -0.019543317987586708 0.071448789402606086 0.033502787795444702 0.048127788128316085 0.057013382894731415 0.035825466555023742 -0.018610857062882173 0.0094975121928901028 0.011515300238852184 -0.0061785227330982389 0.033891220414200965 0.021127557699224114 -0.0016762186064020385 0.0076460066064050133 0.012351968339587537 0.031378141135364794 -0.021193119993207551 0.0091755578668123623 0.12962614203262965 0.015208671578515168 0.0078199844332030328 0.13266069771265898 -0.007240830597762371 0.04114656157805293 -0.0032677905923110904 0.00080992207657671277 0.01487873001433725 -0.046656123485718286 -0.0084195519227154812 -0.031338582972677879 0.0398746535913449 0.011207681545443377 0.051765063413244189 0.01054990443021876 0.0080695594195108449 0.034534273162607883 -0.0017198033429453325 0.031572004464553681 0.03443209034687067 0.038611949598908513 0.012456775564546219 0.017493222278679214 0.034712420529218323 0.10536756738770817 0.013533021416007977 0.04663897333771018 0.030999998324954026 0.012907640052984041 -0.016541222708736592 0.050204832302749504 0.088246008331205009 0.095855499188477342 0.053476563071623906 0.056893615273379355 -0.017019867631624587 -0.0084055396678797481
leaf_weight=7373.2042081877589 185.79124829173088 344.28887355327606 3583.4530592933297 1421.132036447525 419.68370772153139 7026.6294950097799 4006.0534818246961 138.01676304638386 1090.583101272583 374.64712119102478 594.88758051395416 582.25670579820871 151.21618318557739 9210.1805162504315 404.44517190009356 1632.4048979356885 7534.7261757701635 11897.613592803478 6211.132776722312 10883.906734399498 394.34833065420389 46.019569046795368 8030.3697814047337 2061.6546284109354 15.564101964235304 13677.815347641706 82.507504761219025 53.889127016067505 7814.7050301507115 55.835852146148682 5928.1238349676132 1605.7156197056174 709.37596543878317 10568.2735228315 2285.0721597969532 6194.9712189212441 2629.9738975316286 1531.6368954181671 107.46568542718887 1185.5250538513064 270.71791367977858 1877.7036139965057 4674.0488549023867 1068.1782028898597 1551.5648806616664 1246.6494285240769 496.18582856655121 2612.5222445353866 2821.2387529015541 11.880314715206621 1020.2022900283337 2577.8008922636509 2752.2890322804451 83.119683653116226 1913.6425663903356 477.3287325501442 136.43881820142269 80.865764290094376 42.17944148182869 370.97721548378468 7021.2198960781097 265.41447492688894
leaf_count=98272 1660 2499 41870 8304 3750 85682 43591 898 8511 2473 3616 4498 1465 82461 3743 16658 55785 97105 60898 98680 3669 514 88424 19691 113 116855 519 343 79631 553 57573 15438 5977 136905 23568 72925 18767 13475 866 9501 2197 13049 44506 8572 11934 9054 3815 20338 21570 94 9410 16653 20258 842 19507 3264 752 496 263 2331 74041 2691
internal_value=-9.41665e-05 0.0171806 -0.0287994 0.0311818 0.00642316 -0.0428623 -0.0158696 0.0271569 0.0104306 0.044619 0.0414871 0.0312879 0.0213326 0.0138767 -0.0118677 -0.00150368 0.0297601 0.0206263 -0.00296423 0.00510585 -0.010182 -0.0345244 -0.0234811 0.00102814 0.0221171 0.0129105 0.0457702 0.0617168 -0.0106799 -0.0133588 -0.00645035 0.007715 0.0261629 -0.0490282 -0.00542178 -0.0347538 0.041449 0.00920713 0.0191589 0.01744 0.0270163 0.0439515 -0.000321779 0.021988 0.031159 0.0288003 0.0271654 0.0238048 0.0313837 0.0119324 0.00575301 0.0423763 0.0330521 -0.0208438 -0.0117708 0.0377105 0.0632885 0.0698329 0.0978945 0.0638666 -0.0162662 0.000207008
internal_weight=173417 108264 65153.1 47039.9 61224.3 31209.1 33944 36197.2 40665.6 10842.6 9285.08 21176.8 15020.4 24688 22247.1 20558.7 18408.9 14676.1 17747 15977.6 18241 13267.6 11696.9 8272.79 12981.4 22888 6158.14 630.419 17846.7 10032 9474.17 2811.71 1799.96 17941.5 2689.52 13221.6 2767.99 1694.73 2145.97 2038.5 852.975 5527.72 5093.73 12965.8 16262.9 8728.16 7481.51 4164.09 3317.42 1543.52 2625.92 4932.83 3126.94 8113.49 3546.05 2355.03 1557.57 547.912 96.0686 451.843 7342.47 321.25
internal_count=1673363 916442 756921 354867 561575 394298 362623 282546 360740 72321 63265 159223 123323 213804 231487 200835 139558 120824 174327 146936 187896 159121 131136 80589 105790 199316 40534 3952 184227 104596 93738 26508 14488 235177 27311 158607 19665 15034 17062 16196 6695 36582 48256 105677 122496 66711 57657 32272 25385 13569 24848 32966 22731 89266 36165 16313 9056 3433 606 2827 77285 3244
is_linear=0
shrinkage=0.05


Tree=9
num_leaves=63
num_cat=0
split_feature=6 6 6 5 5 6 6 5 2 6 3 2 2 6 6 2 9 2 1 2 1 3 2 6 9 3 1 5 9 1 6 5 6 3 2 6 3 6 3 1 3 6 3 3 3 6 1 5 2 6 3 3 2 9 6 9 5 5 3 3 3 2
split_gain=31394.6 5671.08 4612.46 866.635 694.047 647.5 389.599 298.317 274.828 257.753 213.734 138.63 146.166 115.151 113.208 112.392 111.105 101.805 99.6519 92.9162 90.5914 89.7706 89.0818 86.7018 77.1875 75.8957 71.5287 70.8318 66.2542 65.3578 59.5585 59.3552 58.9991 91.4568 58.2116 57.8054 121.671 56.9594 56.8322 62.5857 56.679 58.5319 56.2398 55.8244 55.6417 55.3601 62.5805 54.0494 53.5828 53.4203 55.9742 53.1775 52.4071 50.9613 50.8376 49.9861 47.666 47.5621 59.0316 46.5585 46.2567 44.7518
threshold=0.00090190866506503103 0.0013919294821752631 0.00064910164474889047 0.0023263739597946301 0.00097137124902230045 0.00050166028651702052 0.00075081409385928974 0.0015204217957437061 -0.0098625623565700132 0.00098430349582548349 -0.085738995612644073 0.0085931899188785871 -0.010818438381937854 0.0011919539350114961 0.0022469286499116896 -0.024483515049887047 -0.0045678964757311915 0.010796326902858368 -0.0043675436951491333 0.010282776349614388 -0.0043675436951491333 0.0022388140887706913 0.0066276324627492231 0.0015943127064692389 0.0059261928616600743 -0.0021987401671885172 -0.009102336283409283 0.00061313977518656821 -0.00040663829683634795 0.0034143845865676208 0.00035899850860823102 0.00064398877670802576 0.0044598032555124246 -0.06981015708333925 -0.034944296311915139 0.0017859952367277 0.0089902706324487287 0.0037640150842129486 0.0037996327174100179 -0.0012451318921339325 -0.042314576925459639 0.0030939575339039476 -0.028721007294640884 -0.0012134332582426353 -0.011058451816745583 0.0026303568597597655 -0.013058588485637566 0.00073328307860195203 0.0025957818561035411 0.0012686773940096081 -0.02135231316725977 -0.034465563620592825 -0.0072004445957858368 0.0011237123688099262 0.0025232394135893568 -0.00056028717485884217 0.00092313468105118749 0.0005818152154132085 0.041084717046513737 -0.10234541577825161 0.00071469332534235275 -0.026754643702677213
decision_type=2 2 2 2 2 2 2 2 2 2 2 2 2 2 2 2 2 2 2 2 2 2 2 2 2 2 2 2 2 2 2 2 2 2 2 2 2 2 2 2 2 2 2 2 2 2 2 2 2 2 2 2 2 2 2 2 2 2 2 2 2 2
left_child=2 4 5 7 18 30 27 16 20 -10 34 12 55 17 -12 40 -3 -11 51 48 43 31 47 38 35 28 -25 -4 56 -23 -1 -20 -16 -34 -5 -24 -37 45 39 -17 54 -42 52 49 -44 61 -47 -18 -7 -6 -51 -2 -15 -19 -9 -8 -14 58 -50 -39 -13 -36
right_child=1 3 6 10 8 19 11 15 9 13 14 60 25 42 32 23 22 53 21 -21 -22 29 24 26 -26 -27 -28 -29 -30 -31 -32 -33 33 -35 37 36 -38 59 -40 -41 41 -43 44 -45 -46 46 -48 -49 57 50 -52 -53 -54 -55 -56 -57 -58 -59 -60 -61 -62 -63
leaf_value=-0.052109866529786886 0.032780477541116154 0.039040248117463261 -0.028676062612912764 0.07075182275731115 0.022906897116707056 -0.036353688679729761 0.011367033739252831 0.062110036562906923 -0.0034031358102783842 0.0049282456498887413 0.03070213904650454 -0.0119518607222766 -0.015557712475746206 0.043404027922059663 0.040607800415599034 0.034300652007826109 -0.021302351656498485 0.0079439088761362152 -0.021019007754696648 -0.00022873039254630041 0.012716677810609476 -0.0015945164109992856 0.0091256549580098212 0.039705925739370568 0.047597625808387195 -0.010862343370621804 0.028785394497288886 -0.02014341342156676 -0.021213281263096507 0.0086545533214678807 -0.046130517269896011 -0.0051005364704051169 0.0073932974101195512 0.063595812488564399 0.098593794462230683 0.0049413446770079942 0.040390947016667816 0.050093894001900667 0.016277552926082208 0.01976322581806805 0.031775346481357374 0.097529098894959421 0.0053450027582565354 0.012551679152181137 0.013572644829935252 0.033430370697231329 0.07985557877223079 0.02200830769143694 -0.034669631398944599 0.027435551029459687 0.053485814253611333 0.0054403813817974272 0.017991745280944254 0.022331341567752998 0.027514414622384544 -0.012395745307632079 -0.0025547883149042798 -0.022462219647615078 0.08220049760470946 0.015551010043627793 0.0043061226003064815 0.027726293069845864
leaf_weight=7055.3671027719975 190.71714953333139 726.08560284972191 3498.6326704472303 579.06853258609772 2122.6918959468603 9073.219600521028 808.09926644712687 462.99624095857143 4358.5092235505581 13140.538143619895 3196.0626607909799 585.72226323187351 2846.3735752105713 240.74842127412558 5679.5420673787594 1466.7170962914824 72.568490915000439 1106.3250869587064 627.34173613786697 203.29017105698586 3348.0623575001955 6203.1294702887535 3532.0528168529272 1689.5005819201469 158.4678742364049 10095.068927377462 13329.924993805587 7979.3746328428388 4734.0951433107257 2076.0955294370651 10164.514041982591 8799.587288081646 82.895511642098427 570.85413686931133 25.875895380973816 477.39845337718725 490.99305954575539 246.27109915018082 2146.3192188814282 1494.9740693345666 865.45000644773245 35.222161218523979 2609.1334024146199 835.00293115526438 9673.6033582463861 91.816220015287399 346.63723760843277 9791.5397524014115 2079.7363737821579 526.04450671374798 339.15356845408678 2637.322292804718 1289.8774474039674 1387.2440763786435 137.79299063980579 304.77165462076664 936.75484243780375 1530.5215851739049 10.861241601407526 161.53226488828659 1728.8933271095157 160.16949185729027
leaf_count=98272 1660 5262 41870 3066 17121 112619 7595 2938 41780 119406 22731 6067 30677 1966 36582 10851 719 9730 6625 2181 28950 60898 29209 11745 1198 106451 98163 89266 51253 19691 136905 87113 519 3433 154 3845 3968 1336 16853 11530 5992 233 22513 6971 83200 510 1981 79122 25858 3904 2579 24848 10665 11955 918 2989 9628 18348 115 988 16827 1021
internal_value=-0.000103804 0.0161236 -0.0280347 0.0290004 0.00607134 -0.0422356 -0.0152744 0.0253085 0.00983107 0.00794515 0.0412215 -0.0113842 -0.0127426 0.00962481 0.0383737 0.0290845 0.0199527 0.00668585 -0.00143138 -0.0337644 0.0187218 -0.00282343 0.0189985 0.0281001 0.0133005 -0.0137951 0.0300138 -0.0227443 -0.0172711 0.000975537 -0.0485804 -0.00615988 0.0422451 0.0564693 0.0580632 0.0120928 0.022915 0.0509455 0.0224729 0.0269626 0.0422809 0.0343467 0.0129511 0.0239811 0.0118249 0.0604364 0.0701337 0.0216897 -0.0343015 0.0271752 0.0376471 0.00728414 0.0219888 0.0159481 0.0541754 0.00485934 -0.012338 -0.0291594 -0.0340625 0.0364113 0.000191978 0.0375828
internal_weight=173165 109530 63635.3 48018.7 61511.1 30117.5 33517.8 36878 40976.9 33806 11140.7 22039.8 19725.2 29447.5 9529.35 21628.9 15249.1 15634.1 20534.2 12897.6 7170.96 17706.2 14523 20127.4 4658.91 18612.3 15019.4 11478 8517.22 8279.22 17219.9 9426.93 6333.29 653.75 1611.37 4500.44 968.392 1032.3 5108.01 2961.69 1501.46 900.672 13813.4 3822.89 12282.7 624.499 438.453 9864.11 12694.3 2987.89 865.198 2828.04 1530.63 2493.57 600.789 1112.87 3783.13 3621.12 2090.6 407.803 2314.62 186.045
internal_count=1673363 916442 756921 354867 561575 394298 362623 282546 360740 301215 72321 231487 208593 259435 63265 159223 123323 141091 200835 159121 59525 174327 118061 149142 38220 198009 109908 131136 91558 80589 235177 93738 40534 3952 9056 37022 7813 5990 39234 22381 10081 6225 118344 30575 105713 3666 2491 79841 156940 23604 6483 26508 12631 21685 3856 10584 40305 44321 25973 2324 22894 1175
is_linear=0
shrinkage=0.05


Tree=10
num_leaves=63
num_cat=0
split_feature=6 6 6 6 5 6 5 6 2 5 2 6 5 9 2 2 2 4 5 6 2 5 2 10 6 2 6 2 5 2 9 5 5 9 9 6 2 6 2 4 4 9 9 2 9 9 5 9 5 6 9 2 2 10 2 6 9 2 9 2 5 10
split_gain=28940.3 5728.16 3798.34 792.347 786.142 560.811 341.612 274.58 195.816 187.655 174.276 167.892 144.693 126.655 119.367 118.119 112.25 108.724 100.353 94.7724 78.0463 74.876 74.0269 70.3653 67.277 64.0664 59.8992 59.0328 58.8259 57.7803 56.7522 56.3922 56.0882 54.7784 52.7401 51.3996 50.2958 49.9313 49.4703 48.9889 45.3848 44.9602 44.1132 42.5653 44.5951 39.271 38.7693 37.9549 36.9798 36.3144 48.3568 51.842 43.9974 48.7064 42.9882 38.8733 36.0001 35.9129 91.0948 35.7855 34.7939 36.3942
threshold=0.0008681213696224093 0.0013477101332063917 0.0005840613000071389 0.0022988982030469475 0.0010118567664398328 0.00070252216186195452 0.0012421815636481589 0.00048837564268580647 -0.0098625623565700132 0.0033980624062112234 -0.022729648436409729 0.00099796669402303097 0.00078285555928561082 0.0024052659383148049 -0.010567894840858126 0.010796326902858368 0.0018823328668075014 0.59456707522597763 0.0015071375505960644 0.0010119192479446824 0.00365110012524883 0.0011903977463213263 0.0043002330977002243 30.964798839066635 0.0014666790700732896 -0.010329043651757073 0.0012183303145572742 -0.017648634822255146 0.00072436964108347536 0.0070698759700270628 0.0028619460274308399 0.00074259814202901531 0.0010538084726126617 0.0011960405193586212 -0.0025477563398799137 0.0014434606572743163 -0.0083027847268047333 0.00035899850860823102 0.010047831771814566 0.22710067846499218 1.0691366275444265 0.0036788179136997283 -0.0034537158332399449 -0.024483515049887047 -0.0076498150860146432 0.0050955825754940296 0.00065876572539359639 -0.005135462541018653 0.0018115835749317507 0.0030939575339039476 -0.00056028717485884217 -0.029932558025083985 0.014742496250925498 60.407561745364724 0.0017288548153157059 0.0033585105864960929 -0.0028084835577429908 0.011673327533449187 0.0038114740035190002 0.0089651132790127281 0.0038479120921735914 46.991648026216446
decision_type=2 2 2 2 2 2 2 2 2 2 2 2 2 2 2 2 2 2 2 2 2 2 2 2 2 2 2 2 2 2 2 2 2 2 2 2 2 2 2 2 2 2 2 2 2 2 2 2 2 2 2 2 2 2 2 2 2 2 2 2 2 2
left_child=2 4 7 6 12 20 16 37 21 18 -8 59 36 14 27 26 31 35 -5 25 34 -6 28 -19 -25 -14 40 -7 -16 -15 -22 -3 -18 -17 -4 -12 -2 -1 -9 -11 -13 -27 -23 -20 -45 56 -38 -33 -28 57 51 -51 -52 -54 55 -53 -21 58 60 -10 -41 -62
right_child=1 3 5 9 8 13 10 38 11 39 17 15 19 29 22 33 32 23 43 45 30 42 -24 24 -26 41 48 -29 -30 -31 -32 47 -34 -35 -36 -37 46 -39 -40 49 -42 -43 -44 44 -46 -47 -48 -49 -50 50 52 54 53 -55 -56 -57 -58 -59 -60 -61 61 -63
leaf_value=-0.051918889526190809 0.0042895752442690159 -0.021595861822438611 -0.010400557479671703 0.010203164108795621 0.0097587194648551378 0.049306076054498452 0.037488487704737707 -0.037478308239476149 -0.0028591114484194454 0.019253696477234138 0.013447948316998054 0.0033826888704189487 0.010007384492105115 -0.0081789940488245522 -0.021354512435380307 0.010453497539676636 -0.0018142697487207064 0.034406400373316819 0.043313004667546444 0.013510429569176325 -0.022107406536577695 0.030150683154313386 -0.010476387027572647 0.01861934760378451 0.026934278366898386 -0.0052010911109394301 0.011806939078358815 -0.0014489117816109511 -0.014995489729723428 0.011979664244846658 0.010216659946909609 0.051463105341390161 0.011529973987477699 0.021566245430496931 -0.030783922706086375 0.022025148999318393 -0.015578335299871349 -0.046209769491192501 0.0044825799706667445 0.050178181147945582 0.010071765303751173 0.016212394065365326 0.018094543664311766 0.05354188170497684 0.032632609601246851 0.044489350333779737 -0.0071456394899446331 0.019196803265344887 -0.0091204212779672569 0.070883172923287954 0.038542865178802219 0.079492015182359654 0.082376719839268239 0.046226154958479572 0.063261898912078895 0.026110264129077639 0.0022510304212135335 0.023525372070639757 0.08231776617872448 0.0081815282916337106 0.015702657108818185 0.058375102383391109
leaf_weight=6751.435453504324 729.61095544695854 83.342725686728954 330.03997491300106 424.18458408117294 2244.1577441543341 60.858689002692699 2675.288123100996 7520.8677367120981 4214.7758197411895 142.10112577676773 2097.2251150682569 8866.0892060697079 812.32931181788445 853.68053540587425 6151.2506521046162 2073.9361645951867 1226.9719581082463 2505.3657186329365 1332.2772311717272 766.81728465110064 2763.1503980532289 1019.2375986501575 4822.7473847717047 2982.4651105925441 13197.431725502014 9157.302250534296 6576.5978033095598 976.89193861186504 8897.3397986665368 609.08038488030434 142.80904787033796 93.380429394543171 2198.2589803934097 2383.2784173041582 8248.9183704778552 10449.323087856174 1901.2207400947809 8850.0012917369604 70.904003418982029 274.64426054060459 3551.6295272782445 251.8703778386116 2968.6536215022206 265.9817223995924 6179.2815251499414 57.592102743685246 4814.6452229991555 3798.97338552773 218.09401179850101 559.85530659556389 760.85755851864815 40.4422617405653 143.26187260448933 266.499072894454 260.76583212614059 217.60779947042465 9568.7593462839723 224.48247854411602 141.7102152556181 888.68769899010658 222.57177649438381 64.430778697133064
leaf_count=98288 7256 831 3851 3294 19242 542 17837 98353 40673 875 17001 79604 7545 8986 70172 17715 10963 17857 8206 6832 32928 7688 51889 23739 97375 91680 55817 9700 96352 5861 1582 680 18356 19938 100760 78138 20196 124009 802 1626 31619 2284 24200 1582 41179 487 49252 31519 1806 2957 4348 230 817 1529 1491 1236 90220 1368 823 8193 1300 388
internal_value=-0.00014543 0.014205 -0.0292977 0.0263502 0.00403111 -0.0186195 0.0231164 -0.0448853 0.00902921 0.0379451 0.0252407 0.0072888 -0.00220403 -0.0140088 -0.0150038 0.00906229 0.013384 0.0241916 0.0338856 -4.62494e-05 -0.0276009 0.0170646 -0.0158672 0.026609 0.0254016 -0.00346478 0.00736101 0.0015276 -0.0175948 0.000214888 -0.0205189 0.0190995 0.00674985 0.0163955 -0.0299998 0.0205914 -0.00817837 -0.0486804 -0.0370864 0.047976 0.00529585 -0.00462788 0.0211759 0.0351772 0.0334955 0.00331582 -0.00953288 0.0199709 0.0111352 0.0492606 0.0526939 0.0603312 0.0456565 0.0588652 0.0489445 0.0344764 0.00308639 0.0409377 0.0464949 -0.000936558 0.0374564 0.0252824
internal_weight=172944 115894 57050 52829 63065.3 33856.8 41308 23193.2 35005.1 11521 33907.1 28773.1 28060.1 22371.8 20909.1 23669.6 7400.93 31231.8 8201.73 20614.7 11484.9 6232.05 19871.3 18685.3 16179.9 10221.5 19212.4 1037.75 15048.6 1462.76 2905.96 3975.7 3425.23 4457.21 8578.96 12546.5 7445.48 15601.4 7591.77 3319.23 12417.7 9409.17 3987.89 7777.54 6445.26 10393.2 6715.87 3892.35 6794.69 3177.13 2249.29 1078.67 1170.62 409.761 518.816 258.05 10335.6 927.84 703.357 5103.46 561.647 287.003
internal_count=1673867 969792 704075 387545 582247 382623 314296 321452 306495 73249 251947 255365 275752 243502 228655 206499 62349 234110 54261 199048 139121 51130 218413 138971 121114 101509 168846 10242 166524 14847 34510 33030 29319 37653 104611 95139 76704 222297 99155 18988 111223 93964 31888 50967 42761 97539 69448 32199 57623 18113 12608 5914 6694 2346 2957 1466 97052 5505 4137 48866 3314 1688
is_linear=0
shrinkage=0.05


Tree=11
num_leaves=63
num_cat=0
split_feature=6 6 6 5 6 6 5 6 3 2 5 6 5 2 2 1 2 6 5 6 2 2 2 3 3 3 1 3 5 1 2 5 3 1 1 1 2 2 8 6 5 10 3 4 2 2 3 5 3 10 1 2 2 6 5 1 10 3 3 6 6 4
split_gain=26496.5 5018.45 3720.53 703.732 683.168 532.922 295.995 278.767 186.085 172.501 161.116 154.442 131.699 113.794 122.144 110.881 98.4137 90.0414 87.8508 86.8953 83.6359 75.2713 73.3841 71.0691 68.5113 67.1965 65.5823 64.9909 64.2872 60.7125 60.4797 60.1153 58.2366 54.4461 53.8015 52.6734 52.651 51.9699 51.9418 51.4742 50.0038 49.2038 47.9894 47.9826 47.4082 45.8848 44.7169 44.5735 43.2658 53.5767 42.9382 74.7095 67.7146 80.555 46.2278 42.2543 40.8625 40.4198 39.8029 41.7417 38.948 47.2006
threshold=0.0008681213696224093 0.0013477101332063917 0.0005840613000071389 0.0010118567664398328 0.0022988982030469475 0.00070252216186195452 0.0012421815636481589 0.00048837564268580647 -0.059829507098982708 -0.010102068348401326 0.0033980624062112234 0.0010581825396530156 0.00078285555928561082 0.0050251256281407261 -0.010567894840858126 -0.0078068687147118667 0.0018823328668075014 0.0014782490395866853 0.001764639344680714 0.00096666039681273549 0.0083923687230105255 0.00365110012524883 -0.026754643702677213 -0.031796359848590521 -0.053063330861639828 -0.085738995612644073 -0.016791638474977829 0.001389545740565046 0.0011903977463213263 -0.0055710306406684942 0.012677295711928218 0.00071984335320191136 0.04905012463217074 -0.0055710306406684942 -0.0078068687147118667 -0.0043675436951491333 -0.018411636828058294 0.0023005670705391616 0.00071909101044354007 0.00035899850860823102 0.0010538084726126617 80.738931716835395 0.10322979269987533 0.84576829704543277 0.010047831771814566 -0.0083027847268047333 0.051822900435278603 0.00075151961117922645 -0.002709303911072269 54.948740911581716 0.0060467112525949282 0.0095950074774069378 0.0022274956695259589 0.0017859952367277 0.0018595306784918565 -0.0036368078676515254 21.414234417193367 0.070555984014001885 -0.023796660092833929 0.0010680052421220276 0.0018813681594917993 0.57998233132541832
decision_type=2 2 2 2 2 2 2 2 2 2 2 2 2 2 2 2 2 2 2 2 2 2 2 2 2 2 2 2 2 2 2 2 2 2 2 2 2 2 2 2 2 2 2 2 2 2 2 2 2 2 2 2 2 2 2 2 2 2 2 2 2 2
left_child=2 3 7 12 6 21 16 39 22 28 18 30 45 14 36 27 33 -17 -6 23 43 29 26 55 -16 -12 -8 37 -5 -4 -11 -26 -22 -3 -21 -30 -7 -10 -15 -1 -18 -36 47 -13 -9 58 -23 -35 49 -25 51 -19 -52 -54 -53 -14 -20 -34 59 -2 61 -24
right_child=1 4 5 9 10 13 8 44 15 11 25 20 19 38 24 17 40 50 56 34 32 46 60 48 31 -27 -28 -29 35 -31 -32 -33 57 42 41 -37 -38 -39 -40 -41 -42 -43 -44 -45 -46 -47 -48 -49 -50 -51 52 54 53 -55 -56 -57 -58 -59 -60 -61 -62 -63
leaf_value=-0.051621333241978463 0.0125963986340218 0.030051224941416835 -0.0068157965184162343 0.0092594591704570715 0.018701736691757068 0.056303504407010874 0.022508554194799454 -0.036767245585775453 0.034888436802802805 0.00011355677587802834 0.055637720186549139 0.0051368743103637595 0.05084641244650967 -0.0093636050495041409 0.10353344588694309 0.015901049082022205 -0.0017259411448894042 0.023433833797942123 0.052905810841449713 0.019309460327076946 0.013218940439827038 -0.020260426133492382 0.025970679616574174 -0.0053174973870517214 -0.020344703950391053 0.040015150172784959 0.076422500489649284 0.021010563408221966 0.024803307435654311 -0.030039286340175317 0.014263399698138005 -0.014095447240234815 0.041619450121054023 -0.021904746689586512 0.0011568333951377245 0.013000504011034177 -0.0011074959567842306 0.010571041510209881 0.0033526377739411862 -0.045701202489976521 0.010860533588679009 0.017650698142678722 0.087755252251950411 0.010964729724072926 0.0042427491882395686 -0.0091263241765958698 0.071428127355984569 0.015547487431880043 -0.0020303845622083572 -0.019603543657924175 0.018082916194549024 0.011423514007576937 0.023145986082171562 0.037679725751931438 0.023389327749360311 0.0078375650619643532 0.032826845467327385 0.0025010742361899225 -0.0011890023750826836 0.078670296250429719 0.027797669671571747 0.050302351292882609
leaf_weight=6458.2510384321213 91.000203788280487 749.43979126960039 291.58283195644617 2161.4692123606801 1154.1468276381493 41.584980756044388 78.27519828081131 7288.9367624372244 3227.7228482887149 8076.9289787784219 957.8771695792675 9085.4008171930909 80.899794533848763 3865.210457444191 11.890573158860205 5968.0754334852099 1225.3201530724764 12091.361334271729 262.96317526698112 451.88876809924841 4990.0289331823587 2844.3469553291798 304.83845601975918 2010.417552947998 6303.4974506944418 2445.7808868587017 201.88927064836025 1585.4600239321589 2323.3732656016946 8078.449132822454 833.06184633076191 9880.1348958238959 307.99306260794401 81.481733843684196 12422.095550060272 1593.6806500479579 1006.6557988971472 235.76238190382719 1013.6399844661355 8509.7080268114805 2216.5850898399949 469.24247451871634 22.579918563365936 5778.0515441372991 71.159635864198208 6665.8118075877428 13.360317036509512 3176.6461211740971 4009.8750715479255 974.35447079688311 1606.8711240589619 2490.5660928189754 1931.6258310228586 1882.6283458694816 1194.1739041358232 194.1832265034318 6956.9652273356915 84.056876748800278 608.61237696558237 32.418109200894833 1109.7813581377268 575.79784661531448
leaf_count=98288 885 5771 3442 18359 8357 356 442 98353 21690 75916 4840 79162 732 41420 121 47094 10963 88698 1518 3921 41908 34366 2101 20370 73127 14148 1164 11420 17621 101169 7353 108064 2508 825 117965 13164 9979 1676 10435 124009 18356 4217 184 49807 802 69448 144 26250 39853 10087 11705 18730 14137 13299 8577 1903 44386 697 6068 303 7353 3861
internal_value=-0.000150549 0.0133627 -0.0285417 0.00381685 0.024598 -0.0179661 0.021611 -0.0443379 0.0235659 0.0085195 0.0352389 0.00692207 -0.00209849 -0.0134633 -0.0153708 0.0225908 0.012589 0.0213261 0.0315106 -4.45793e-05 0.00933623 -0.0268381 0.0374005 -0.00444272 -0.0164414 0.0444117 0.0613595 0.029395 0.0161816 -0.0292303 0.00143653 -0.0165295 0.0146768 0.0178919 0.00235164 0.0200013 0.00117007 0.0332331 -0.00672165 -0.0482556 0.00637974 0.00175721 0.0151143 0.00740241 -0.0363707 -0.00782139 -0.0198318 0.0146109 -0.00542312 -0.00998106 0.0228536 0.0215344 0.0266925 0.0303195 0.0153015 0.0204861 0.0335582 0.0332323 0.00406127 0.0299519 0.0340281 0.0418798
internal_weight=172658 116979 55678.4 63244.8 53734.6 33350.4 41956.9 22328.1 34484.8 35234 11777.7 29155.5 28010.8 22122.6 17243.8 32214.2 7472.05 27165.3 8374.08 20613 20245.5 11227.7 2270.58 7269.73 16195.5 3403.66 280.164 5048.95 6078.52 8370.03 8909.99 16183.6 5382.08 4030.15 13343.2 3917.05 1048.24 3463.49 4878.85 14968 3441.91 12891.3 3280.71 14863.5 7360.1 7397.84 2857.71 3258.13 6994.65 2984.77 21197.2 15776.1 5421.13 3814.25 3684.74 275.083 7219.93 392.05 732.031 123.418 1990.42 880.636
internal_count=1673867 969792 704075 582247 387545 382623 314296 321452 251947 306495 73249 257351 275752 243502 191647 237026 62349 202240 54261 199048 174082 139121 14921 72945 181312 18988 1606 34786 49144 104611 83269 181191 45113 33030 126103 30785 10335 23366 51855 222297 29319 122182 27259 128969 99155 76704 34510 27075 70310 30457 155146 116005 39141 27436 27307 2635 45904 3205 7256 1188 13315 5962
is_linear=0
shrinkage=0.05


Tree=12
num_leaves=63
num_cat=0
split_feature=6 6 6 5 6 6 6 5 6 2 5 5 5 2 4 6 9 2 2 2 2 5 10 2 5 2 9 9 2 6 6 9 2 2 9 6 2 6 4 2 6 9 2 10 5 2 2 10 2 9 5 2 5 8 9 10 5 10 6 5 10 5
split_gain=24263.1 4407.79 3640.35 612.707 606.321 506.438 283.013 271.493 144.481 141.872 139.407 121.593 109.577 96.9719 96.4319 93.2293 91.9815 85.7628 81.0081 86.8977 80.2273 78.7755 73.0066 69.5264 59.9594 56.5943 54.991 57.8948 52.5503 51.5512 48.7094 48.367 46.1227 44.746 43.5752 45.6438 40.8305 40.7185 40.5072 39.4648 38.3812 37.8311 37.5802 36.9725 36.1456 35.5908 35.503 40.1813 34.8538 35.5615 34.8369 34.4903 34.0771 33.2175 32.3828 31.3916 30.7446 40.3593 30.7121 41.694 30.6031 30.4563
threshold=0.0008681213696224093 0.0013393114542999409 0.0005840613000071389 0.0010118567664398328 0.0022988982030469475 0.00072727570966081307 0.00048182689187450657 0.0012421815636481589 0.0010581825396530156 -0.024483515049887047 0.0033980624062112234 0.00070647956405427777 0.00060803642433514976 0.00075308045213851049 0.57538898229348556 0.00096666039681273549 0.0024052659383148049 -0.010329043651757073 -0.0076523618231278947 0.0083923687230105255 -0.011660718655452649 0.0015071375505960644 30.964798839066635 0.0089651132790127281 0.0010538084726126617 0.0043002330977002243 -0.0023188405660639617 0.003213346349874358 0.012677295711928218 0.0016085437347551281 0.00035899850860823102 -0.00088437303238575449 0.010047831771814566 -0.006474608423914118 -0.0016206591044194416 0.0012183303145572742 0.0060985471033007119 0.0014434606572743163 0.22710067846499218 -0.010102068348401326 0.001211247773176701 -0.0029685812694560383 0.012006313672983328 86.479501201660241 0.00091395901377918992 0.0066276324627492231 0.0010765185493983866 49.388869207787828 -0.024483515049887047 -0.0076498150860146432 0.00085954461880706338 -0.019309571875889883 0.0011834505141206872 0.0030080573927655512 0.0023480583233440604 68.203336787261847 0.0015204217957437061 51.35570304787786 0.0033585105864960929 0.0031017621339891367 65.526255417409672 0.00042146389548082367
decision_type=2 2 2 2 2 2 2 2 2 2 2 2 2 2 2 2 2 2 2 2 2 2 2 2 2 2 2 2 2 2 2 2 2 2 2 2 2 2 2 2 2 2 2 2 2 2 2 2 2 2 2 2 2 2 2 2 2 2 2 2 2 2
left_child=2 3 6 11 7 12 30 13 20 -9 21 -2 42 41 37 39 17 31 52 34 -5 60 -16 44 -15 50 -17 33 -22 45 -1 51 -8 -28 -20 -36 -18 -11 -12 -13 -35 -3 61 -25 46 -24 47 -14 58 -50 -19 -7 -10 -51 56 -47 -21 -58 -23 -60 -6 -4
right_child=1 4 5 8 10 16 32 9 18 14 38 15 23 24 22 26 36 25 19 54 28 48 29 43 -26 -27 27 -29 -30 -31 -32 -33 -34 40 35 -37 -38 -39 -40 -41 -42 -43 -44 -45 -46 55 -48 -49 49 53 -52 -53 -54 -55 -56 -57 57 -59 59 -61 -62 -63
leaf_value=-0.051330588727458104 -0.010726353672671525 0.029328199098842541 -0.041152464862608179 0.015360349473207018 0.015696832616526126 0.066496523168854543 -0.036392515343899104 0.0340720867495133 0.0092406538394939862 0.011644806664834955 0.015559561408821577 0.0064672329997059221 -0.022081978187703355 -0.0020743111367491165 0.030727686311999541 0.010085312404980555 -0.0076983176816450578 -0.017216766673276134 0.01129860645225563 0.009146115384672214 0.00031023017940363273 0.042052000483861172 0.021311642390200398 -0.0068444664093120517 0.010774546157558884 -0.0088252267615818274 0.0060272347918729069 0.014598113393066842 0.013404804441660485 0.024296561911795821 -0.045378742646132689 -0.013780090132203701 0.0036031398603184189 -0.0028511448070180374 0.0017091262748232549 0.0086808538980333375 0.0099246323611324148 0.019038313186114719 0.042360776104124781 -0.00575273909955476 0.0057309798780516563 0.015270076021552038 0.013724063405414847 0.046234718553597967 -0.010223025582335387 0.0099885266478413268 -0.018626243696358104 -0.031865643459585404 0.046420632236412129 0.026988102353736599 -0.011424777803445503 0.006831642818685685 0.01746826876446959 0.038764671162128408 0.019421159052620117 0.022282300573579768 0.0057399749582597026 0.034087145753631719 0.014987246911007107 0.05369347116875426 -0.01623755300148692 -0.029162517024404033
leaf_weight=6177.199468024075 3515.0298205167055 557.86016808450222 593.66956826299429 1172.6358986571431 336.17687150835991 25.181990019977093 7498.4020377099514 2265.3776561617851 1782.6647931933403 2265.1058742851019 147.20703400671482 717.34858365356922 2676.6656059250236 1415.0086288973689 2824.6101244911551 1700.552603058517 691.1904010027647 8940.9675099253654 3126.2550056129694 3045.8366248160601 8522.7268415689468 1032.0948128700256 4731.3042431920767 482.36377309262753 2533.8497983813286 4187.0429799258709 2348.0290211290121 695.44952411949635 841.86556438356638 10516.294779703021 7750.8151638358831 354.9273197054863 72.782000012695789 8987.8537365794182 5831.6060867756605 3929.7147052362561 626.67005656659603 10469.767972864211 3333.9086171388626 8367.7377393320203 1523.6213801056147 3366.4685421586037 48.558845147490501 35.201449856162071 585.07294771820307 1654.1522559896111 2688.8488847911358 1726.273907199502 279.81051181256771 5761.6686639785767 3658.3627825081348 634.990926168859 4280.1619450449944 668.22919407486916 1715.7196193784475 756.83666860312223 214.54736110568047 302.74582267552614 266.30534870922565 94.180246114730835 96.573563151061535 4910.9314493685961
leaf_count=98288 37389 4194 7904 9678 2557 203 104850 14286 15107 17997 875 6717 32801 12636 19336 15467 7367 102258 26667 25666 79789 6084 35542 5452 20799 45315 22103 6109 7353 74188 117492 3639 822 87429 51725 33082 6000 75915 18113 85342 14204 27612 565 368 6811 12668 32611 21314 1582 36996 39840 6144 33718 4183 13928 5686 1751 2460 1609 513 737 64031
internal_value=-0.000154541 0.0125792 -0.0277916 0.00349195 0.0228562 -0.0173273 -0.0437888 0.0201018 0.00791894 0.0219655 0.0327946 -0.00203336 -0.0246467 0.0117021 0.0211399 -0.000778001 -0.0120643 -0.0130079 0.0100446 0.00837438 0.00303127 0.0293552 0.023264 -0.020972 0.00617037 -0.0138614 0.00160999 0.000546704 0.00148742 0.0220702 -0.0480184 0.00110493 -0.036008 -0.000213205 0.00616117 0.00451581 0.000681762 0.0177233 0.0412274 -0.00478786 -0.00160718 0.0172685 -0.0300693 -0.00323436 -0.0221678 0.0187921 -0.0231533 -0.0259179 0.0304653 0.0289713 -0.015535 0.00910753 0.0150491 0.028212 0.0137776 0.0138477 0.0110602 0.0223302 0.0376637 0.0250996 0.00857028 -0.0304556
internal_weight=172361 117995 54366.1 62622.1 55372.8 32866.9 21499.2 43356.6 34766.5 35483.4 12016.2 27855.6 13747.6 7873.19 33218.1 24340.6 19119.3 17801.5 24229.3 18166.4 10537.2 8535.04 20483.2 8194.43 3948.86 16786.4 15255.5 13555 9364.59 17658.6 13928 1015.1 7571.18 12859.5 12887.6 9761.32 1317.86 12734.9 3481.12 9085.09 10511.5 3924.33 5553.16 517.565 7676.86 7142.29 7091.79 4402.94 8102.29 6709.71 12599.3 660.173 6062.83 6429.9 5278.85 2410.99 3563.13 517.293 1392.58 360.486 432.75 5504.6
internal_count=1673867 969792 704075 575684 394108 382623 321452 320859 300924 255618 73249 274760 171857 65241 241332 237371 210766 197399 204104 155279 96820 54261 147420 99357 33435 187413 145312 129845 87142 128084 215780 9986 105672 123736 111474 84807 13367 93912 18988 92059 101633 31806 72500 5820 93537 53896 86726 54115 50967 42761 142098 6347 48825 41179 43805 18354 29877 4211 8206 2122 3294 71935
is_linear=0
shrinkage=0.05


Tree=13
num_leaves=63
num_cat=0
split_feature=6 6 6 5 6 6 6 6 1 3 5 6 1 5 3 5 3 10 3 3 10 3 5 3 5 3 6 10 6 5 4 3 3 5 6 6 3 6 4 5 3 3 3 5 3 6 5 3 6 6 5 10 7 5 3 1 4 10 4 3 1 10
split_gain=22220.9 3879.07 3557.64 549.122 529.214 482.967 287.149 222.856 175.344 142.108 129.305 128.389 113.597 109.071 92.7408 84.1285 76.8269 74.206 74.1971 72.7107 72.4229 82.7611 61.3465 59.5926 58.662 57.8016 56.652 56.6183 54.6485 53.4481 44.8052 44.6835 44.5235 44.3959 44.0446 41.2919 40.8221 40.7029 40.1428 39.9408 48.0682 39.4559 43.596 39.38 38.7461 47.0346 38.2582 37.3018 56.2614 35.8437 38.8448 35.7213 35.961 35.559 37.3743 34.7866 34.5704 33.8488 33.6902 33.5619 33.554 32.5339
threshold=0.0008681213696224093 0.0013393114542999409 0.0005840613000071389 0.0010118567664398328 0.0017859952367277 0.00070252216186195452 0.00048837564268580647 0.0027494698002997996 -0.0055710306406684942 0.0012174615738432817 0.0012343079949750683 0.0010581825396530156 -0.0042764023931240449 0.00070647956405427777 -0.10234541577825161 0.00085493199030669761 -0.033529927842343092 37.350882877457742 -0.033529927842343092 0.0002269117780702157 73.915647035410572 -0.0030535492634076729 0.00060803642433514976 0.018687206606843757 0.0015485520411783241 0.010881293255987192 0.00096666039681273549 75.736647204793357 0.00035899850860823102 0.00075626173255314568 0.29042471284632337 -0.05032299807267137 -0.029424083925780772 0.0011903977463213263 0.0015388455997743962 0.0021972713475769349 0.017517883311472974 0.0018813681594917993 0.25401282150490062 0.0033980624062112234 -0.006402828004536786 -0.05608755899652023 -0.028029385986272189 0.0023263739597946301 0.0029309268627323308 0.00074157419467155302 0.00085954461880706338 -0.085738995612644073 0.0037640150842129486 0.0044598032555124246 0.0031017621339891367 66.700370703034736 0.00021294718909714574 0.0047986783046683754 -0.05608755899652023 -0.0018502069522375872 0.31469653028245709 55.60680383511221 0.94013131446663056 -0.043952548049510647 0.0054913867072543541 88.538464801255415
decision_type=2 2 2 2 2 2 2 2 2 2 2 2 2 2 2 2 2 2 2 2 2 2 2 2 2 2 2 2 2 2 2 2 2 2 2 2 2 2 2 2 2 2 2 2 2 2 2 2 2 2 2 2 2 2 2 2 2 2 2 2 2 2
left_child=2 3 6 12 8 22 28 24 9 -3 29 -5 18 -14 49 20 17 53 46 26 44 -22 36 30 25 41 32 -21 -1 -10 -12 -17 -15 -13 43 37 -4 -27 -26 40 -18 51 -43 -25 -7 -46 -2 48 -19 56 -51 52 -6 -16 -55 -28 -9 -34 -24 -32 -60 -57
right_child=1 4 5 11 7 15 -8 14 10 -11 23 33 13 19 16 31 39 47 -20 27 21 -23 58 34 38 35 55 -29 -30 -31 59 -33 57 -35 -36 -37 -38 -39 -40 -41 -42 42 -44 -45 45 -47 -48 -49 -50 50 -52 -53 -54 54 -56 61 -58 -59 60 -61 -62 -63
leaf_value=-0.051045753415576822 0.053618724325495519 0.029531537773259914 -0.031268152639233111 0.0028726255643398628 0.054772336474176335 -0.017811566824866037 -0.034930303154383356 0.01096002904471979 -0.020744805636356882 0.013344041068234853 0.011656508120042793 0.006777774899555499 -0.011941387729907819 0.0074081064907865566 0.035060104909575437 0.097970454011911456 0.045222037711200709 0.051579561949930255 0.0039470261452175578 -0.00020310687295491136 -0.021711390746495432 0.0054789073514942806 -0.024810768670765281 0.0070946005000852956 0.016180700347694782 0.019048968849476003 0.0048549899262245507 0.012349909377876849 -0.044683569071392669 0.0092863210339883071 0.027822020822071858 -0.0079043133250051353 -0.007544010690027584 0.011159914347362965 0.017108946738494262 0.0045473344031634177 -0.016459830040318781 0.040367570541493591 0.025756278086117898 0.044557577972699276 0.027963454512897692 0.0005830543842670965 0.016185294079544027 0.056094170601779195 -0.02068639218316588 -0.0099168509268995637 0.016177037491450882 0.017635310825647583 0.015897831241657761 -0.013269002248206672 0.041220654911205822 -0.007167442025472261 0.016547424718275385 0.085062784683584539 0.022543545823758403 -0.0044586655932754076 0.058476724483097355 -0.017671805371712642 -0.018493731343146316 0.019119921592194423 0.009251756664423412 0.035901788405944678
leaf_weight=5907.8969804979861 108.75630321353674 4197.463748395443 4203.6849187761545 10560.487187348306 139.54871518909931 7959.6716039404273 6924.1345959976315 40.896342858672142 151.99906750768423 2002.6889777109027 1816.7176523506641 9402.2425120472908 3132.222958125174 343.96263598650694 559.36939312517643 9.9804453253746015 564.30061711370945 224.22781364619732 3713.5180229395628 9551.877056196332 410.32548924535513 880.16910561919212 3871.0043015107512 2535.6474320739508 1180.7206352055073 386.02134416997433 1417.5261142104864 991.49808730185032 7873.4316172525287 5864.8790331631899 1258.1231102496386 6691.8549737930298 2139.9996662139893 15001.598174445331 2601.7831402346492 169.36656937003136 523.33695377409458 533.10313603281975 14989.055307775736 1162.9944353997707 1415.3690761402249 698.51548978686333 1247.0402117744088 41.678435325622559 1319.3205736577511 4378.3200465291739 183.0767844542861 1641.6454838737845 217.76145465672016 36.212710112333298 337.88439452648163 53.316755652427673 110.05250602215528 77.908781513571739 34.486253559589386 4834.5952032878995 597.91727301478386 1342.5840176567435 2042.0778823718429 9285.548635751009 115.11065974086523 50.451391734182835
leaf_count=98288 955 28674 56837 96820 997 92827 99155 199 1539 14796 13622 81378 33747 3427 3163 90 3535 1272 34935 93331 4727 9548 48655 19540 7920 2901 13706 9131 124009 48635 8700 71676 22418 122726 18857 1267 6831 3986 98101 6378 8816 5145 9399 296 15943 48691 1531 9828 1225 210 1590 395 766 395 182 46905 2955 14214 25494 68824 1304 460
